1344 100
CAG 0.050922457 -0.24264371 0.07990711 0.013449977 0.0628866 -0.15911855 -0.1943252 0.12024634 0.23068574 -0.07740971 0.027015638 -0.019292383 0.18343557 -0.022789808 -0.021077493 0.019194271 -0.34932542 0.10060686 -0.08576608 0.19369492 0.22562914 0.3450409 0.13438384 -0.17511696 0.1726088 -0.033188257 0.43336034 0.06813137 0.050773088 0.19108047 -0.022807844 0.23785846 0.054985367 0.01952912 0.24844936 0.11642577 -0.12968178 0.16578504 -0.12693736 0.016110519 0.014540771 0.21775329 -0.08110792 0.13815917 -0.10395794 -0.042447507 -0.014895979 0.0998501 0.22052212 -0.0068219923 0.013377993 0.0055770935 -0.27538395 -0.028151542 0.1211386 -0.0037006836 -0.10383803 0.050331756 0.06400951 -0.22483258 -0.05568541 0.10645819 0.20179182 -0.09585394 0.141334 0.3836541 -0.115934834 -0.0017757 0.16585459 0.14352758 -0.14249521 0.24195758 0.20641264 0.10753244 0.08126613 0.03367095 -0.04004593 -0.0063148593 -0.20106663 0.07932932 0.0062212143 -0.19676237 0.11732062 -0.03448952 -0.022749845 -0.17113078 0.20736702 0.25131434 0.026323078 -0.20015267 0.03145236 -0.06418301 -0.00939095 0.012168366 0.14219777 0.099670775 -0.29218474 -0.03132279 0.04229083 -0.017149543
CTG -0.03677589 0.018852249 -0.012483055 -0.13526745 0.07443323 0.05264614 -0.06662194 0.3888597 0.11911137 0.12112181 -0.023025665 -0.23470414 -0.050056934 -0.04305006 0.0026658883 -0.06476266 -0.06385706 0.06751751 -0.13933559 -0.06282588 -0.03481289 -0.09651268 0.1501498 -0.14695178 0.3876615 -0.312884 0.12860993 0.06595412 0.18387954 0.067621335 -0.044086114 -0.08744541 0.042955566 0.073065475 0.43311372 -0.031862635 0.0912422 0.2737007 -0.12721522 0.011940146 -0.20632602 0.083529614 -0.081456 0.36380747 -0.21795072 0.11094979 0.1974129 0.021300018 0.00971509 0.0992363 0.10165525 -0.005116849 -0.11810101 0.055170055 -0.23609972 -0.05798311 0.2644602 -0.02149374 0.044152442 0.12049331 -0.06005046 0.006006058 -0.052565336 -0.028890496 0.1509587 0.06688493 -0.2401013 -0.067271255 0.0033499175 0.34464276 -0.072943605 0.11995475 0.106345944 -0.026157092 -0.079785325 0.19703859 -0.07217031 -0.07956336 -0.08205755 0.034478307 -0.13899237 0.048520107 0.18131778 0.28806657 0.088092916 0.15154938 0.2059271 0.12880388 0.24169463 0.023227844 -0.26460877 -0.19745517 -0.12859091 0.16331768 -0.11011606 0.06537969 0.04635729 0.085641585 0.10330949 -0.12689853
TTT 0.040381413 0.035940792 0.11141833 0.34266436 0.17396405 0.06961158 -0.06619501 0.29317477 0.20339336 -0.052152075 -0.16489646 -0.1959462 0.11554776 -0.097106814 -0.05395871 -0.010103272 -0.11513134 -0.072646655 -0.1885736 0.32311884 -0.06392918 -0.11156494 0.09150335 -0.18128571 0.45442685 -0.42921236 0.23240747 0.12145172 -0.24570474 0.0018900345 -0.22542249 0.049846064 -0.11847013 0.16326314 -0.25099173 -0.09939645 -0.387414 0.08200444 -0.21568605 0.04194562 -0.12545083 0.11653429 -0.11927185 0.14959438 -0.07587188 0.2783903 0.071346216 0.20392117 0.078886725 -0.10090435 0.014777154 0.18524683 -0.23256558 -0.26287743 -0.1836937 0.20314011 0.24376777 0.15294696 0.08054831 -0.12701982 -0.020747175 0.11677208 0.15544261 -0.35570365 -0.1814662 0.08965474 -0.17867379 -0.2156643 0.16679238 0.10601048 0.040505532 0.034421477 0.20780213 0.10059096 0.018372439 0.020240016 0.18140005 -0.4408868 0.05656686 0.14435248 -0.053975344 0.04203852 0.21757734 0.1850269 -0.04657835 -0.07903282 0.0043597026 0.12446894 0.39643508 -0.30096933 -0.028420404 -0.122991934 0.26413372 0.20310485 -0.033315454 0.014204993 -0.16570222 -0.15623847 -0.17603807 -0.2055546
AAA -0.065294504 -0.008454478 -0.1753513 0.1238255 0.5534989 -0.13012975 0.00997449 0.1191542 0.05123701 -0.07924041 -0.018302785 0.16363882 0.070343144 0.000823293 0.05135409 -0.111453205 -0.069391795 0.101692885 -0.23348214 0.22451681 0.30423144 -0.16924599 0.05391868 -0.20324084 0.13711822 -0.12472402 0.22794817 0.080075644 0.036644775 0.028008148 0.0127446195 -0.21107583 0.228345 -0.24566787 0.1839001 -0.16378675 -0.04361092 -0.023557 -0.2890092 0.08290825 -0.054983646 0.23365924 -0.2189231 0.09020896 -0.27010855 0.32070675 0.065418385 0.25632784 0.11746266 -0.28139287 0.0876835 0.11818721 -0.114144064 0.13525341 -0.14598131 -0.11518211 -0.029712591 -0.16411793 0.036359232 -0.23386559 0.021092676 0.022677502 0.35951218 0.12771443 -0.2122996 0.60793036 -0.08733365 -0.139054 0.20294984 0.37619266 -0.045099527 0.007863229 0.25278446 0.0052513587 0.039811492 0.25979084 -0.044469535 -0.015482276 0.05394396 -0.18453445 -0.18415622 -0.051192094 0.025932217 0.20054406 0.041558266 -0.09439201 0.13828908 -0.13346204 0.3110736 -0.18252912 -0.09462603 0.017710535 0.30015832 0.031288743 0.12439387 0.13628471 0.178676 -0.12374441 -0.21039528 -0.20526214
CCT -0.33611724 0.09264379 -0.26125875 -0.07967334 -0.027693976 0.18497942 0.009756418 0.37774634 -0.059723843 -0.017830238 -0.20505753 0.02016644 0.048887484 -0.0939351 0.0043202187 0.024520246 -0.036836937 0.102035336 -0.15978289 0.28861234 -0.09711748 -0.034526482 0.046687935 -0.27899212 0.23532894 -0.22967353 -0.00030899717 0.20624094 -0.22917607 -0.009363129 -0.08566239 -0.01835102 0.08167177 0.05074464 0.065199144 0.0013336248 -0.2005147 0.30802044 -0.051124297 0.14851779 -0.012528362 0.0060407836 0.08632257 0.032874513 -0.21205172 0.23708165 -0.06324817 -0.15106621 -0.04231604 -0.024607856 0.030039992 -0.022215994 -0.30369276 -0.0112466775 -0.052997194 -0.11053018 0.2775619 0.22821186 0.26533446 -0.04267439 0.33760315 0.18124337 0.15414348 -0.13757953 -0.023630444 0.25378996 -0.08350974 0.019403152 0.21848033 0.1258494 -0.27648786 -0.054570198 0.26298884 -0.07865565 -0.056577243 0.14046536 0.28218406 0.07766483 -0.3488785 -0.41355214 -0.038309354 -0.0061349957 0.109080814 0.13042146 -0.11076515 -0.06327026 -0.04837456 0.10357834 0.024126397 -0.14747895 -0.073076196 -0.25346598 -0.15183458 0.11967238 0.12618715 0.12563172 -0.16705146 0.07840708 0.076177485 -0.11409992
AGG 0.14991142 0.0050175563 -0.066673 0.083930805 0.46026412 -0.01253607 -0.045166276 0.05069253 0.19065472 0.07100323 -0.047325734 -0.069311984 0.1850599 -0.04468989 0.24121934 0.08733496 -0.31201184 -0.020882465 -0.011053049 0.28261715 0.100963466 -0.1548669 0.116158284 -0.17554834 0.23256382 -0.30488688 0.062718146 0.19441205 0.11790372 -0.11399867 -0.057852905 -0.099980004 0.28326404 -0.38183963 0.27871034 -0.013526272 -0.19957678 0.049434688 -0.0899386 0.04216303 0.25352693 0.06419646 -0.1238767 0.12564373 -0.1327678 0.031932235 -0.00528808 -0.088111915 -0.27130407 -0.18065625 -0.016459951 -0.018609032 0.05316585 -0.01906318 0.24884327 0.08006066 0.13005677 -0.21507846 -0.17530137 -0.121356845 -0.029480292 0.13913494 0.367811 -0.061461933 0.035125297 0.15313795 -0.12861833 -0.118619375 0.1153112 0.20040579 -0.047038447 0.23458365 0.05225962 -0.068024285 -0.03351089 0.03640162 0.044962537 -0.09157225 -0.060440436 0.10878852 -0.058756586 -0.118109554 -0.0723202 0.0043194867 -0.020071618 -0.09896494 -0.022624645 0.23645198 -0.025933402 -0.2525102 -0.021486366 0.0817807 0.09551672 -0.088282175 -0.2627559 0.006887856 0.008697108 0.027771056 0.12715544 -0.12534387
GGG 0.1333018 0.027588263 -0.1480428 0.009509003 0.35263097 0.28835246 0.04395023 0.09354427 0.29853123 0.10089971 -0.14893995 -0.10756058 -0.045154113 -0.04196835 0.2918808 -0.012865761 -0.17522046 0.048114624 -0.12566863 0.27776858 0.022250326 0.06282198 -0.14000589 -0.2151093 0.081654675 -0.062360924 0.03540956 0.14170851 -0.010520573 -0.08670169 -0.026376775 -0.008542926 0.2865982 -0.0034423321 0.1880756 -0.080447525 -0.20278999 0.03045873 -0.2158983 -0.07663053 -0.14215097 0.00315468 0.12835129 0.23703563 -0.074983716 -0.10666849 -0.108367726 0.10342763 -0.06122703 -0.09224874 0.00689883 -0.20446025 -0.036315016 0.10884111 -0.031197488 0.193043 -0.08177228 0.00075654045 -0.034470227 -0.13015436 0.07964842 -0.251304 0.45152217 -0.04008503 0.09322961 -0.021235604 -0.32038835 -0.20286785 0.045586552 0.14568068 -0.10330393 0.2542181 0.27594027 -0.18039544 -0.12143631 0.031738967 -0.15255086 0.0034616045 -0.17797953 0.25361028 -0.096047305 -0.20139647 0.01808427 0.0739565 -0.0835269 0.03611874 0.021093955 0.071940675 0.05073367 -0.15490308 -0.15988383 0.047883794 0.13056652 0.0027790568 -0.10118297 0.16495639 -0.23931368 -0.06430231 -0.174593 0.02098852
CCC -0.25262776 0.004872501 -0.26624903 0.06525894 0.11980889 0.09598205 0.09046722 0.068600245 0.13212073 0.07585489 -0.15321557 0.03237102 0.067088485 -0.065801896 -0.013108148 -0.011173301 -0.16482194 0.078739144 0.020877851 0.2857615 -0.055168815 0.2813023 0.07110072 -0.11517841 0.32204607 -0.20171426 -0.0654068 -0.008174541 -0.19681247 -0.024518711 0.061199013 -0.016751664 0.059735727 0.061453283 0.22267888 0.10333681 -0.13473114 -0.03181979 0.06944246 0.46232593 -0.110134065 0.17015472 0.020548418 0.15999636 -0.0895632 0.08811434 -0.051363476 0.08198202 0.012821242 0.051881358 0.14197615 -0.004730656 0.18753935 0.013863433 -0.2865106 0.10958884 0.23393978 -0.11013308 0.33665445 -0.044942576 0.058325954 0.2256371 -0.055395313 -0.1266136 -0.09358394 0.2194313 0.19761819 0.059126027 0.07678175 0.20325185 -0.14796114 0.010512736 0.2748901 0.030966293 -0.09667683 0.24326389 0.041995425 -0.14965008 -0.42692015 0.05097769 -0.22124052 -0.12000179 0.07130662 0.028489402 -0.04237251 -0.1785214 0.26379484 0.017411932 0.12145693 -0.08955041 0.024237517 -0.33753043 -0.03991302 -0.16249202 0.11164497 0.036898445 -0.07753377 0.21028294 0.1200966 -0.0598195
CCA -0.025824055 -0.34178415 -0.1562639 -0.07145584 0.2621248 -0.13036284 0.09203946 -0.023109231 0.1340408 0.17469518 -0.031490106 0.23245654 -0.06596797 -0.051638264 0.050245117 -0.029462518 -0.05913956 0.12005497 -0.14020692 0.31464013 -0.07789848 0.016601464 0.12867343 0.049318496 0.14852023 -0.26793003 -0.32647854 0.10509287 0.078113474 0.303223 0.08999377 0.02613555 0.028733449 -0.09292097 0.14243083 0.04761957 -0.37958583 0.10381175 -0.2664715 0.2565859 0.14417638 0.25472763 -0.13058499 0.2632582 -0.118504785 0.07801489 -0.14912789 0.24102625 0.14449297 -0.25383425 0.09804297 0.12538174 -0.15152994 -0.05822635 -0.045095462 -0.012516946 0.3171361 0.26834473 0.1161092 -0.12523529 0.06252672 0.20143759 -0.09294422 -0.092923306 -0.18282573 0.18076813 0.023636343 0.10511963 -0.09409529 0.27834314 0.22747985 -0.01901215 0.17964292 0.018198032 -0.121583715 0.12023579 -0.07255512 -0.028586382 -0.43465212 0.036443625 -0.35127512 -0.03100364 0.04758828 0.084609 -0.16961364 -0.13018586 0.11228794 0.038813658 0.061738547 -0.0022637027 0.017703228 -0.03952391 -0.20407821 0.011362041 0.08729654 0.16421433 -0.08757101 -0.054798584 0.0617004 -0.051076498
TGG 0.009459792 -0.106107555 -0.017020611 -0.042546093 0.23805228 0.25308144 -0.0024556662 0.19664843 0.14968625 -0.025236104 -0.27130234 -0.05117455 -0.110452324 0.01374668 0.10069917 -0.116024844 -0.070117764 -0.04791982 -0.19488625 0.36117706 -0.20069192 -0.10867815 -0.060794517 -0.20944564 0.28202695 -0.051182702 -0.08924149 0.14358124 0.007990747 0.14070559 0.06141641 -0.12890206 0.105321996 0.0162343 0.056631844 0.07515791 0.060000636 0.21574828 -0.123735294 -0.056951538 -0.26870516 0.18576787 0.13444123 0.033472143 -0.03512477 -0.28496447 0.14586611 -0.013608729 -0.28012452 -0.097683415 0.15190835 -0.16864215 -0.1933509 0.09263212 0.12756711 -0.03735688 -0.09080953 0.09753226 0.16153571 -0.12334415 -0.2089772 0.027639907 0.3937602 0.06491966 0.123510435 0.1342604 0.014348359 -0.21496172 0.12686737 0.20016095 -0.07396138 0.08529109 0.053919878 -0.014021136 -0.24906409 0.052193984 -0.22052832 -0.34586123 -0.03446689 -0.029506508 -0.21269171 -0.08604286 0.16580053 0.015631711 0.031145915 -0.2752171 -0.0042206505 0.1953342 0.36553735 -0.11255276 0.07613868 0.026298467 0.2549229 0.15466255 -0.010989528 0.070798166 -0.05982721 0.028875105 -0.17440358 -0.13311526
CTC -0.10398606 -0.04304923 -0.28058004 0.13128638 0.12570167 -0.17558406 -0.116935916 0.422888 -0.025019707 0.13879101 -0.045489974 -0.057537116 0.08841167 -0.11048427 0.062353443 -0.13016988 -0.16013148 0.11882998 0.031702917 -0.03854611 -0.24470598 0.09084893 0.22511072 -0.344487 0.16723494 -0.23250774 -0.008216162 -0.093728036 0.21620657 -0.13072442 -0.18024077 0.040339913 -0.0660046 0.14428507 -0.101929024 -0.018149558 -0.29268366 -0.03170374 -0.2964123 0.19852358 0.013593085 0.17365502 -0.045689147 0.14058812 -0.315417 0.10619671 0.20067956 -0.06145102 -0.08310707 -0.027628705 0.1206994 -0.01312896 -0.24301107 0.2074633 -0.22106493 -0.0011579772 0.17443244 0.16684367 0.22331943 0.052335583 0.060212824 0.19008154 0.18651633 -0.38874513 -0.037136 0.17495678 -0.02666948 -0.17970334 0.008221486 -0.09314126 -0.168387 0.17437315 -0.0073093674 0.038429543 0.19325416 0.025254758 -0.066849686 0.055382278 -0.3575225 -0.054784965 -0.18426749 -0.014357408 0.20225027 0.19774216 -0.07889378 -0.0958666 0.16554712 -0.207355 0.19278586 -0.044749342 -0.04975317 -0.20551588 0.12650627 -0.15165795 0.13722558 0.35089087 0.020653758 0.13474055 0.080663554 -0.07302021
GAG 0.19628255 -0.091495715 -0.023477009 -0.04046005 0.22557499 -0.18912834 0.021053948 0.056471784 -0.041748513 0.08204875 -0.12600954 -0.1164398 0.0069828937 -0.12534541 -0.018572124 0.39200437 -0.43948886 0.28363273 -0.3535979 0.2132937 0.00056568073 -0.004351456 -0.06079902 -0.22746211 0.13546924 -0.14271748 0.070512116 0.113426104 -0.0588041 -0.05087424 0.006373423 -0.10113256 0.13326846 -0.24768907 0.11237538 -0.12174362 0.17057896 0.074286334 -0.24723606 -0.0030780178 -0.14619958 0.15890498 -0.14177442 0.26947743 -0.02016314 -0.12320722 -0.03458876 0.028972162 0.01397542 -0.21803916 -0.054019343 -0.030758789 -0.016900925 -0.13890032 0.18914643 0.10326507 -0.09291396 0.09430805 0.0684742 0.10584952 0.13306223 0.060140625 0.24738015 -0.0882439 -0.2031962 0.12954725 -0.011372443 -0.04248445 0.009035074 0.34092563 -0.08319333 0.39918572 0.11686553 -0.13434471 0.095101506 -0.21831688 -0.102337636 -0.004131301 0.07199508 0.06996798 -0.07230948 -0.061628353 -0.19738244 0.080534466 0.18122293 -0.08422696 0.15470259 0.0069331797 0.08429057 -0.48765573 -0.2526691 -0.14843337 0.18999203 0.046229254 0.084445424 0.17834672 -0.17444149 -0.19223633 -0.0054691937 -0.184511
TCT -0.04306202 -0.22146386 0.10311858 -0.037007883 0.19962597 0.08181837 -0.29588333 0.40395662 0.23940723 -0.025530476 -0.15497166 -0.0677646 0.067791544 -0.036615342 0.021518435 -0.00023934038 -0.034273814 0.29422048 -0.036673263 0.11746178 -0.026758987 0.022946412 0.16223162 -0.31813538 0.34402335 -0.23849489 -0.01861518 0.21106946 -0.04322012 -0.02312902 -0.078649394 0.08133712 -0.113294296 0.22097315 -0.017807676 -0.053188764 -0.30574796 -0.13724172 -0.040518705 0.09239187 -0.20780101 0.1790681 -0.09285122 0.020924626 -0.06652071 0.25471744 0.1569595 0.0871092 -0.35715514 -0.21381362 0.16790581 0.0752516 -0.20949371 -0.067165084 -0.100716464 -0.23044792 0.2675449 -0.009926395 -0.09942782 -0.033712678 -0.08570176 0.12338073 0.1891876 -0.18320023 0.047341157 0.162625 -0.10101031 -0.1338217 -0.089085914 -0.07430957 -0.1034449 -0.047522377 0.53954166 -0.047137734 -0.08415731 -0.072227955 0.19697854 0.21543665 -0.2017886 -0.22818652 -0.12233393 -0.101952694 0.17256333 0.048471365 0.23156431 -0.045566015 0.08301526 -0.12722419 0.28285834 -0.023924736 -0.2785119 -0.34540623 0.20131743 0.1419274 0.026757026 0.09456181 -0.1161133 0.099877015 -0.08821289 -0.09483159
AGA 0.22621678 0.08277059 0.047538135 0.0026915604 0.46624622 -0.13880749 -0.20622806 -0.08074258 -0.020082578 -0.02560672 -0.14123747 -0.016435165 0.030434066 -0.18192625 0.08537391 -0.039444584 -0.29250675 0.20250243 -0.21525015 0.10072092 0.09460178 0.028325228 -0.14050014 -0.041539386 0.10194805 -0.1747079 0.08630626 0.4097406 0.06232514 0.05398974 -0.12614588 0.15108982 0.24712989 -0.14384705 0.3128467 0.10740327 -0.122963354 -0.19735543 -0.20142852 -0.25384483 -0.16061963 -0.11941513 -0.22437009 0.1867616 -0.06668169 0.18928671 0.08604974 0.13881804 0.047743138 -0.25869778 0.13954028 0.4160633 0.04454802 0.017479628 0.08792454 -0.070946075 0.12457132 0.09884041 0.22131714 -0.20915318 0.07911917 -0.035903722 0.27754474 -0.25171638 -0.1551635 0.3830489 0.18309481 -0.12881821 0.046407234 0.21258652 -0.16980201 0.17883204 0.106534906 -0.1944515 0.10407315 0.26179934 -0.067499734 -0.23097554 -0.051139414 0.04680706 0.053472355 0.029351842 0.029036136 0.1471472 0.10133431 -0.13669273 -0.017876882 0.15956154 -0.009525259 -0.31077972 -0.114055246 -0.08118115 0.05444542 0.14016564 -0.08819295 0.09390947 -0.0012789393 -0.052759685 0.079498105 -0.295977
GGA 0.0786958 0.1921419 -0.070454985 0.13345255 0.31100267 0.13333105 -0.19147275 0.24086672 0.24247786 -0.11268122 -0.03704734 -0.1078928 -0.16828595 -0.24632773 0.11190527 0.018596645 -0.14209427 0.08466369 -0.22829382 -0.04883335 0.069018215 0.23523279 -0.28663215 -0.013290398 -0.038936935 -0.2479177 0.12517978 0.16913997 0.014130308 0.028456978 -0.029670952 -0.14237274 0.1142829 -0.23655367 0.1970053 0.062407114 -0.30234858 -0.010303883 -0.25439873 0.08578004 -0.16185205 -0.0048243166 -0.11803199 0.34032607 -0.055805553 -0.047848076 0.10878204 0.19244106 -0.093610585 -0.006465621 0.034706462 -0.09431609 0.07000356 0.061952587 0.43350276 0.1974035 0.032665193 0.019842876 -0.11083465 -0.27482548 0.08447276 -0.04285658 0.20310867 -0.060380124 -0.2220636 0.25681373 -0.063531466 -0.018576708 -0.053904682 0.2591955 -0.22042981 0.14448604 0.2465711 -0.045678735 0.15092848 -0.11277151 -0.2320371 -0.015857527 0.038273208 -0.15515801 -0.28577337 -0.15371394 -0.21266438 0.27681267 -0.16373828 -0.04769959 0.10092831 0.11581493 0.07901714 -0.17215544 -0.09737447 -0.008649449 0.1897233 0.09561487 -0.19066069 -0.08858061 -0.22265966 0.2020512 -0.092944235 -0.26563647
TCC -0.19080183 0.15218744 -0.23957469 -0.049570117 0.026694186 0.058391616 -0.14999166 0.1828505 0.30215305 0.083311915 0.077411704 -0.09543184 0.008869106 0.27770832 -0.19452648 0.10700726 -0.024775846 0.13072532 -0.099877246 0.47733364 -0.083094545 0.094477504 0.107733734 -0.20095123 0.3943602 -0.35124394 -0.03566767 -0.13135315 -0.20912841 0.09332285 -0.35827968 -0.13645236 -0.2189032 0.18644957 -0.03871868 -0.020614482 -0.1804815 -0.17525432 -0.20279673 0.3870203 -0.021823818 -0.19901697 0.048726287 0.17072941 -0.19400738 0.15307781 0.03491354 0.104083136 -0.14131868 -0.22768131 0.15727 -0.06113185 -0.10499867 -0.06174687 -0.100740366 -0.10952341 0.17746586 0.05438021 0.23937385 -0.24441819 -0.25770774 -0.012311715 0.0722587 -0.20517004 -0.045063145 0.30729333 0.09928094 -0.009709837 -0.063887164 0.25176558 -0.13747965 0.1871596 0.26125234 -0.03385095 0.1064817 0.068989664 0.09887005 0.007521258 -0.18258715 0.016783789 -0.09058166 -0.10157802 0.20779489 0.12063848 0.010918984 -0.21890238 0.22141732 -0.079369724 -0.093721665 0.042323183 -0.034111284 -0.3335235 -0.043139897 -0.10759275 0.06182492 0.07164902 -0.0020412402 0.13804652 0.099666305 -0.08379427
CTT -0.055831846 -0.1761184 -0.08498094 0.061256457 0.27484626 -0.00038971155 -0.16416246 0.39050567 0.051626954 0.20937961 -0.20139097 -0.065906085 0.1981534 0.15356947 -0.05282856 0.27243102 -0.02175654 -0.046817668 -0.051938646 0.036925595 -0.09770947 0.058489155 0.30059984 -0.07247368 0.1208039 -0.37705743 0.047994558 0.073564634 -0.21235697 -0.048583556 -0.07196913 -0.056575347 0.09497875 0.36125374 0.114121184 0.09904696 -0.19725795 0.06734553 -0.2914018 -0.014145529 0.076106794 0.006841301 0.06347698 0.29821965 -0.1581009 0.24733411 0.10002042 0.17946509 -0.013619167 0.06087573 0.17268518 -0.1872664 0.0045126574 0.29480338 -0.117555715 0.057359822 0.13473132 0.14716527 0.09952757 0.105573095 -0.05866217 0.2773555 0.092075266 -0.29077947 -0.17764468 0.11713185 -0.20751455 -0.18794166 0.048883457 0.18757944 -0.111973085 0.105644405 0.37197554 0.023691159 -0.01351962 0.026366072 0.2174731 -0.2645613 0.0066749416 -0.01928152 -0.10800492 0.14868988 0.3348701 -0.024275303 0.022848098 -0.3588838 -0.16433342 0.13595411 0.13530481 -0.3053024 -0.0038307083 -0.26051995 0.09440574 0.07259207 -0.24387297 0.051647924 -0.11529779 -0.037140843 -0.15951334 -0.23276344
AAG 0.09617302 -0.091595754 -0.0894384 0.15006289 0.4763318 0.096651815 -0.030396795 0.054275695 -0.0012347199 0.08098009 -0.00409188 -0.03610688 0.30082813 -0.004662191 0.17660145 0.27678403 -0.27121714 0.36762896 -0.48880935 -0.06859062 0.18993087 -0.022521961 -0.019071966 -0.08618591 0.3256989 -0.02478027 0.011777188 0.18999349 0.16016585 -0.19728173 0.08058472 -0.0270239 -0.25945312 -0.2266873 0.13995685 0.082120314 -0.049472384 0.02899691 -0.18268135 0.036759216 0.055623222 0.14511469 -0.045541856 0.2496494 -0.0553901 0.2521311 -0.11156414 0.15725905 0.056828476 -0.114171684 0.02687166 -0.009162065 -0.12441635 0.08697324 -0.049270883 -0.03784258 0.07476291 0.14297947 0.079268456 -0.073746465 0.20674235 0.024371976 0.32096404 -0.14838693 -0.07864772 0.6926364 -0.052288152 0.0033030983 0.1637694 0.44471624 -0.14068003 0.05452489 0.15923297 0.15901014 -0.04912089 0.07319672 -0.18557458 -0.20883963 0.056657977 0.06475206 0.038232226 -0.24542847 -0.19084585 -0.06289797 0.07917621 -0.16154721 0.006232621 -0.02534202 -0.05311998 0.03405385 0.048163533 0.045820925 0.120741315 0.16360188 0.08228495 0.06687692 0.105127774 0.04324608 -0.29157427 -0.18160178
TGT 0.017394474 0.03282053 0.115946054 -0.09727584 0.33166206 -0.020556342 -0.22635558 0.2256478 0.15842786 0.026908364 -0.042006522 -0.2538602 0.015944276 0.30099696 0.08135392 0.007888047 -0.27673736 -0.037271686 -0.003557746 0.30287787 -0.0380071 -0.13921176 0.23759714 -0.05712598 0.25869563 -0.2008901 0.1460473 0.04018591 0.028073369 0.22689062 -0.04112159 0.1881674 -0.027214885 -0.07342306 -0.028938217 -0.13398133 -0.07037881 0.27448273 0.1374895 0.06907323 -0.23965253 0.08549416 -0.042033114 0.1557984 -0.046628315 -0.1354069 0.025743356 -0.07545418 -0.08115006 -0.29703966 -0.20435663 -0.09161924 -0.2557659 0.14448702 -0.23363402 0.17053594 0.38382295 0.30635393 0.038315635 0.035050996 0.00952025 0.08231119 0.03893235 -0.2563103 0.08444373 0.070084184 0.08895317 -0.04279645 -0.079002865 0.37687463 -0.26825932 -0.16509655 0.08235413 0.02950108 -0.02419787 0.22794393 -0.04418714 -0.2534985 -0.24232522 -0.12782781 -0.2550234 -0.105386846 0.17720343 0.2851293 0.22046757 0.027104767 0.06937262 -0.23894095 0.019924428 -0.2592402 -0.057807367 0.12558301 0.2743981 0.15594368 -0.08024327 -0.020999556 -0.12357566 -0.059400875 -0.42364213 -0.15237926
ACA 0.08591849 0.07888171 0.067318946 0.35771888 0.42013058 -0.16929409 0.16403294 -0.14722845 0.029663157 0.054880735 0.17866307 -0.11287308 0.34670004 0.11589508 0.18428373 0.04227653 -0.17169191 0.053542938 -0.17726402 0.36203936 -0.094064765 -0.18044326 -0.047558647 0.13076408 -0.07591376 -0.24921559 0.08996543 0.15114008 0.18694879 0.09155403 0.13680804 -0.1544989 0.14757472 -0.042723533 0.16777882 0.056947645 0.12773062 -0.032787338 -0.20557368 0.045295633 -0.086083435 0.17129923 -0.05518854 0.11669105 -0.31093246 -0.11559889 0.06469633 0.28087047 0.08183607 -0.17888948 0.07116405 0.1645898 -0.2520534 -0.1664741 -0.2691865 -0.09379916 0.2735192 -0.010373854 0.19547258 -0.42320237 -0.08646004 0.22224724 -0.13413903 -0.038780313 -0.13840538 0.5154485 -0.0992936 -0.09415256 0.17553993 0.07339677 -0.16360503 0.08040978 0.22740373 -0.024236232 0.032392707 -0.033426683 0.013094371 -0.18353339 -0.19970031 -0.16828848 -0.24401598 -0.029383933 0.14359504 0.05316328 -0.03837844 -0.21449704 0.0056626042 -0.08518329 0.07821344 0.0076532303 -0.26086503 0.05681324 -0.10095247 0.061459053 -0.13128039 0.3672898 -0.34687796 0.10307243 0.12568352 -0.07253675
TTC 0.08382036 -0.06981846 0.08096977 0.25443017 0.25393814 0.23402432 -0.044365637 0.23693001 0.12368052 0.020426603 -0.12219302 0.032884065 0.10835018 0.10068723 -0.019730302 0.061254635 -0.028181722 -0.14555733 0.10856114 0.19650039 -0.119863294 0.06048804 0.12888938 -0.008922898 0.367933 -0.15604317 0.072648376 0.13090254 -0.008317675 0.16912994 -0.20715143 0.069384836 -0.26563808 0.18034124 -0.057350263 -0.19282061 -0.07289526 0.0074474122 -0.118901305 0.2550379 -0.08987351 -0.06597091 0.014278965 0.292152 -0.21118574 0.31639338 -0.008655283 0.2745131 -0.01958377 -0.0071550524 0.19076316 -0.020308884 -0.10721347 0.0120344525 -0.10174487 0.15134898 0.15206212 0.30862853 0.07936182 -0.2996894 0.23542716 0.23513688 0.35822073 -0.4156018 -0.018865852 0.23780616 0.12224902 -0.44682443 0.042579316 0.102760665 -0.09512594 0.026066571 -0.07949628 0.38092884 0.04895801 -0.03207592 0.1730024 0.2211333 -0.25403082 -0.10457712 -0.2059808 0.0014664938 0.085805275 0.19673106 0.066444725 -0.07484953 0.1451793 0.021114793 0.41147125 -0.17942153 -0.20522825 -0.1623499 0.099775456 -0.043624535 -0.06427795 0.013438223 -0.014059897 -0.027267255 0.24935462 -0.2275932
GAA 0.014637393 0.18344398 -0.009804582 0.030024681 0.53611094 0.05967627 0.17202777 0.20025393 0.031649113 0.15488827 -0.023794372 -0.01682181 -0.081517346 -0.17475024 -0.0014946006 0.24603523 -0.29653502 0.3636901 -0.13898385 0.2184568 0.0056229485 -0.052175395 0.1126953 -0.13139303 0.24326912 -0.004524927 0.05587659 -0.1469294 -0.10379095 0.13579689 0.015544863 -0.12523729 0.24658383 -0.23698674 0.15397221 -0.0064294273 -0.1997067 0.08721709 -0.11302313 -0.23807363 -0.07713163 0.0458772 -0.23381793 0.060635705 -0.17480929 0.043938536 -0.15425108 0.09374682 0.021417059 -0.096172445 0.1488944 0.3033732 0.07294483 0.24822554 -0.17280689 0.050474886 -0.20506386 0.11477802 -0.16124074 -0.4232766 -0.12065736 0.14985041 0.06293405 -0.12524828 0.017565506 0.49957937 -0.12884241 -0.0824787 0.114287645 0.31301138 -0.25961185 0.23243624 0.24797426 -0.042926427 -0.0046709906 0.055458225 -0.12772027 -0.048058733 0.065220684 -0.14023596 -0.036121663 0.058155093 -0.15866399 0.25261268 -0.1280476 0.058498565 -0.023477959 0.055282526 0.19462357 -0.36240423 -0.29013655 0.060950723 0.2844794 -0.13899268 0.02215764 0.038861785 0.07370699 0.057116594 -0.05103909 -0.19573481
GCT -0.023765385 0.10084654 0.077271886 0.090055 0.09735873 0.030071689 -0.044657037 0.09383169 -0.13857652 0.011659787 -0.14751334 -0.07211526 -0.066759385 0.06606897 0.17650728 0.26559663 -0.15981634 -0.08676796 -0.017053278 -0.027633613 -0.17256495 0.025190616 0.092395425 -0.48946458 -0.002374051 -0.5314271 -0.08172591 0.18541181 0.21163656 0.21755874 -0.2315526 -0.041816864 -0.050833486 0.15009275 0.07374536 -0.053716715 -0.38973045 0.28245437 -0.016084548 0.11021534 -0.045158423 -0.08754635 -0.1636142 0.1169835 -0.23225941 -0.03272826 0.3116364 -0.079114676 0.20224743 -0.121577725 0.09125219 0.06684016 -0.10517395 -0.057023924 -0.041313324 0.086524315 -0.04168734 -0.007823772 -0.027975516 -0.096814334 0.023972984 0.11714955 0.29428092 0.103265144 0.13929446 0.25403196 0.14473714 0.04717832 0.12029168 0.16728668 -0.25703797 -0.13797438 0.3835025 -0.043123625 -0.22632101 -0.14644475 -0.13104713 -0.1812656 -0.32997894 0.0100591155 -0.005898114 -0.097926825 -0.025244202 0.04073114 0.21557446 -0.04652125 -0.066730194 -0.115265615 0.2860011 -0.024179118 -0.23564212 -0.32528743 0.003471444 0.040427577 0.0084752 -0.05240414 -0.15192309 -0.074418694 -0.14112318 -0.09186906
GCC -0.02519421 -0.0067013437 0.010175284 -0.041873433 -0.1282496 -0.17107137 0.08241301 0.17461833 -0.0028711963 0.36469662 -0.42467225 -0.10570338 -0.02442181 -0.0026342291 0.25124732 -0.21704969 0.0795569 0.023328597 0.06523718 0.18663345 -0.07713217 0.20274825 0.24950847 -0.22623727 0.14152229 -0.15500136 0.18430477 0.08406699 -0.107375585 -0.105186805 -0.11599266 -0.13551518 -0.049323954 -0.0905011 0.22489017 -0.046947066 -0.09942884 -0.057674218 0.13095737 0.29138166 0.057661954 0.06293827 -0.0055987695 0.117207676 0.016721603 -0.12349991 -0.06567316 0.09151057 0.05950573 -0.08527609 0.10294627 -0.027703043 0.23574837 -0.053335767 0.032267768 -0.39195335 0.22150362 0.050158426 0.17114817 -0.10266663 0.10246984 0.043854516 0.22025521 -0.013599727 -0.20062183 0.41374916 0.09680483 -0.0745849 0.051702697 0.36753106 -0.071018144 0.034639936 0.18920055 0.004247364 0.009551878 -0.13642271 -0.23459719 -0.2651541 -0.27174067 -0.0066297785 -0.11566736 -0.133062 0.1497986 0.24924774 -0.14916655 0.0038166088 -0.084594876 -0.030820692 0.2809966 -0.15743986 -0.20357648 -0.18776208 -0.037236713 -0.16618466 0.029085107 0.06695629 -0.093335494 0.08162949 -0.18180107 0.074390315
GGC 0.18158433 0.039008368 0.12189682 0.028623525 -0.12262954 0.049009856 0.18540522 0.09438256 0.13090973 0.0472256 0.07475721 -0.2251268 -0.030953279 -0.14507736 0.18131231 0.08934313 -0.07188779 -0.19245532 -0.18051066 0.089484334 -0.102137975 0.0058772224 0.088674724 -0.25803676 -0.13659047 -0.06650062 -0.00057676266 0.07453171 0.1673871 -0.16006772 0.081776984 0.029646987 0.066921815 -0.10460114 0.29660755 -0.16455732 -0.12749156 -0.061099477 -0.04423276 0.19870459 -0.14640668 0.22303057 -0.012128559 0.18311006 -0.0026716273 0.18580265 -0.00041746598 -0.03176261 -0.14411145 -0.18945329 0.13907447 0.062032294 0.07611389 -0.10942593 -0.1313241 0.11511808 -0.09708694 0.32666156 0.011518966 -0.06877008 0.061130427 0.12540984 0.40423992 0.022207579 -0.004025104 0.1616901 -0.39311007 -0.11158514 -0.15248439 0.38722765 -0.0757588 0.028530277 0.4122654 -0.20173883 0.14225337 0.15758345 -0.10694348 -0.006448191 -0.14195521 0.07819752 -0.28738537 -0.026666304 -0.009606137 0.08911755 -0.09015471 -0.4146865 -0.1391597 0.16333687 0.091449946 -0.29034418 -0.019387502 -0.086141095 -0.030553846 -0.11295891 0.103827335 0.00069488597 0.07554146 0.22800103 -0.060107935 0.041697077
AGC 0.30257925 -0.108020745 -0.0059196306 0.08825311 -0.022080075 0.04792068 -0.039224077 -0.053809546 -0.13167615 0.09788275 -0.08478628 0.2268595 -0.0030432737 0.03476468 -0.030812128 0.14670117 -0.035495423 0.047804877 -0.15749633 0.24462967 -0.12864119 0.04672982 -0.111563556 -0.029604927 0.12235414 -0.34388497 0.2569547 -0.026874406 0.1673616 0.049612463 -0.049226247 -0.038841072 0.16443492 -0.20834191 0.08202689 -0.13059118 -0.023487194 -0.12123665 -0.20169148 0.1614739 -0.0901146 0.21191737 0.072691515 0.09257928 -0.07063975 0.21431409 -0.06812906 0.03590149 -0.08861087 0.046991263 0.011368006 0.48079318 -0.3085339 0.23628268 -0.15590285 -0.24749207 0.08574902 0.1079842 -0.01587124 0.09661436 0.13070281 0.3299182 0.26095584 -0.053074703 0.08873689 0.30191845 -0.003680685 -0.11156194 -0.06416248 0.22141756 -0.14985426 0.02825551 0.24422877 -0.13202716 -0.034916922 0.119380794 0.0408573 -0.12989385 -0.18787597 0.2952782 0.06475778 -0.2597457 0.05272209 0.2681713 -0.12734073 -0.15012048 0.21278723 0.19171193 0.07119262 -0.09512674 -0.19498439 -0.25952837 -0.07672581 -0.2077643 -0.18795203 -0.04045957 -0.111755535 0.16004819 -0.16113299 -0.19903067
CAC -0.085347965 -0.10620342 0.16293369 0.42355156 0.2398358 -0.08264168 0.22087222 0.050571226 0.015689254 0.06758103 -0.012588091 -0.13797234 0.073232405 -0.09658825 -0.014767783 -0.13280919 -0.2814335 0.19870326 0.041141562 0.17341053 -0.14089 0.08456863 0.06455904 -0.16211073 -0.07410092 -0.23364757 0.15442222 -0.06934854 -0.25492495 0.2212678 -0.030709036 0.00407843 0.04226093 0.24485207 0.25462475 0.26250598 0.21645255 0.032495465 -0.104986735 0.06313448 0.16849779 0.122694604 0.045417793 -0.05913642 -0.32439092 0.08934918 -0.034091253 0.030050127 0.106884085 0.01250011 0.13394873 0.0910407 -0.30091175 -0.1870878 -0.07376077 -0.01623664 0.4761262 -0.0008205066 0.1978689 -0.16231184 0.11670869 0.18250228 0.28205106 -0.051421728 -0.0995524 0.26109946 0.1624414 -0.013165428 -0.063720815 0.30053478 0.015347227 -0.038689855 0.4561525 -0.14408599 0.14615434 0.0574395 0.022817772 0.024904866 -0.31000394 0.08257026 -0.4171809 -0.09960454 0.20623213 0.17334071 0.11580528 -0.122941524 0.17767191 -0.06310115 0.010996382 0.2000777 0.023998372 -0.035181314 -0.12704825 -0.04869882 -0.19290224 0.054908387 -0.051133294 -0.08474003 -0.010203382 -0.08626092
GTG 0.17146659 0.012924535 0.073439166 0.11695212 0.28093886 -0.24174044 -0.030296246 0.23162906 0.15227178 -0.071037866 -0.069366105 -0.15089701 -0.07135909 0.10643887 0.15438244 0.004091766 -0.12604675 -0.20832093 -0.33502033 0.3241252 -0.13986099 -0.15815838 -0.03716914 -0.024193963 0.19030263 -0.08773691 -0.22280772 0.14511088 -0.010694631 0.21789913 -0.13176347 0.101243824 0.22411537 -0.12359286 0.08260141 0.110700876 0.09559757 0.11300715 0.15234755 0.02919448 -0.2761722 -0.07201545 -0.20304634 0.054937407 -0.0063385055 -0.02290484 0.019673368 0.29670814 0.11224791 0.017444534 0.01738967 -0.115115225 -0.097335644 0.1664048 -0.03623079 0.13183977 0.13368423 0.09608669 -0.19519746 0.15971759 0.12678017 -0.21461293 0.24329375 0.079929695 0.056421567 0.2492092 -0.23144878 0.03325128 -0.16250314 0.06864573 -0.1646696 0.10356951 0.25137147 0.05453051 -0.05036442 -0.07023684 0.14644441 -0.29805568 -0.20800948 -0.19114308 -0.18065025 -0.47216168 0.18407486 0.21097727 0.19514383 0.045353096 0.16687779 0.15488718 0.14941716 -0.22063668 -0.13699089 -0.06984721 0.1456936 0.1321042 0.056680113 0.04243143 0.16667064 0.1340976 -0.08406729 -0.0507388
TCA -0.029257398 0.0323359 0.04608149 0.048563153 0.23684636 0.1559256 -0.16872743 0.22794037 0.0739868 0.0153955 -0.19642246 -0.29444328 0.1658211 0.20612857 -0.052228834 -0.26415515 -0.08001536 0.12642638 -0.0661268 0.310172 -0.07182978 -0.055584457 0.27665642 0.024226725 0.22108267 -0.15578023 -0.3184996 -0.122363776 0.02194053 0.15425828 0.013891054 0.058832224 0.09599015 0.044118937 0.37943393 -0.073482685 -0.00640211 -0.06083858 -0.40648288 -0.002629907 -0.04456036 0.13764684 -0.10401273 0.13864644 -0.3380669 0.39279705 0.1273551 -0.010392147 -0.05996309 -0.096985415 -0.09912645 0.17661488 -0.084914766 -0.1826016 0.015573229 -0.23057677 -0.0016793653 0.25982368 -0.0301128 -0.10596245 0.0425339 0.063418455 0.16439928 -0.25898772 -0.13449572 0.18726282 -0.03222425 0.1270403 0.09363453 -0.023723379 0.047340233 -0.01302164 0.4582997 0.48013622 0.071954004 -0.0023353586 -0.13531056 -0.07513797 -0.040076844 0.01265339 -0.103942715 -0.22504675 -0.11366984 0.19935492 0.17245354 -0.3349757 0.2520017 -0.104737714 0.246023 -0.071351334 -0.07143487 -0.00746583 0.010961039 -0.13566789 -0.09017083 0.2678729 -0.29962355 -0.13200113 -0.030446611 -0.19886038
TGA 0.06229025 0.10194647 -0.08184437 0.060201313 0.34136462 -0.03389437 -0.16049218 -0.02120139 -0.28604972 0.07379807 -0.1728351 -0.1599668 -0.41212744 -0.08010456 0.41801083 0.043075107 -0.005593516 0.048208244 -0.38156927 0.18871552 -0.07908649 -0.13162602 -0.026817502 0.082007244 0.35917953 -0.17164737 0.15120062 0.021410752 -0.14112498 -0.06881145 -0.33633998 0.18749513 0.22140916 -0.18787622 0.13550654 0.1303388 -0.1807714 0.11901121 -0.016418902 -0.037899178 -0.0057575703 0.13140899 0.033798963 0.31974974 -0.20199262 -0.19382235 0.23919033 0.10804192 0.184248 -0.33789656 0.21292654 -0.017154228 -0.17285895 -0.026789373 0.10199143 0.0594893 0.17774609 0.18030095 -0.107618235 -0.148079 -0.14343783 0.20405424 0.08965429 -0.25339764 -0.10515902 0.11915965 -0.115416594 -0.07638351 -0.05277748 0.24779099 -0.09226961 -0.018389296 0.3719527 0.047005586 0.23803687 0.2414842 -0.08769702 0.06995736 0.07680694 -0.00028540927 0.05143577 -0.04892058 0.20727463 0.13496743 0.1023514 -0.012500964 0.11899395 -0.04197343 0.21065441 -0.16996507 0.11997148 -0.00040417115 0.13842632 0.09778684 0.09482611 -0.10026978 -0.19594651 0.07075902 -0.029279547 -0.42453828
TGC 0.3472347 -0.29835263 0.112156816 0.07875127 -0.018781388 0.11004409 -0.03429154 0.24044338 0.15387483 0.06567185 0.0017792577 0.13136677 -0.039446775 0.231629 -0.07394172 -0.14803173 -0.28141585 -0.00032233063 -0.02767927 0.010791039 -0.0139451735 -0.20366797 0.00823446 -0.02767827 0.18133867 -0.0070754588 -0.12159829 -0.03498832 -0.15407832 -0.030556463 -0.29292926 -0.16842024 0.0565544 0.14162321 0.16573472 -0.06867843 -0.075677685 0.20391469 0.14033319 0.3552276 0.030656006 0.28866825 0.109467536 0.18548678 -0.31512383 -0.15148033 0.14390835 -0.1922202 0.31939247 -0.18056819 0.06730484 0.18975031 -0.090602696 -0.017171632 -0.20492525 -0.014318267 0.30828932 0.12454854 0.08384767 -0.1184715 0.00074640807 0.05128595 0.19333024 -0.23007025 -0.06386092 0.13742109 -0.16363524 -0.14808367 0.102276154 -0.0167583 -0.28647277 0.1213305 0.4283332 -0.022522047 -0.13213521 0.025135212 -0.07019476 -0.1122755 -0.08427889 -0.04735397 -0.06424726 0.026541412 -0.07868933 0.22938685 -0.03580699 -0.19661047 -0.0455706 0.056247633 0.20784003 -0.24432102 -0.20495598 -0.1842795 0.027548686 -0.078271344 0.11081175 -0.10855208 0.02272011 0.30756631 -0.2528916 -0.22396676
GCA 0.01707142 -0.24832545 -0.13754384 0.31728753 0.060301654 -0.17956756 -0.06917628 0.15589698 0.16885842 0.25557354 -0.04006936 -0.19160293 0.1841164 0.108717285 0.26233843 0.06002567 -0.033628967 -0.123094544 -0.08193692 0.4309111 0.06831241 -0.16594064 -0.033447605 -0.35444117 0.23837814 -0.06588243 0.03687972 0.09065164 0.31525138 0.21760546 0.18642779 0.00043946187 0.1924608 -0.06344143 0.20234907 0.20570554 -0.0007697245 -0.045507602 -0.107835144 -0.16458873 0.22410245 0.07124679 -0.12516882 0.13621956 -0.048912644 -0.004115586 -0.13847375 0.12564863 0.28727928 -0.17425756 -0.033856966 0.33603176 -0.056179397 -0.052045424 -0.053695794 0.040181663 -0.027097506 0.1341335 0.17401789 -0.15068896 -0.02681933 -0.09053964 0.07654991 0.10472958 -0.16068244 0.11972122 -0.013424809 -0.086255 0.017852357 0.26821473 -0.18927686 -0.17707177 0.19263102 0.08884843 -0.026617529 -0.18933083 -0.16896167 0.1649711 -0.1096107 0.15463771 -0.19351688 -0.051025197 0.110652946 0.22761518 0.041340396 -0.02359527 -0.028904272 0.09195725 0.25949696 -0.14890383 -0.09624294 -0.24379052 0.062267445 -0.15061049 -0.006215569 -0.025251465 -0.2152598 0.2076827 -0.04963896 -0.5089349
TTG 0.15301016 -0.15888631 -0.2531175 0.26594093 0.081713356 0.13108681 0.027740574 0.3034142 0.13828506 -0.06350132 -0.15545647 -0.27354535 -0.12194738 -0.16480772 -0.010623109 0.06322157 -0.11375162 0.06408296 -0.018561948 0.12206141 -0.32591757 -0.19509445 0.22836347 0.023707096 0.36159697 -0.25092515 0.1833059 0.13828501 -0.034021057 0.051030666 -0.0083811935 0.12574683 -0.07446466 0.2787803 0.22009216 0.07489774 0.0026263879 0.08450062 -0.21558422 0.2923555 -0.11892722 0.03258477 0.008604843 -0.012261397 -0.010452987 0.0004305793 0.24773747 0.26092497 -0.00843138 -0.3718246 0.018254789 -0.055428125 -0.1562995 -0.113662355 -0.12292751 0.16296466 0.055859886 0.07923977 -0.053412937 -0.1023677 -0.08294805 -0.026114829 0.08129219 0.033165187 -0.00023903456 0.24629758 -0.3257028 -0.14440534 0.1312623 0.26964036 0.09584179 -0.07324397 0.092432186 0.16284992 -0.09329716 0.007276942 0.3290627 -0.39358518 -0.16192883 -0.031307705 0.04725676 -0.13540325 0.03998912 0.27273607 0.1843673 0.09654219 -0.005808058 0.14887908 -0.18498357 -0.362427 -0.32987875 -0.08870672 0.38246825 0.22312264 -0.13756494 -0.24144314 -0.13158737 -0.05961006 -0.12103272 -0.4372021
CAA 0.05098394 0.20199406 -0.10934545 0.00085858087 0.23410448 -0.04436799 -0.08061029 0.29731786 -0.1199928 -0.20746553 0.042085204 0.10010963 0.18586004 0.007381074 -0.14974296 0.035687495 0.030020744 0.15532376 -0.028321832 0.257164 0.14452913 -0.10620298 0.12926553 -0.14459419 0.061395545 -0.24467057 -0.029653745 0.092927225 -0.12475805 0.116871305 0.16263995 0.00981163 0.03671727 -0.08322832 0.3252149 0.18468878 -0.040367447 -0.03304997 -0.28080818 0.13550612 0.13353874 0.49226716 -0.15113944 0.19109769 -0.15181571 0.01092375 0.1050996 0.3514833 0.11426389 -0.08853323 -0.13155241 0.124565825 -0.21147911 0.06700321 -0.1493597 -0.06275861 0.089432545 -0.16714506 0.035513368 -0.15473747 -0.09226155 0.1339767 0.31587282 -0.2213485 -0.27800885 0.3419817 0.057475768 -0.35323745 0.2257153 0.48237437 -0.17111526 0.010500484 0.2995942 -0.07343966 -0.019542703 0.026743518 -0.14068253 0.042965 -0.4264736 -0.056882285 0.09212537 0.06077261 0.14379032 0.093709946 0.1805542 -0.10133508 0.24314849 0.11192862 0.17044684 0.011389619 0.061350677 0.28346387 0.14993916 -0.15294051 0.070695765 -0.16315502 0.04292013 0.17753135 0.032561608 -0.17567703
AAT -0.28557664 -0.23212235 0.13545835 0.22878322 0.24825493 -0.0037747952 -0.29817328 0.082803786 -0.04853559 0.010469972 -0.0015424181 -0.14828248 0.20011182 -0.1930588 0.31446543 0.20305306 -0.11836998 -0.040528636 -0.16709189 0.18506391 0.1460088 0.082758114 -0.08317233 -0.00647416 0.26387987 -0.06604499 -0.1839899 -0.031449623 -0.079859845 0.14598665 0.036273852 -0.23733672 -0.035937782 -0.17444173 0.2969818 -0.10417507 -0.31207028 0.01477607 -0.111130334 0.18588474 -0.10099583 0.30256447 -0.17454703 0.041960113 -0.34947792 0.1374136 0.0029245145 0.17567371 0.050342213 -0.36130944 -0.05145424 -0.035883866 -0.047516115 0.051363487 -0.10395563 -0.061985403 0.016494866 -0.11462246 -0.015186531 -0.08013798 -0.15369526 0.099037185 0.30495727 -0.20559853 0.10946111 0.24945664 -0.082324944 -0.4831153 0.21235032 0.28469598 -0.14667766 0.04087105 0.26901618 -0.067882665 0.21085681 0.28723547 0.1106845 -0.3794317 0.043411385 0.02668195 -0.0083073145 -0.07124417 0.029926807 0.41885465 0.07368161 0.10268962 0.02247901 -0.110325456 0.21723849 -0.045817707 -0.23038721 -0.006742199 0.06897268 0.25853673 -0.074737415 0.28632239 0.082702905 -0.14823557 -0.06342129 -0.43107674
ATT -0.1272166 -0.091987014 -0.05411424 0.23329706 0.2531991 -0.23582251 0.04794057 0.21088344 0.13224524 0.028706897 0.021814669 -0.42226577 0.15814942 0.037171356 0.18335211 0.13954164 -0.26377735 -0.034082554 -0.1778157 0.18761632 0.0015467412 -0.14803135 0.086937234 -0.08198163 0.3543124 -0.10076912 0.024525227 0.16111763 -0.26814464 0.14721088 -0.14087899 -0.023472266 -0.18612431 -0.16834389 0.07652516 0.04254546 -0.15460642 -0.07385916 -0.3388004 -0.07479349 -0.27640128 -0.09663434 -0.13507523 0.25988933 -0.17654063 0.13652867 0.0669487 0.28395775 0.18652043 -0.12628295 -0.16055214 0.05111772 -0.24371548 -0.06816591 -0.15035418 -0.19312713 0.25381395 0.06661499 0.027252976 -0.2135097 -0.01205291 0.49608797 0.20489235 -0.25610003 0.07080927 -0.032768346 -0.07641046 -0.3896415 0.33828038 0.19906469 0.22889946 -0.013575666 0.17673592 -0.14817722 -0.19819748 0.09658642 0.07285364 -0.025492625 -0.10214657 -0.013229976 -0.032277618 -0.20969447 -0.15394248 0.20815651 -0.043239094 -0.35754454 0.19607623 0.035617854 0.34252086 -0.30237874 -0.0219043 -0.20531791 0.20371313 0.15130238 -0.12832396 -0.13318266 -0.05323077 0.13067041 -0.23502944 -0.102132834
CAT -0.2542771 -0.080459684 0.14005244 0.018877024 0.0023146027 0.11718824 -0.04855175 -0.005247772 0.46556434 0.07758135 -0.07866472 -0.0593531 -0.067781426 0.3031532 0.33394235 0.14066328 -0.29605252 0.09848578 -0.15453841 -0.03795155 -0.06098274 -0.22499292 0.09880333 0.026773708 -0.033704426 -0.2842307 0.017222824 0.009034181 -0.3254487 0.07727815 -0.048489295 0.1005491 0.22954379 -0.093318835 0.23828632 0.11893494 -0.03570695 -0.12027506 -0.19733436 0.19263676 -0.0030363156 -0.009590418 -0.2131611 0.051290058 -0.03815105 0.227256 0.11760677 0.20968857 0.029486919 -0.15220341 -0.02787167 0.19200943 -0.27812773 -0.20146132 -0.04413119 -0.21101035 0.2794153 0.0642753 0.24007265 -0.35435048 -0.0106965 0.15745863 0.31393018 -0.24957947 0.13257843 0.048703954 -0.056399845 -0.26713014 0.06463966 0.21803519 -0.18956868 -0.028721545 0.1958044 0.045329917 0.123475015 -0.08617447 0.10376803 -0.22188872 -0.393615 0.15386046 -0.07536246 0.044658042 0.18236625 0.15188153 0.05087438 0.049823556 0.21073799 0.15267302 0.25614154 -0.00481569 -0.081411004 0.16869995 0.1243621 0.14801578 0.029200865 0.48764384 0.07600794 0.109201506 -0.08185188 -0.40240723
ATG 0.109451026 -0.101674624 0.23752443 0.17222242 0.29558563 -0.23014747 0.21916114 0.25807917 0.2818696 -0.20279516 -0.3417075 -0.42003316 -0.08369437 0.0046676574 0.17850919 0.068681225 -0.17112558 0.0849279 -0.31379953 0.38480294 -0.059003457 -0.226348 0.19717607 -0.03860659 0.12193188 0.00043663743 -0.13878155 0.005168485 0.16484123 0.18697914 -0.20762262 -0.012058466 0.02777583 0.10934776 0.15500787 -0.28054094 -0.017094597 0.15249017 -0.12050166 -0.115733474 -0.045319907 0.05630479 -0.15342915 0.22385569 0.0818239 0.0941885 -0.06900946 0.11842884 0.004279373 -0.27880955 0.010250262 0.04352735 -0.12379844 0.13950697 0.051004343 0.068274245 0.20555727 -0.28337166 0.132784 -0.14900066 -0.013296577 0.36792326 0.14543043 0.11297177 -0.059678096 0.22183892 -0.071015544 -0.37205914 0.09162791 0.0520885 -0.07512877 0.23266149 0.34708422 0.07665653 -0.0002212883 0.29700187 -0.16211331 -0.26428837 -0.19174589 -0.11243573 0.20964485 0.0027063347 0.024487777 0.18503582 -0.027599435 0.16983788 0.21766433 -0.06748747 -0.14413291 -0.21260187 -0.0464925 -0.08847036 -0.05566106 0.26522622 0.081467375 -0.00947297 0.07995979 0.13208567 -0.20412023 -0.22554195
AGT 0.2469285 -0.34317744 -0.105811864 -0.058354333 0.5094544 -0.056962132 0.04955224 0.053129476 -0.07146902 0.059566014 -0.04260385 -0.27655283 0.034561403 0.035042766 -0.29075724 -0.03920232 -0.14217988 -0.20051688 -0.26790163 0.2526584 0.10334701 -0.0045890664 -0.15701982 -0.16065766 0.31750783 -0.4719303 -0.088698804 -0.14168805 -0.0024011522 0.051236406 -0.12633553 0.032000452 0.0614594 -0.046082634 0.20032424 0.09815192 -0.17302822 -0.11194426 -0.07461501 -0.017408881 0.028997265 0.18521062 -0.31072026 0.037933383 -0.056698173 0.029763922 0.0075479764 -0.015439418 -0.042747136 0.21915503 0.020280741 0.010089064 -0.1010184 -0.22677293 0.16697459 -0.08304402 0.0030258964 0.22765493 -0.025386302 -0.2668068 0.102915995 0.26986015 0.2547217 -0.20364858 0.033721875 0.14446516 -0.09389345 -0.14345002 0.06273628 0.28908783 -0.20600468 -0.11371933 0.0038538384 0.05181275 0.2130538 0.28206006 0.0918259 -0.04945868 -0.29504687 0.022502836 0.04273914 -0.15719265 0.20992166 0.27779496 0.25931582 0.1380196 -0.079792306 -0.09021519 -0.05098657 -0.28682277 -0.37815285 0.054187004 0.26276055 0.13336158 -0.052536096 0.16902196 0.02080189 0.22464202 -0.4223975 0.12526393
ACT -0.23005462 0.0032936719 0.048472606 0.2940709 0.33312884 -0.3063559 0.117670864 0.023368057 -0.09079827 -0.1963518 -0.03414351 -0.30041412 -0.1296897 0.17240357 0.09049517 0.21656267 0.03774724 0.13069355 0.09046445 0.07547254 0.03533942 0.14018047 -0.052003246 -0.2071052 0.2892141 -0.30466813 -0.018633947 0.16258335 -0.024736743 -0.22785948 0.0128316935 -0.015483604 -0.046093505 0.05205682 0.12860732 -0.10357622 0.06165741 0.1414898 -0.28427467 0.46548942 0.074405745 0.005656672 -0.22371037 0.065107316 -0.042680908 0.24255635 0.13102362 -0.13067842 0.0630528 0.0035950453 0.28933898 0.3113547 -0.14965272 0.2001457 0.0059238584 -0.17062466 0.07783783 0.16855085 -0.016705025 -0.07110741 -0.20726773 0.15097441 0.21484338 -0.23573327 0.028439166 0.14658311 -0.25497216 -0.05907987 0.135949 0.018042836 -0.2667649 0.16321093 0.2867542 -0.070563 -0.28316525 0.26601943 0.023711007 0.04014498 -0.32083154 -0.22718614 -0.1836681 -0.06952198 0.28488424 0.2685346 -0.025424546 -0.14148329 -0.07578382 0.00016551933 0.24738023 -0.078195535 -0.16051841 0.18548878 0.12745489 0.4028871 -0.0289689 0.020652985 -0.35778633 -0.20563948 -0.013781956 -0.21932559
ACC -0.12714753 0.25976953 -0.028298054 0.016032685 0.18936059 -0.4086233 -0.071405 -0.057535022 0.11827017 0.21347138 -0.1694706 0.10363893 0.12858146 0.028079873 0.16098566 -0.025680868 -0.1635452 -0.060131975 -0.2690023 0.065200396 -0.011869932 0.27729455 -0.07900038 -0.21048626 0.4078714 -0.37196353 0.023743166 0.122052506 -0.1654732 0.17941335 0.074720524 -0.08218516 -0.052024085 0.26404792 0.08270116 -0.13726981 0.055088192 0.024291806 0.014216071 0.23933306 0.030616062 0.19802298 0.16128322 -0.13479385 -0.11711105 0.14131904 -0.028631108 0.16494754 0.02600533 -0.0011811977 0.18822524 0.18463905 -0.06589666 0.043412257 -0.18108171 -0.12098843 0.023211675 -0.117486864 0.28578138 -0.10356351 0.0189493 0.27799857 0.121652246 -0.40399224 -0.290735 0.04166026 -0.2276385 0.033621803 0.13213737 0.43932518 -0.099712804 -0.05455189 0.31834117 0.041730955 -0.15943809 0.14944795 -0.03852787 -0.026686965 -0.2473497 -0.21521969 -0.25894326 -0.0995654 -0.0016454596 0.041683264 -0.13752271 -0.08306218 0.29261413 -0.14165324 -0.09791937 0.0071686297 -0.17877653 0.123509176 0.21931458 -0.033145677 -0.106547534 0.2508769 0.020287441 0.23396407 0.2572932 -0.15910242
GGT 0.23158672 0.20834683 0.06991687 -0.082077906 0.42558032 0.12554353 -0.070439704 0.19622348 0.2225918 0.16451253 -0.14810315 -0.38240105 -0.033567354 -0.033982605 0.25473255 0.054819886 -0.059186842 -0.39992166 -0.19451034 0.16166973 0.103467055 -0.048149988 -0.3267576 -0.294456 0.2876348 0.068662114 0.11240671 -0.1655691 0.12246626 0.17180064 0.0911785 0.11131993 0.019217629 0.19587772 -0.049388934 0.169431 -0.24390866 0.041068655 -0.07689715 0.13814361 -0.28122494 0.13606802 -0.23747876 0.13411096 0.05437619 -0.14291005 0.009309678 -0.124576665 -0.108308695 -0.095456325 -0.0123970285 -0.27190012 -0.23700394 -0.23080273 -0.11585676 -0.043584425 -0.008419848 0.11607591 -0.03531368 0.07181142 -0.065832034 0.14934598 0.0976695 -0.05567765 -0.15482298 0.2666981 -0.13553602 -0.2622329 -0.08943894 0.14265978 -0.14923118 0.22909962 0.20017856 0.050315525 -0.11024219 0.13975374 0.03136116 -0.22269423 -0.45990133 -0.0025933972 -0.16642341 -0.17714797 -0.18011081 0.16249476 -0.0024218028 -0.0017740886 -0.11499293 0.1781137 -0.13383457 -0.23550925 -0.035100862 0.066782035 -0.034372568 -0.116520576 -0.24527253 0.18985955 0.029295148 -0.17782512 -0.17708223 -0.32935593
TAA 0.04814783 -0.029203929 0.0052866642 -0.21916007 0.5161158 -0.063874274 -0.048590355 0.1259757 0.14973523 0.1291658 -0.0056849075 -0.08759568 -0.22738038 -0.15929224 0.04673788 0.2735705 -0.24028648 0.093745105 0.06372145 0.26464593 0.18539928 -0.1476857 -0.15247132 -0.18806858 0.2631058 -0.17974839 0.0012879795 0.3115731 0.08165748 0.015851835 -0.24211058 -0.11968241 -0.073873 -0.004461251 0.39611426 -0.2086652 -0.016383626 -0.12374067 -0.17873509 0.051560484 0.022270365 0.23010159 0.21500374 -0.035872426 -0.32347086 0.3288605 0.14787532 0.4125785 0.18467757 0.024512593 0.12144959 0.13920827 -0.2788678 -0.009510022 -0.12351593 -0.0033877671 0.10901631 0.0016579576 0.03971985 -0.15404475 -0.008420815 0.12013281 -0.008662712 0.04688417 0.08533411 0.35906664 -0.32120517 -0.15320146 0.09802137 0.09423917 0.07675172 0.051370263 0.25260472 -0.07635026 0.3683311 0.20588863 0.02255618 -0.304303 -0.2709276 -0.20861046 -0.11766472 -0.24776465 0.056798153 0.20977756 0.13099408 -0.07037821 0.07137402 -0.15967727 0.22908641 -0.21120782 -0.01051802 0.08207474 0.41610083 -0.19282891 0.04115096 -0.13136874 -0.14787479 -0.14292383 -0.13649672 -0.3277144
TTA -0.08496238 -0.27674115 0.005032427 -0.014152447 0.4196982 -0.11644141 0.17557324 0.03886931 0.3691202 0.0017693049 -0.033092514 -0.20139079 -0.07800441 -0.1412856 -0.026894897 0.12981547 -0.08033884 -0.0016229416 -0.1076017 0.21927845 -0.09131315 -0.27046695 -0.014284297 -0.13721715 0.15850608 -0.36856148 0.12355711 0.2365958 -0.21674602 -0.050506383 0.0013417981 0.08538685 -0.2604386 -0.05339675 0.17717302 -0.17779924 -0.04246188 0.05418182 0.051287055 -0.010576403 0.121025026 -0.13614635 0.010319121 0.13522199 -0.16289116 0.12209885 0.12567453 0.053085443 -0.10475998 -0.3783329 0.020072132 0.016202025 -0.4801452 -0.2291756 -0.20558287 0.008559048 -0.09435029 0.15205763 -0.027525114 0.03729302 0.037229035 0.21777035 0.19497883 -0.38802835 -0.32172862 0.42501563 -0.18883948 -0.46683097 0.18479201 0.3199422 -0.04219369 0.06810357 0.31607473 0.17899184 -0.106784776 0.05031044 -0.2598452 -0.2681694 -0.0015762828 0.025729422 -0.0037235678 -0.26482558 0.25324067 0.32093683 0.04108715 -0.05754076 0.009197652 0.025809776 0.31478757 -0.053247083 -0.13425769 -0.11413778 0.15520775 -0.05343568 -0.09578828 -0.10820018 -0.105571374 -0.12252061 0.11520671 -0.044134527
GTT 0.13126466 0.07497748 0.11192015 0.23456995 0.12669037 0.08772758 0.22598596 0.3589513 0.09343276 -0.017769307 0.25808436 -0.13373347 0.06323517 0.101428345 -0.12979914 0.23546416 -0.07049802 -0.22115132 -0.04476102 0.20603667 -0.056998245 0.038507625 0.10091105 -0.07024314 0.70832276 -0.24499601 0.05027319 0.061958734 -0.025734065 0.21528128 -0.25924516 0.09287813 0.16419551 0.14347777 -0.011712355 0.062210232 -0.18230495 0.061109766 -0.0018152769 0.06211237 -0.19320552 -0.050866477 -0.0006315947 0.046980713 -0.08679384 0.08362927 -0.13804537 0.3080741 0.024529256 -0.38591346 0.10698208 0.016793799 -0.37079763 0.046086457 0.050538402 0.04111296 0.1845251 -0.1599092 -0.17807901 -0.07758953 0.096521266 0.072908245 0.055232115 -0.25120345 -0.2845761 -0.09804956 -0.16630885 0.11872969 0.047827013 0.37366956 -0.1250996 0.015677286 0.1933121 0.050235283 0.12744743 -0.019693248 -0.22253044 -0.27229834 -0.21113221 0.016744075 0.048165962 -0.23557429 0.040052157 0.20101005 0.042547185 -0.36975613 -0.15168908 0.22061476 0.3428007 -0.2986314 -0.08144357 -0.0180942 0.21694744 0.30128527 -0.014505596 0.27178115 0.044059735 -0.049917683 -0.20182942 -0.015566984
AAC -0.31204033 0.015664568 -0.11384341 0.002494644 0.764589 0.060729213 0.019727217 -0.01705847 0.01964691 -0.14220935 0.19842736 -0.088466786 0.16377598 -0.09326299 0.08113346 0.118758865 -0.031324428 0.07573869 -0.36765164 0.025111068 0.12643293 0.016958464 0.29036978 -0.076215066 0.03203691 -0.2765137 0.16419445 0.109498955 -0.03742025 0.28168648 -0.0008327773 -0.2295184 0.034482416 0.0954476 0.16542634 -0.08982083 0.10673146 0.14880814 -0.2325459 0.2995534 0.030266216 0.3735386 -0.13229783 -0.03318613 -0.10108831 0.08515474 -0.20137277 0.182051 0.12307966 -0.27395982 0.43195602 0.33333185 -0.20702639 -0.011086524 -0.15769602 -0.0027190188 0.086991124 0.07774464 0.18761282 0.040213477 0.08723683 -0.050336123 0.118511334 0.042868838 -0.12299896 0.14293721 0.20467989 -0.36516222 0.34129345 0.2278839 -0.19348218 0.044541053 0.26206452 -0.020042293 0.16658455 0.019347027 0.011258796 0.080184914 -0.017246647 -0.074624084 -0.0795662 -0.22899434 0.10671375 0.40703064 -0.044730984 -0.16426979 0.116586424 -0.15279338 0.14642128 -0.26046717 0.19512524 -0.14949754 0.111810185 -0.08724217 -0.31377023 0.07682102 0.019194707 0.15664877 -0.021987487 -0.010356058
GAC 0.13493659 0.35018134 -0.016318819 0.041684654 0.25706595 -0.06987577 -0.04592437 0.13865697 0.012305374 0.23460993 -0.005037249 -0.07413079 -0.004457472 -0.12776992 -0.05262292 -0.09833518 -0.19639122 0.25798354 -0.11324536 0.16028525 -0.05605096 -0.022601841 0.09603866 0.0015818153 0.035685804 -0.27598268 0.056470837 -0.124826424 -0.3265161 0.08751073 0.12253662 -0.25996515 0.03246061 -0.02842025 -0.12067295 0.07242836 -0.12618259 0.016271636 0.038308978 0.088884205 -0.08426035 0.08522677 -0.060311556 0.17723575 -0.023514125 0.026485449 -0.27216378 -0.07578447 0.2303031 0.05870971 0.40672916 0.03473941 -0.17301267 0.051924333 0.022952525 -0.047280874 0.13588992 0.059641372 -0.17888997 -0.33293825 0.16912341 0.04595627 0.2532222 0.2796361 -0.0849156 0.27693605 -0.243709 -0.093431 0.12018792 0.1613829 0.064628564 0.07958933 0.18071157 0.007462092 -0.22087185 0.11089058 -0.12876055 -0.08024655 -0.1949173 0.18726338 -0.18704668 -0.15398645 0.14729427 0.39998466 0.4442861 -0.024921602 -0.06258089 -0.29722467 -0.00025747722 -0.2563871 0.35750055 -0.2924118 0.11062818 0.1666873 -0.15457806 0.2967736 -0.17055015 0.1937425 0.29969075 -0.3404837
GTC 0.16591185 -0.07242438 -0.1841769 0.16066247 0.11586012 0.18025313 0.10075184 0.18577892 -0.021231765 0.14561675 0.050532985 0.07534587 0.2662502 0.14910458 0.14995581 -0.04009041 -0.2684504 0.040156092 0.056747336 -0.05976158 -0.05084786 0.03370059 0.08394687 -0.2564745 0.38137102 -0.20184158 -0.048529286 0.070998356 -0.056532223 -0.07790498 -0.17108802 -0.13849483 -0.10346662 0.25793248 -0.067369945 -0.09674854 -0.01312391 -0.01237413 -0.03992071 -0.11216321 -0.06047711 -0.031273745 0.05344093 0.25103247 -0.42571044 -0.008689045 -0.04837601 0.21332113 -0.3397759 -0.024594203 0.14504834 0.2546903 0.16735087 -0.055874564 0.019882243 0.21069 0.0076915175 0.05057566 -0.08314646 0.02880052 -0.14641733 0.12867081 0.16725156 0.07655918 -0.13163057 0.06499083 0.118923 -0.19004574 -0.33827633 0.16779955 -0.058840312 0.1397975 0.2096373 0.069276206 0.23600496 0.033702508 0.12843092 -0.2068027 -0.5139231 -0.24061318 -0.24233153 -0.40900782 0.079214 0.42611378 0.08759688 -0.015347999 0.23565835 0.08242245 0.20768416 -0.37757874 0.1544051 0.058915313 -0.16389401 0.29129225 0.27983654 0.2895071 -0.22943564 0.011698697 0.001694372 -0.0650675
ATC 0.10325075 -0.13698688 -0.14588448 0.15982105 0.16852887 -0.004125975 -0.26470855 0.14483635 -0.06702728 -0.10026799 0.09444031 -0.2951733 0.007941024 0.29483485 0.39448166 -0.22859861 -0.36680916 0.2405684 0.08961172 0.31785956 -0.018961085 0.033137165 0.04238072 0.0421954 -0.02075772 -0.010638247 -0.2119061 -0.032693554 -0.19218455 -0.069125846 -0.2838224 -0.081558175 -0.10153669 0.15608306 0.08835696 -0.41155684 0.011224232 0.044925984 -0.2050165 0.076285586 0.04528568 0.16684325 -0.30526006 -0.049544893 -0.36026135 0.36673707 -0.038124386 0.1286438 0.0075499276 0.039244663 0.05722105 0.024333216 -0.37961927 -0.23512585 -0.0015277525 -0.044097245 -0.029664367 -0.16157055 0.00929996 0.059067793 0.0024322532 0.34541696 0.11228233 -0.17158121 -0.11293787 0.18575303 0.09180416 -0.11077024 0.02271322 0.44657654 -0.24274138 -0.016887318 -0.1578434 -0.025055522 -0.021666134 0.17082745 -0.05562066 -0.07137937 -0.32398134 -0.26858985 -0.22655801 -0.045552738 0.054085255 0.1796498 -0.28075776 -0.10058001 0.13341609 0.089544706 0.38317034 -0.1660754 0.005602317 -0.41923732 0.21401846 0.097369425 -0.13109529 0.036745414 -0.13919118 0.21452677 0.027928233 -0.27192026
ATA 0.10561328 -0.1526128 0.22498573 0.20191436 0.37945092 -0.13411462 0.17389858 -0.11389343 0.212323 -0.1717251 0.04670492 -0.03279346 -0.24844612 -0.08821601 0.22955495 0.09195142 -0.28264144 -0.07371209 -0.50729275 0.43801337 0.06131625 -0.15440708 0.30772716 -0.25950792 0.060350925 -0.2742536 0.116360895 0.11866939 -0.16768733 -0.03731597 0.0019628233 -0.1391193 -0.011614062 0.07508473 0.4973371 -0.021253835 -0.104130834 -0.13500978 0.004060368 0.07784408 -0.14841393 0.1331635 0.010914202 0.18006815 -0.11445712 0.27947792 0.15520656 0.07887549 -0.09914921 -0.097656004 0.02508329 0.052591555 -0.2384671 -0.09356468 -0.16406684 -0.17143823 0.09723393 -0.023991413 -0.10964764 -0.28131598 -0.19815318 0.28028727 0.121126056 -0.32616884 0.10329889 0.339556 0.06385619 -0.31697047 0.07191983 0.40868244 -0.06387438 -0.18428366 0.04449957 0.032319926 -0.020693127 0.028444193 -0.18809651 -0.09531272 -0.10153724 -0.32217726 0.01768239 -0.2233615 -0.06388845 0.26231912 -0.008117014 -0.16337624 -0.032813985 -0.05769754 0.039098207 -0.11377052 0.11999059 -0.21459654 0.10873805 0.10042101 -0.03742378 0.0812528 -0.26466548 0.023770342 -0.15653548 -0.32980388
GAT 0.08514392 -0.046253376 0.11942172 0.17560022 0.097381875 0.076473184 -0.060127806 0.2334108 0.048528854 -0.010239487 -0.24070771 -0.40339637 -0.25342909 0.07917126 0.21500805 0.21180293 -0.3093937 0.17923215 -0.22000746 0.16402085 0.24893437 -0.33656493 0.031873353 0.027830148 0.04292162 -0.38084075 -0.02030257 0.009247467 0.060374316 0.20556864 -0.019301018 0.15135124 0.058555927 -0.16936886 0.076966114 -0.04728364 -0.1519689 -0.07011982 -0.31260893 0.30501375 0.047006376 0.05844848 -0.14179201 -0.032654125 -0.32413304 -0.2955315 -0.03665371 0.30256966 -0.15959972 0.087012224 -0.104815714 0.019909615 -0.0278484 0.13481386 -0.05311736 -0.055258382 0.006672436 -0.046552725 0.044189304 -0.08842094 0.21968864 -0.0067251525 0.15884888 -0.29985395 -0.009331159 0.19910726 -0.06190186 -0.20729898 -0.16754448 0.15120412 0.032183345 0.073760115 0.23214738 -0.015074448 -0.27897447 0.39811 0.0077218576 -0.2320518 0.11848658 0.04062802 -0.020375323 -0.31102931 0.030182602 0.05145201 0.08739587 -0.062149875 -0.22607589 -0.075592615 0.25370285 -0.5089191 0.035511866 -0.10527541 0.16732985 0.024583576 0.12358538 0.46197024 -0.012556665 0.13929848 0.23184086 -0.36638454
TAT -0.21885979 -0.14676799 0.1201182 0.02152898 0.12609255 -0.12854634 -0.045215182 0.081438065 0.08612024 -0.010068663 -0.117252745 -0.20917037 0.10391771 -0.052912883 0.20750825 0.14649573 -0.17225307 0.0010479334 -0.07764122 0.38361305 0.08264345 -0.41302857 0.15974031 -0.18415049 0.20543677 -0.4102335 -0.2774416 0.24482104 -0.09822523 0.20784836 -0.21055564 0.13070408 -0.12351363 -0.19936807 0.12657528 -0.06958435 -0.2249933 -0.029790776 0.027455479 0.3756767 -0.3471888 0.09242591 -0.15108907 0.2560384 -0.5109348 0.11559951 -0.013934778 0.20077051 -0.24985817 0.06172933 0.25793537 0.09635364 -0.4511213 -0.024680736 -0.13063285 -0.10504353 0.2763909 -0.022782655 0.16929212 -0.10715454 -0.12964086 0.22188881 0.12416092 -0.09593863 -0.08256905 0.15422001 -0.19488078 -0.4035541 0.09507154 0.20215805 -0.114758685 -0.13524586 0.102071166 0.18428765 0.10024131 -0.08091937 0.0022933672 -0.31664497 0.18428715 0.014651621 -0.17796241 -0.23031157 0.12655033 0.021431437 -0.008833509 -0.062654 0.14573084 0.115225784 -0.12037864 -0.22264479 -0.22352596 0.1675069 0.27306825 0.030311897 -0.023691412 0.0680746 -0.20120226 0.019786704 -0.21899495 -0.38623726
CTA -0.14241296 -0.054423664 0.13044219 -0.09689317 0.1087014 -0.027900713 0.14583327 0.35842612 0.08911995 0.13867407 -0.018984277 0.12663668 -0.05203914 -0.008073141 0.14881039 0.15031533 -0.2226092 -0.09363403 -0.2244241 0.18394816 0.057102002 0.5087547 0.08402236 0.002895708 0.05540316 -0.36042774 -0.08170327 0.23999213 0.08183222 -0.21452764 -0.1422865 -0.10836767 0.19397537 0.16024388 0.27850395 0.14590894 -0.08144061 0.037922557 -0.014001954 0.05455364 0.06727078 0.03772765 -0.059483953 0.21268012 -0.37081715 0.049219567 0.21991989 -0.399541 -0.24205728 -0.21019454 0.011458806 0.29106084 -0.47901878 -0.02678938 -0.08119095 -0.05594263 0.15601788 -0.01367122 0.14147544 -0.08426839 -0.20375322 0.057607207 -0.07823178 -0.20571329 -0.11953127 0.42108902 -0.13468583 -0.24254085 0.18456535 0.1371781 0.15709583 0.046546463 0.065166995 0.2942684 -0.13752212 0.20831925 0.06131915 -0.056388386 -0.14449666 -0.06448926 -0.28313813 -0.15225154 0.20068845 0.07169495 0.09051809 -0.11985512 0.20003991 -0.11125299 0.09002483 -0.27414006 -0.020977953 -0.32315615 0.19553624 -0.096991025 -0.13332982 0.13644515 0.13016069 -0.07244883 -0.21859027 -0.2865219
TAG -0.04862272 -0.2967667 -0.04384388 0.22889946 0.15574482 -0.25157073 -0.056515053 0.07626101 0.4444311 0.15537296 0.078380235 -0.18291105 -0.0814653 0.016182195 0.17405716 0.2026462 -0.041664217 0.123130396 -0.0312507 0.16802545 -0.053987138 -0.12587494 -0.16485323 -0.19977053 0.2833056 -0.17467584 0.055669285 0.06667155 -0.120763935 -0.08952689 -0.26397103 -0.18588707 -0.076011695 -0.13396882 0.2457221 0.01410613 -0.14606842 0.2326435 -0.117842466 -0.014656657 -0.4484041 0.39064786 -0.11499102 0.32337245 -0.1883514 0.110789895 -0.094658285 0.051826965 -0.031432953 0.16782649 0.1150416 0.276676 -0.32568187 0.1021234 0.23253001 0.07652586 -0.033867355 0.101393126 -0.15207873 0.19011669 0.19892322 0.01605862 0.30291358 -0.19964044 -0.08427632 0.34189937 0.0026075942 -0.31075448 0.03384893 0.32169783 0.2827126 0.02774006 0.103636555 0.2025533 0.18666084 -0.120882645 -0.19278732 -0.40014136 -0.17436457 -0.20652452 0.04089743 0.06551691 0.10553116 -0.16968599 0.18779907 -0.24928029 -0.11653411 0.011281271 -0.13711928 -0.020648353 -0.23446259 -0.060645595 0.28705254 -0.10775963 0.11185192 0.17279541 -0.11272701 -0.07170378 -0.060518403 -0.16846386
TTTT 0.06960324 0.070528544 0.007848586 0.2892933 0.22504015 0.0445799 -0.10874604 0.35091773 0.12122697 -0.07741311 -0.15874518 -0.26908487 0.14230967 -0.05405223 -0.19160599 0.10066429 -0.23764649 -0.13156125 -0.32231632 0.32161215 -0.11351748 -0.0821768 0.21234839 -0.22341822 0.43519253 -0.39925084 0.27096164 0.1275239 -0.28147727 -0.093685985 -0.25782815 0.20775424 -0.30608237 0.2135775 -0.12241851 -0.019655498 -0.34622562 0.1651034 -0.13484082 0.05551781 -0.21352355 -0.053372186 -0.22205769 0.06500916 -0.08220547 0.20493233 -0.022209913 0.3982299 -0.006946638 -0.21969636 0.16259961 0.16901423 -0.26527676 -0.19844677 -0.047452085 0.2425893 0.24312833 0.15768212 0.19977917 -0.122467905 -0.05930133 0.2245088 0.06867706 -0.35311967 -0.21215238 0.11170933 -0.2600411 -0.3208457 0.15980797 0.08037431 0.31188276 0.09764174 0.23607258 0.040448558 -0.081962004 -0.016854955 0.27728534 -0.49815094 0.0013266078 0.21758613 -0.09251325 0.11023067 0.19007316 0.21778686 -0.030123983 -0.18772726 -0.06574301 0.09609595 0.5480772 -0.33940828 -0.06997842 -0.019320875 0.35704118 0.13088243 -0.08992792 0.0021951925 -0.21420625 -0.18477805 -0.1031118 -0.25772718
AAAA -0.066247076 0.023042208 -0.18578957 0.012541811 0.59294194 -0.11873273 -0.0058976533 0.12615336 0.18173175 -0.11203919 0.008465204 0.1223356 0.049507808 0.037649617 0.110479884 -0.12834948 -0.019241892 0.11098897 -0.28423077 0.16734633 0.35138455 -0.11178778 0.11603128 -0.29311553 0.14491388 -0.2514793 0.2831355 -0.080010876 0.013368427 -0.16217542 0.12076666 -0.13375543 0.18490745 -0.2336023 0.24669169 -0.1108216 -0.19674386 -0.11915085 -0.264609 -0.030663552 -0.015222823 0.35264358 -0.1307105 0.040945854 -0.30508804 0.34930778 0.06865648 0.37965316 0.101888195 -0.33703938 0.052422058 0.268619 -0.21819179 0.30343777 -0.15822205 -0.033265818 -0.026825966 -0.20282207 0.01838619 -0.12816052 0.06338773 0.24039494 0.39952916 0.14085643 -0.31864193 0.7263278 -0.057220455 -0.1899629 0.12494836 0.37502667 -0.08911036 0.117979504 0.20929247 -0.0052038166 0.08330486 0.24460907 0.004368347 -0.07577773 0.10277644 -0.14854002 -0.20718381 -0.016722966 -0.12611754 0.30852506 0.16968308 -0.06173665 0.2171818 -0.18221515 0.2838417 -0.086433925 -0.119948514 0.055177774 0.39556214 0.065976195 0.04411682 0.12183614 0.02916916 -0.13751449 -0.21878299 -0.1927617
GTA 0.14688239 0.052141134 0.17423363 0.12083443 0.35278916 -0.31305695 0.06648659 -0.048550818 0.25090745 -0.1707795 0.28441805 -0.13152829 0.07621337 0.036123376 0.07893944 0.07308168 -0.052155707 -0.03980036 -0.32478854 0.10167753 -0.18664281 -0.105738655 -0.10073637 -0.12549867 0.50795054 -0.14825878 -0.1614385 0.2423778 -0.253051 -0.14749698 0.20552742 0.14762352 -0.15017934 -0.05023022 0.50687903 -0.056173667 -0.1992884 0.12599197 -0.023356553 0.11729773 -0.004606475 0.098238 0.056006815 0.12499599 -0.19596991 -0.13358152 0.005035053 -0.20472464 -0.039461747 -0.20666382 0.10667203 0.032480534 -0.28464478 0.0060069864 0.10023715 -0.04560304 0.123411484 0.048315905 -0.21703859 -0.21958083 0.10825251 0.04871806 0.2810194 0.07979266 -0.08873062 0.2453258 0.15951563 -0.14181128 -0.25296736 0.14976114 -0.16352974 -0.079385996 0.21652798 -0.16131267 0.061239507 -0.0303756 -0.04885912 -0.476008 0.043542307 -0.081608504 -0.20832449 -0.41495204 0.29287308 0.13798356 -0.08314944 0.22569081 0.13148531 0.14737411 0.32068685 -0.37796965 -0.023965636 -0.21803881 0.26947019 -0.26362208 0.04706341 0.113534786 -0.12845246 -0.16668193 -0.18022296 0.0034503788
CAGG -0.15130578 -0.18458904 0.042341083 0.016776076 0.012027651 -0.07458583 -0.10616751 -0.086491406 0.10792914 -0.009720403 0.0768769 -0.18128902 0.2548184 -0.12044339 -0.0946192 -0.07406886 -0.27539498 0.04026553 -0.012861553 0.23212145 0.2752764 0.37646806 0.14477974 -0.18544765 -0.0060080015 -0.04012784 0.41282135 0.23653488 0.12414449 0.30354014 -0.03415392 0.11069523 0.17106028 0.014944894 0.3530406 -0.0048639 -0.31365144 0.23011695 -0.19655116 -0.10956705 -0.05706831 0.23616785 -0.055690292 0.29415354 -0.039111134 -0.09777789 0.0062857503 0.091298304 0.20362952 0.011697923 -0.16520886 -0.0400545 -0.23330374 -0.04577119 0.25174546 0.1434117 0.09770275 0.08057389 -0.13783194 -0.27037984 -0.21151112 0.2194969 0.17286046 -0.18172158 0.1414163 0.39417455 -0.0657681 -0.17235796 -0.14492933 0.25012246 -0.2353903 0.46658483 0.16679154 -0.004262692 -0.24270533 -0.0513179 0.14077944 -0.0798903 -0.23411424 0.059380617 0.016852507 -0.44061604 0.031746615 -0.0075287595 0.022735769 -0.12757675 0.0722694 0.16836214 0.017558789 -0.03737684 0.086438395 0.10012272 0.07959275 -0.090926215 0.15840897 0.11148881 0.0185295 -0.08415067 0.026055666 -0.07809944
CCTG -0.24500513 -0.014761858 -0.24059 -0.29893696 0.21446718 0.17201953 0.1682238 0.44005746 -0.02331496 0.046491303 -0.15505631 -0.071066275 0.14631589 -0.032587808 -0.08222147 0.3062342 0.06277983 0.06496842 -0.23295824 0.429576 -0.216258 -0.08162899 0.044413954 -0.26522794 0.008639017 -0.020104423 0.08214448 0.16803706 -0.18816271 0.05717405 0.062501304 0.033269476 0.021810448 0.001131934 0.097299494 0.116012245 -0.16167808 0.3946167 -0.015643507 0.087955385 -0.1300706 0.0020890597 0.23445246 0.13745716 -0.27718884 0.19175053 0.08491136 -0.14451893 -0.0004096445 0.022794707 -0.18140528 0.11015335 -0.12746522 -0.12982894 0.1421547 -0.27992728 0.22528502 0.09146274 0.13706067 0.083349064 0.37448594 -0.029217761 0.17818652 -0.09288897 -0.015739609 0.23406933 -0.20185244 0.13798854 0.09057085 0.12918162 -0.2686602 -0.008204609 0.17203431 -0.17664005 -0.102972366 0.24111627 0.082953185 -0.086564034 -0.35869816 -0.39985323 -0.014089586 -0.12905277 0.18922628 0.077112 -0.11988143 0.120906435 0.13088213 0.024941893 0.09943481 -0.16030774 -0.13731545 -0.22944017 -0.055771425 0.25217164 0.0781728 0.06113215 -0.10350902 0.09766554 0.16177393 -0.26695824
TAC -0.08473033 0.009369023 0.22630319 -0.056530688 0.34086025 0.030410577 0.13361685 0.016896877 0.26860857 -0.13137923 -0.063744634 -0.19292687 0.12634186 -0.3528281 0.22842978 -0.05366144 -0.41609836 -0.10602098 0.14217965 0.24395692 0.08027123 -0.30486095 -0.0006563138 0.035620864 0.25983208 -0.37983862 0.07754778 -0.019594144 -0.12523328 0.2091113 -0.22233894 -0.12793611 -0.026799612 0.3279885 0.06007903 0.24307103 -0.10873449 -0.08112433 -0.030267064 0.31536314 -0.016338415 -0.016395215 -0.08514207 0.41567075 -0.10033975 0.1862501 -0.24989066 -0.042803954 0.2486462 -0.029272813 0.117277496 0.4716809 -0.34899232 0.14420196 -0.07017496 -0.2796145 0.2703458 0.092960164 -0.20083828 -0.050473668 -0.039637174 -0.030735597 0.09591163 0.108793996 -0.111559376 0.2739158 -0.119892634 -0.35765505 0.2003413 0.3191515 -0.060236428 -0.2206071 0.14888728 -0.055255055 0.15401337 0.10799237 -0.0019499288 -0.31502885 -0.05353804 -0.3004079 -0.46384218 -0.08682722 0.11270751 -0.021680923 0.11291467 -0.20077546 0.12111725 -0.25761694 0.17007267 0.12610017 0.017653868 -0.14824475 0.1984823 0.01640913 -0.14804573 0.07113728 -0.21903671 0.053867683 -0.00040431035 -0.05417248
CCAG -0.089980975 -0.48096445 -0.06121728 -0.16012664 0.26922044 -0.19152158 -0.13152249 0.058280367 0.10663061 0.176255 -0.01775217 0.2665379 -0.13359018 0.02841591 0.042986065 0.055273004 -0.38049302 0.079098284 -0.11986935 0.28406623 -0.13319261 0.009991273 -0.046168152 -0.20227715 0.21123192 -0.009127112 -0.27031744 0.07627457 0.032200925 0.077237986 0.2088975 0.01857209 0.09926195 -0.076999664 0.1961973 0.17853603 -0.4984713 0.45549715 -0.48570517 0.18383577 0.083849765 0.20858394 -0.020359788 0.23809513 0.08571485 0.0687806 -0.012686779 0.4569788 0.0115569085 -0.18103787 0.03466379 0.2094533 -0.15435697 -0.085869126 0.07460746 -0.11972411 0.22641656 0.20557019 0.048328392 -0.18738432 0.018976664 0.18766393 0.027808405 -0.03086832 -0.2930211 0.20044194 -0.08943817 0.08599878 -0.19398266 0.3318549 0.12896565 0.056925032 0.067288734 0.11134759 -0.029306412 0.1232981 0.017084382 -0.008985494 -0.3213156 0.24727453 -0.2507012 -0.0704334 0.01609331 0.028717551 -0.08015238 -0.10648913 -0.048343252 -0.034421906 0.02760366 -0.104884006 0.025350865 -0.049667116 -0.19487599 0.008947979 0.075935036 -0.05247409 -0.06445462 -0.06916341 0.13289136 0.1985591
CTGG -0.05380765 0.20175672 0.11222751 -0.18381049 0.15488422 0.061142668 -0.013615473 0.3069499 0.20671083 0.38914502 -0.20728937 -0.2426469 -0.14223857 -0.07353027 -0.13426082 -0.11363338 -0.06798707 -0.12431449 -0.17287368 -0.00068102765 -0.11572045 -0.10752457 0.22072244 -0.098484114 0.3084638 -0.20020992 0.15973718 0.41914135 0.13218117 -0.243385 0.0050982055 -0.14351337 0.028187856 0.07985818 0.46670142 0.010301399 0.0464847 0.27652153 -0.29854095 -0.052886266 -0.17567915 0.24110132 -0.120831765 0.27567586 -0.4634015 -0.07824359 -0.050108902 0.18217133 -0.029662807 0.12524083 0.057344902 -0.06829426 -0.2640178 0.11120982 -0.10139704 0.049861677 0.18730749 0.073485926 0.023251833 0.04471466 -0.22991186 -0.16934736 0.14226493 0.0542598 0.2555307 0.06326427 -0.15394591 0.030844018 0.03514367 0.18948853 -0.20885475 0.14224908 0.08881457 -0.0473091 -0.19663428 0.22751673 -0.17325875 0.034593284 -0.1096577 0.018586155 -0.10985143 0.029553814 -0.07345338 0.2793977 -0.09610165 0.13619192 0.15906934 0.19254425 0.24835153 0.17824772 -0.18722458 -0.20870245 0.029050758 0.18010445 -0.21594743 0.18234321 0.05077272 -0.08286349 0.046360597 -0.027609432
CCCA -0.39726892 -0.03349392 -0.24596983 0.22893684 0.23909804 0.118393034 0.028473936 -0.08893775 0.2497622 -0.029538088 -0.14743185 -0.021302495 -0.052513197 -0.13809466 -0.25611308 -0.042036746 -0.22039029 -0.04794416 -0.07032445 0.1284595 -0.040188022 0.21793884 0.11253135 -0.13979432 0.34575117 -0.23403165 -0.19984287 -0.10603484 -0.29328933 0.047646392 0.00045126904 0.113080345 0.16874774 -0.09994348 0.2855315 0.18388821 -0.08459914 -0.041438792 0.087090075 0.30335742 0.11350361 0.35854024 -0.08956168 0.3866252 -0.07160146 -0.09928323 -0.007447488 0.32066676 -0.010058097 0.041948974 -0.11012077 0.13592091 0.16688696 -0.018289752 -0.30394664 -0.10205295 0.28147852 -0.023052001 0.2707649 0.055903357 0.13221607 0.23077968 -0.08015219 0.035972793 -0.11993463 0.21166223 0.17912477 0.06847406 0.10189112 0.06960607 -0.18572193 0.072053954 0.17148298 0.038621645 -0.11914002 0.28761092 -0.0006538755 -0.22756617 -0.4869246 -0.015850075 -0.40690026 -0.22340754 0.10494803 -0.021781702 -0.20697169 -0.28093576 0.13946217 -0.049114898 0.09445978 -0.06842311 0.007617569 -0.35498837 0.073403664 -0.2505983 0.07994094 0.012382597 -0.1414488 0.05653103 0.18261781 -0.13461885
TGGG 0.044633646 0.005218038 -0.1422073 0.016766755 0.16190894 0.30284417 0.124714054 0.075662196 0.19573916 -0.011069825 -0.21229097 0.015537549 -0.03502219 -0.023129417 0.047454942 -0.23068045 -0.15457718 -0.016156748 -0.33221954 0.32309332 -0.37941355 -0.04249346 -0.14023711 -0.22382629 0.32694015 -0.009046064 -0.14631712 0.0945662 0.08316015 0.0037751156 -0.019534366 -0.055085298 0.29329896 0.06350915 0.19738173 0.06061724 -0.036636714 0.30802462 0.013057921 0.019734928 -0.21345684 0.19643088 0.08170889 0.16409855 -0.09341652 -0.19047827 0.08287291 -0.014735142 -0.31625023 -0.10131937 0.032013126 -0.22623807 -0.23927402 0.1986188 0.10073929 0.030582368 -0.27886346 0.03253492 0.11939422 -0.15545394 -0.14025806 -0.12350458 0.3962265 0.07497157 0.17601591 0.19924405 -0.09996439 -0.32636103 0.07498363 0.2626218 -0.07830099 0.033537604 0.1472888 -0.11745816 -0.37985653 -0.008483485 -0.2698381 -0.1737007 0.06487372 0.06788554 -0.20323329 -0.010789542 0.17228441 -0.09669205 0.038065072 -0.15747996 0.0813351 0.24056673 0.26972425 -0.14694268 0.19844672 0.024911562 0.32699132 0.17588873 -0.15062967 0.0770302 -0.20479707 -0.07628719 -0.29410666 -0.18186209
GGAG 0.19369765 0.08875537 0.1018154 0.15553862 0.2632601 0.14651355 -0.09709266 0.2214145 0.16464378 -0.0367837 -0.117450416 -0.24907067 -0.1847119 -0.1875519 -0.07221692 0.10895042 -0.30468348 0.1369619 -0.2873214 0.03576583 0.16385981 0.2956735 -0.30922493 -0.09559458 0.124078326 -0.20507878 -0.011934475 0.09776001 0.10574122 0.01667915 0.21581359 -0.20418568 0.11098315 -0.3036073 0.12036914 -0.017556569 -0.22180098 0.073883966 -0.29838923 0.08552379 -0.1454599 0.022331126 0.016196646 0.47060597 0.10362727 -0.3179567 0.20544873 0.16602755 -0.050355654 0.0041359174 0.10907742 0.09661398 0.026528638 -0.03886827 0.3588066 0.1895599 -0.0204323 -0.067192785 -0.12165449 -0.045664143 0.09654914 -0.06668751 0.3403403 0.044316143 -0.20832205 0.20725256 -0.17397316 0.014634894 0.0075976364 0.3999958 -0.29438922 0.022738935 0.07374934 -0.018999308 0.31047356 -0.27491796 0.008487207 -0.038247053 -0.06200045 0.0023483767 -0.20527446 -0.0037750443 -0.2628969 0.08299653 -0.20624256 0.04335971 0.07319026 0.20260331 0.096589305 -0.30966923 0.040866587 -0.106380895 0.15915145 -0.014545576 -0.12907504 0.04984788 -0.21871188 0.015363796 -0.18528274 -0.28453684
CTCC -0.21701044 -0.16635858 -0.34098285 0.08965197 0.098599836 -0.1136529 -0.27992386 0.35969174 0.059866004 0.059377782 -0.16661789 -0.13762066 0.058255833 -0.2113817 0.07129524 -0.017539633 -0.055330273 0.04159577 0.039149318 0.12741017 -0.31243977 0.08258324 0.3250977 -0.28184977 0.21291363 -0.17800227 -0.0510156 -0.101167 0.07989611 -0.027034283 -0.23764575 0.033612024 0.032483596 0.10700774 -0.07299013 -0.009258746 -0.22368963 -0.0040211957 -0.17625988 0.5084127 -0.1017395 0.036938757 0.041199904 0.08858587 -0.3984304 0.12453532 0.14291428 -0.2380808 0.030967986 0.05384688 0.046872236 0.04264167 -0.1092618 0.17310856 -0.37710097 -0.0020962637 0.13824669 0.01830527 0.16239804 -0.111235954 -0.1029882 0.13172655 0.11160301 -0.4373549 -0.14922619 0.30398127 -0.042797126 -0.043641236 -0.08031099 0.11071317 -0.12305693 0.11664741 -0.101632275 -0.15168707 0.14644876 -0.08121424 -0.12557735 0.14089572 -0.4148471 -0.02424395 -0.055856533 0.054800592 0.24639723 0.38398513 -0.08200691 -0.303703 0.24218872 -0.060088556 0.071068436 0.056681618 0.010919744 -0.26857486 0.17983285 -0.1384471 0.12168185 0.48138916 0.052263696 0.06322169 0.16246846 0.06942317
GAGG 0.07357426 0.08940916 -0.04542027 -0.06437076 0.1339486 -0.009545822 0.025771854 -0.08929728 -0.09017914 0.16331393 -0.1927947 -0.29197586 0.042561702 -0.17653301 0.07554609 0.17905666 -0.24916056 0.31674242 -0.22390163 0.26760852 0.10150091 0.043833185 -0.09400919 -0.40883556 0.061998747 -0.13820016 0.002443675 0.18041411 0.0085238265 -0.07335074 0.029021554 -0.12458506 0.4080912 -0.19100413 0.20580216 -0.1479266 0.02696518 0.1562948 -0.33970633 0.00818484 -0.07241614 0.2732068 0.016482791 0.37236246 0.13733438 -0.1679001 -0.15360278 -0.028045328 0.039521936 -0.1404178 -0.16844247 -0.14932075 -0.08737772 -0.092794925 0.21828227 0.14185272 -0.15114744 0.18067765 -0.06610036 -0.05953276 0.072130404 0.08357679 0.079926856 -0.09519052 -0.14054035 0.15119353 -0.08443695 -0.25100902 -0.19328023 0.3684398 -0.18150923 0.5841273 0.07616347 -0.19929789 -0.095301494 -0.20686856 -0.020199537 -0.072348945 0.13535228 0.04636011 0.013432061 -0.19318049 -0.19834657 0.08172988 0.14950544 -0.05533413 0.08906116 0.017027918 0.13381928 -0.44974235 -0.21917787 -0.08728716 0.28821573 0.11072153 -0.045212287 0.12511739 0.13782336 -0.09117769 0.043822944 -0.21174176
CCCT -0.12456619 -0.17398442 -0.21132724 0.010352271 0.024201375 0.07933943 0.11523877 0.24156657 -0.046716787 0.19767068 -0.041990396 -0.090231866 -0.022222199 -0.17204517 0.1275368 -0.017476311 -0.07403642 0.20482418 0.04430445 0.36597863 -0.03472359 0.20089208 0.007487831 -0.14521347 0.26189172 -0.20100272 -0.14002234 0.3416552 -0.19928151 -0.06712317 0.118589416 -0.013708862 0.029465778 0.12102243 0.0535514 0.07152544 -0.24500163 0.11561717 0.054172434 0.5553824 -0.17264509 -0.034199983 0.0426862 -0.052011218 -0.092473075 0.26540586 0.059789155 0.0060520074 -0.014372938 0.21643203 0.06913325 -0.07010714 0.096562445 0.0685451 -0.14270884 -0.0125071835 0.39479503 -0.122616656 0.28156728 0.015820088 0.101745896 0.19552106 -0.06289321 -0.34623018 0.11773999 0.15522893 0.16004404 -0.024680296 0.19108535 0.29614523 -0.35784942 -0.007078975 0.4911408 0.22350714 -0.16107237 0.3190194 0.2666465 -0.17879722 -0.303936 0.035616387 -0.26821443 0.14528503 0.008495477 0.027312772 0.32822922 -0.120076835 0.2997808 0.04771429 0.17812145 -0.2703616 0.037198268 -0.38966188 -0.03241461 -0.14245088 0.13028766 0.14132442 -0.044685837 0.19926643 0.05659074 0.124832846
CCTC -0.33171195 0.13359866 -0.38041398 0.07932296 -0.04852872 0.06602614 -0.099474005 0.2620576 -0.095362954 0.25816748 -0.08030252 0.015320581 0.06662448 -0.0034647472 -0.065031424 -0.32376412 -0.07604632 0.18540241 0.04996278 0.13467838 -0.16276881 0.019607933 0.0535634 -0.1571398 0.3671889 -0.4150148 -0.16517068 0.10253783 -0.12253341 0.060441058 -0.14001115 0.13123292 -0.0128394775 0.0727352 0.23095833 -0.08596231 -0.28420365 0.20723616 -0.08713111 0.12308473 0.05820525 -0.022242812 0.028871242 -0.06261024 -0.088605836 0.2058183 -0.07876515 -0.27466524 0.015555926 0.022834338 0.050789174 -0.12461601 -0.2619064 0.16405614 -0.26499927 -0.09656497 0.2082439 0.2492632 0.38077217 -0.15339948 0.23685378 0.28461233 0.23955625 -0.22160369 0.0066662864 0.25232303 -0.018915515 -0.16735545 0.27306464 0.19420272 -0.11603389 0.097449884 0.12961237 -0.096000955 0.35046288 -0.019974645 0.342414 0.14872204 -0.36868238 -0.4404357 -0.28037432 -0.12741287 -0.013124606 0.281604 -0.13486809 -0.22261071 -0.011011437 0.12400498 0.060253315 -0.068423465 0.050482105 -0.29260817 -0.29261804 0.09437305 0.26206088 0.16697943 -0.04776032 0.064926125 0.13962114 -0.19242659
GCTG 0.13670555 -0.06518781 -0.024525091 -0.07398462 0.21586625 0.18122293 0.15085705 0.20647822 -0.13440461 0.1215557 -0.12690136 -0.23587595 -0.08684189 0.2461581 0.20715468 0.40834093 -0.06719577 -0.28349873 -0.06653869 0.08508783 -0.3137745 -0.10353002 0.16212508 -0.4234509 -0.23565623 -0.3064652 0.15770598 0.14587983 0.23184349 0.33718097 -0.21018809 -0.05662146 -0.055222094 0.055619635 0.19708395 0.09132396 -0.42084476 0.35805425 0.014446597 0.16871686 -0.18136667 -0.017509064 -0.033344455 0.34478858 -0.24134721 -0.07811321 0.22490335 -0.085308895 0.27397454 -0.20786363 -0.16646321 0.13439676 0.03603988 -0.10874388 0.080585234 -0.043706838 -0.19384718 -0.25371632 -0.10415909 -0.04284588 0.1196009 0.06138828 0.17996848 0.098034196 0.092082776 0.22534433 -0.006746188 0.15433969 0.055975806 0.10192528 -0.24656877 -0.0025872728 0.33748603 0.01884334 -0.20279983 -0.11865491 -0.0825465 -0.19150443 -0.19738571 0.1194193 -0.09178176 -0.08139662 0.050084326 0.06716704 0.10502921 0.073547624 0.0651797 -0.13151988 0.20524499 -0.08105102 -0.24089749 -0.2541909 0.18424714 0.11050499 0.10448505 -0.03387733 -0.07102265 0.049488064 -0.044015486 -0.19938642
AGGG 0.21111341 0.10505528 -0.28077504 0.047981698 0.60221976 -0.06231278 0.026037607 -0.029870506 0.16993517 0.108608454 -0.06188894 -0.05135441 0.22448586 -0.059708245 0.10140538 0.021179752 -0.29821593 -0.0042202217 -0.09429587 0.23714137 -0.017132318 -0.11936346 0.13084687 -0.2678434 0.16958503 -0.16763191 0.067176364 0.2930597 0.18231456 -0.071945205 -0.09312817 -0.064386666 0.3354208 -0.3363015 0.37421507 0.045711868 -0.26390493 0.09180724 0.0998459 0.10674544 0.18210809 0.012359498 -0.2254095 0.21618183 -0.04346915 0.16022821 0.013581226 -0.010212716 -0.33645454 -0.030591631 0.0034223744 -0.08365998 0.012862855 0.10008741 0.22079185 0.093806155 -0.002390555 -0.19613492 -0.059063997 -0.20973708 -0.013984044 -0.007050836 0.5330079 -0.17950022 0.28813523 0.07698835 -0.17768194 -0.22981794 -0.04509901 0.21174103 0.016066767 0.2742717 0.09786287 -0.03282284 -0.16319278 -0.14042005 0.05074265 -0.1562259 -0.027918343 0.087651305 -0.038126 -0.18505596 -0.026398113 -0.059969902 0.009713999 -0.018370979 -0.030318523 0.20978342 -0.111449994 -0.26835674 0.14187029 0.10229693 -0.047286622 -0.034708876 -0.38827968 0.07685146 -0.18635139 -0.014788957 -0.05852062 -0.097550936
CAGC 0.029884787 -0.17975536 -0.031038985 0.18276674 -0.064441 -0.108945206 -0.19305316 -0.03285981 0.26849028 0.13027279 0.14031917 -3.580112e-05 0.05353446 0.032021705 -0.20501761 0.060761012 -0.5029873 -0.118074834 0.0322851 0.14744142 0.1820343 0.28284758 0.20104758 -0.21914673 0.042527135 -0.12429926 0.2889521 -0.021597259 0.06150768 0.21584573 -0.0019695666 0.07554808 0.0622175 0.03222861 0.0774682 0.21066023 -0.010623968 -0.0613046 -0.035797574 0.06461582 0.17365208 0.30832005 0.004551801 -0.042934697 -0.22200099 0.032904353 0.03941702 -0.09205343 0.21346506 -0.110648975 0.16838531 0.092643276 -0.19203292 0.050724484 -0.08355439 -0.28091472 0.0212338 0.18778735 0.099122174 -0.11105464 0.12169651 0.08258218 0.2749551 -0.14418723 0.06154432 0.46903893 -0.27347258 0.038244672 -0.022850493 0.26797852 -0.03383501 0.0691898 0.22013494 0.1556014 0.13612902 0.033188805 0.010061898 -0.08038944 -0.3885641 0.06950592 0.10558513 0.02441785 0.11869541 -0.06407908 -0.14456564 0.10124929 0.41612044 0.35859206 0.28407902 -0.27326924 0.040603884 -0.14325571 -0.20436688 0.145489 0.10797173 -0.027240377 -0.45650598 0.1444314 0.037201077 -0.018401198
AGAG 0.41223076 -0.115288876 0.18602923 -0.017707082 0.4735791 -0.08956303 -0.14866853 -0.023292238 -0.015741548 -0.045810282 -0.17158896 -0.0602267 0.0012970389 -0.18257065 -0.079216085 0.09116894 -0.38789243 0.18751603 -0.29269445 0.22018586 0.108378604 0.18133134 -0.117992915 -0.18508047 0.21242781 -0.14354157 0.005635835 0.33819014 0.15077835 -0.007671764 0.056274027 0.0030093554 0.22840236 -0.34476176 0.30440757 0.06459386 -0.04582739 -0.16845046 -0.086393334 -0.1296852 -0.19117428 -0.13567528 -0.15414684 0.37690428 0.15624389 0.0809393 0.13363728 0.17755286 0.079898156 -0.16202481 0.10742499 0.43481568 -0.046864815 -0.0029982834 0.046721485 -0.1077351 0.09203748 0.015678585 0.074726425 -0.08859767 0.042167835 -0.08920481 0.3335265 -0.1723599 -0.21506107 0.39089862 -0.011875511 -0.13894716 0.13368323 0.29184675 -0.1742614 0.111551285 -0.016001215 -0.19117212 0.2251933 -0.08346138 -0.00829707 -0.2035182 -0.16480464 0.052293755 0.18051344 0.121458456 -0.14365493 -0.0823225 0.063808605 -0.10351774 -0.024606839 0.15764818 0.013332817 -0.29797608 -0.015508332 -0.10925113 0.07912893 0.054008797 -0.09809841 0.36041537 -0.0078921635 -0.15591887 0.036224764 -0.30113643
AGGA 0.12610674 -0.1555454 -0.07970052 0.090170026 0.37368003 -0.14097728 -0.08976573 -0.07192704 0.13944851 -0.023010056 0.13618155 -0.23333706 0.18844858 -0.09342808 0.21804552 0.117676936 -0.3005543 0.05645614 -0.26612282 0.302642 0.16698638 -0.094057016 0.14163439 0.0888254 0.2933043 -0.5145383 0.17305456 0.26550436 0.0024058656 -0.10039968 -0.17975403 -0.1990851 0.3339529 -0.3688537 0.19543676 0.098485366 -0.40203106 -0.01983372 -0.1419958 -0.18511684 0.083393656 0.07476553 0.0066356696 0.054587033 -0.16948088 0.032535236 0.17741717 -0.0810002 -0.23066002 -0.12115236 0.08883187 0.008445205 0.06156699 0.10423421 0.18757239 0.021572862 0.07372979 -0.1653746 -0.21570358 -0.13048361 0.20688146 0.089691505 0.38056034 0.024298629 -0.015032577 0.25023565 -0.03785432 -0.04222566 0.18589094 0.19369094 -0.14557984 0.48294 0.05715624 -0.026372867 0.033572093 -0.008482063 -0.1473423 0.025913177 -0.15768218 0.18568537 -0.14282374 -0.03213089 -0.29350078 0.2717389 -0.039324075 -0.061134797 -0.02987094 0.17563832 0.08345143 -0.20266981 -0.054627337 0.19065244 0.18124746 -0.12631534 -0.14148371 -0.21932198 0.12788405 -0.048812184 0.2971221 -0.27967077
CTGC -0.026845584 -0.12055915 0.16190997 -0.15058312 0.04095789 0.0491886 0.01181044 0.4345401 -0.04838397 0.26591697 -0.013555901 -0.033958822 -0.16809851 -0.01155854 0.05183406 -0.1084325 -0.12163619 0.18028194 -0.1356618 -0.0503584 0.07980171 0.07906633 0.34603822 -0.26940855 0.39339274 -0.18434477 0.06599434 -0.30211642 0.17732176 0.034790836 -0.29466537 -0.12064116 -0.01574157 0.027467975 0.30194533 -0.071018614 -0.012390814 0.15699266 -0.31552494 0.15757789 -0.025803657 0.19076924 0.14735572 0.41763383 -0.17244063 0.24383743 0.31270567 -0.18372133 0.1368735 0.017356914 0.056453805 0.09838638 -0.060033135 -0.01781034 -0.3734331 -0.13453385 0.048663206 -0.19708401 0.19318566 -0.04181601 0.21087423 -0.07878495 -0.08654929 -0.17921789 0.053379092 0.06141071 -0.32490337 -0.14098896 -0.09071433 0.29140154 -0.19150947 -0.13274696 0.076517336 -0.11378418 -0.23967758 -0.021553792 -0.01472338 -0.17470053 -0.107031815 -0.04225454 -0.26336128 0.030512443 0.1620513 0.39280018 0.26571107 -0.12179032 0.19859321 0.39043957 0.1823531 0.073914364 -0.19345278 -0.14189097 -0.20237197 0.086803004 -0.09132325 -0.08378701 -0.08131832 0.1898954 0.1423926 -0.041769084
CTCT -0.16257155 -0.068151265 -0.29680672 0.058226172 0.16021657 -0.0043159653 0.07515972 0.53477 0.008892892 0.12782799 -0.12583144 -0.053528383 0.029604698 -0.009093315 0.08046463 -0.13907029 -0.13765381 0.12898776 -0.0566293 -0.023221346 -0.17530544 0.050484568 0.26224253 -0.4098566 0.13482665 -0.12803884 0.108060405 0.09048759 0.26431766 -0.17527172 -0.27303487 0.14026755 -0.15970539 0.14832394 -0.03289553 0.014588296 -0.3386473 -0.17448276 -0.32610023 0.25575742 -0.013037532 0.09372305 -0.13274509 0.15219519 -0.17778929 0.094719276 0.41272366 -0.121174105 -0.29742286 0.064326614 0.12849572 0.092414156 -0.45910156 0.22594549 -0.28742537 0.0043720366 0.37279627 0.18017878 0.23524655 0.040812515 0.0436471 0.23762672 0.1772033 -0.2923052 -0.01097797 0.035390772 0.026794126 -0.10111187 0.09164921 0.048854582 -0.27060425 0.08755161 0.34816772 0.12572154 0.23957406 -0.00031327293 0.15973921 -0.098462984 -0.19549291 -0.25026357 -0.19721659 -0.058467988 0.17746328 0.048636727 0.1523176 0.045328673 -0.0064015193 -0.3061841 0.24832548 -0.05439258 -0.13997677 -0.24805921 0.11819511 0.03035911 0.071696736 0.25251883 -0.07689117 0.042551123 0.13720186 -0.051403936
GCAG 0.025891954 -0.35579446 0.0073658 0.14791404 -0.001742261 -0.20701067 -0.27454704 0.21846218 0.12110698 0.24710359 -0.06619862 -0.25096667 0.0857484 0.04542506 0.21544328 0.20097291 -0.32883653 -0.16780347 -0.14933547 0.4077281 0.019231547 -0.19880733 -0.29718083 -0.40860286 0.2530665 0.0342526 0.16767001 0.13128881 0.257551 -0.06352438 0.16242273 -0.054765906 0.24463105 -0.03514259 0.23686564 0.2905328 -0.10191443 0.37600622 -0.2903282 -0.09574858 0.17881802 -0.04729709 -0.0416115 0.25991592 0.102041304 -0.010144224 -0.104387954 0.074564524 0.13695166 -0.09445863 0.06915718 0.2531668 -0.071118265 -0.016656488 -0.118150786 -0.08628762 -0.10163274 -0.010057543 0.22259288 -0.18503284 -0.16656514 -0.072442226 0.12641908 0.12145973 -0.2748032 0.079452395 0.082489364 -0.032548483 -0.05034772 0.2334191 -0.25343898 -0.2008221 0.09312178 0.20614164 0.09459761 -0.18393168 -0.038625594 0.1779388 -0.10663153 0.3184702 -0.15560769 -0.17339131 -0.025625302 0.20263317 0.22113642 -0.08651636 -0.17395633 0.14161058 0.1451914 -0.3645261 -0.19883297 -0.06889857 0.013852293 -0.11701706 0.054612342 -0.12053436 -0.18130934 0.17771904 -0.064923935 -0.24808586
TCCT -0.10410488 0.17626172 -0.27622098 -0.03646253 -0.068037815 0.0127431685 -0.05563009 0.29750583 0.27607372 0.18124181 0.12290766 -0.18719618 -0.011726669 0.3031757 -0.10633596 0.11436632 0.06836386 0.16406034 -0.19388923 0.49916366 -0.083545394 0.08782292 0.007925612 -0.29770494 0.38369057 -0.25259602 0.013703336 0.09837225 -0.19498742 0.13158648 -0.14755487 -0.12425151 -0.23293316 0.22105913 -0.12669064 -0.099997066 -0.29670125 -0.0101304585 -0.3548618 0.35315275 -0.056453433 -0.33974448 0.04921895 -0.019963816 -0.27403733 0.16724643 0.17412986 -0.02094912 -0.21561703 -0.11929258 0.23186429 -0.021984573 -0.1622125 -0.03443733 0.14437123 -0.18107083 0.36362466 0.16245222 0.057138626 -0.079051584 -0.22857317 -0.03174545 0.05020032 -0.39652893 0.10411936 0.35812825 0.042308126 -0.17860049 0.085859776 0.22986573 -0.31104565 0.11385208 0.2958231 0.0813343 0.16748735 0.15328534 0.31170112 0.024812272 -0.14367683 0.02129728 -0.15775451 0.18118387 -0.03049138 0.039091405 0.34555706 -0.07443419 0.24830471 0.053016093 0.055947077 -0.10435034 -0.12581708 -0.34343106 0.00045426958 -0.042354103 0.162004 0.028233552 -0.031736292 0.10803661 -0.074361175 0.07151939
CAGA 0.3214847 -0.29320112 -0.02318014 0.057814505 0.25716862 -0.24670555 -0.16166864 0.24758804 0.23484348 -0.14078751 -0.13599202 0.05875947 0.08561793 -0.073661715 0.21654028 0.0016333039 -0.439298 0.26170406 -0.2717533 0.15384513 0.17310295 0.46145862 0.14324404 -0.041595183 0.19675209 -0.15459134 0.47598717 0.03159074 0.107307315 0.09910415 0.10607773 0.3040716 -0.040076997 -0.18426342 0.42142338 0.1818687 -0.1423306 0.027529448 -0.10328556 -0.017783858 -0.056928743 -0.062440537 -0.2358895 0.0034996858 -0.2612798 0.02300648 0.103438824 0.26444224 0.3544601 0.041404814 0.00017114426 0.17320275 -0.29915807 -0.084819935 0.1081345 -0.008681291 -0.09917232 0.022887724 -0.019866128 -0.34310147 -0.004132112 0.0063431254 0.21965131 -0.06813654 -0.006779708 0.25862902 0.11135058 0.003598767 0.31396642 0.048977576 -0.25792366 0.14765437 0.3293735 -0.027713554 0.3135134 0.14901666 -0.15006016 -0.16105168 0.08143022 -0.09398225 -0.07325733 0.019990847 0.29163033 0.016809724 -0.038468316 -0.34969312 0.24998406 0.1857869 -0.0746947 -0.2708452 0.012855184 0.06370701 -0.1756814 0.03359426 0.11992942 0.067930534 -0.054458696 0.08554054 0.29468903 -0.15299942
CCCC -0.19280665 0.03870147 -0.2112784 0.014716291 0.06348331 0.116243966 0.03252893 0.10325078 0.0982135 0.14963141 -0.17679837 0.05219701 0.15218738 -0.01932622 -0.07615141 -0.027786281 -0.14326134 0.086992435 0.065665066 0.31305087 -0.13265014 0.2520672 0.20315665 -0.08601214 0.32190716 -0.33278644 -0.026275922 -0.20504716 -0.29506478 -0.06348965 0.12615159 -0.114335 0.101782516 0.057422493 0.23644732 0.11119102 -0.23534633 -0.068734825 -0.023663735 0.5337502 -0.15824069 0.1477087 0.015660392 0.20695242 -0.02025916 0.1307211 -0.08410847 0.020640166 0.118532956 0.060450703 0.3421613 -0.03177483 0.10695312 -0.096102215 -0.37586817 0.13637087 0.24887681 -0.15341493 0.4518758 -0.06751069 0.104388155 0.2772249 0.028326819 -0.21644793 -0.12866488 0.27137628 0.30133006 0.09136517 0.024868304 0.24371444 0.014095104 0.04327638 0.25702056 0.01941654 -0.07591271 0.15520807 -0.11658696 -0.049573835 -0.4279353 -0.113933295 -0.20391096 -0.24666038 0.14977546 0.040053673 -0.25393113 -0.14862907 0.17276712 0.011582251 0.04724169 0.05771367 -0.03921985 -0.2813926 -0.06957786 -0.114801064 0.13387851 -0.0016717225 -0.011693588 0.22162478 0.03306431 -0.043374237
TCTG 0.023299895 -0.19354627 0.07524711 -0.06849271 0.42110854 0.1815988 -0.16966377 0.60873437 0.03611822 0.06948773 -0.037311573 -0.27990216 0.074858055 0.041518524 -0.034362264 0.09001286 -0.10484999 0.25432798 -0.14221804 0.21952605 -0.22839522 -0.017423395 0.12605803 -0.23802345 0.08475331 -0.12891774 0.20627613 0.19728436 -0.031466816 0.106021255 0.0696734 0.14642335 -0.17510532 0.22970763 0.053512085 -0.05659011 -0.2964073 -0.010593428 -0.0014260804 0.051343583 -0.28693202 0.37523088 -0.10327648 0.2715056 -0.04328231 0.20649172 0.24327444 0.009618476 -0.28065652 -0.24772409 -0.01735367 0.15204257 -0.1031007 -0.12429969 0.017826727 -0.37044728 0.2453514 -0.23836042 -0.18746173 0.02065323 -0.046352167 -0.006167512 0.19108337 -0.1357287 0.12020079 0.010418888 -0.14918096 0.06420109 -0.19068569 -0.21111393 -0.13138486 -0.068789065 0.50659865 -0.18286337 -0.09941981 -0.08639542 0.13566706 0.20606498 -0.02314124 -0.26373073 -0.21538463 -0.17252897 0.25703064 -0.016280401 0.22001223 0.18203022 0.13415827 -0.0890566 0.26413548 0.03634915 -0.26742914 -0.352868 0.27649245 0.16841777 0.15073311 0.059145305 -0.012533763 0.14377065 0.045646865 -0.3135988
GGGG 0.19487137 0.11530317 -0.19416116 0.053018816 0.23598793 0.2537098 0.099237844 0.0756632 0.32354602 0.118840605 -0.101540655 -0.06157901 0.025072085 -0.07067959 0.21448058 -0.11062791 -0.15889667 0.0074625467 -0.24112058 0.2836422 -0.085456766 0.051609803 -0.16057247 -0.23744379 0.12357741 0.013755801 -0.047908325 0.12393615 0.093332104 -0.08408845 -0.03348843 0.008511465 0.38189837 0.0041156183 0.23988688 -0.011794758 -0.27164283 0.13160215 -0.11641788 0.036426313 -0.17921911 0.0010471846 0.004461557 0.3180127 -0.07323955 -0.1246481 -0.12459632 0.15716219 -0.19624472 -0.043902136 0.01347462 -0.31381595 -0.16663289 0.0055609755 -0.011792276 0.19454913 -0.14573467 -0.06845099 -0.006824874 -0.16433114 0.012607597 -0.30094406 0.5193679 -0.00235336 0.18218818 0.08409737 -0.28470126 -0.2726796 -0.07932312 0.15054412 -0.07267057 0.10668648 0.19421476 -0.17488039 -0.21388684 -0.0060171084 -0.21784648 -0.0062460266 -0.15839604 0.15129086 -0.11595751 -0.22350644 -0.026413094 -0.04022684 -0.05102382 0.11447281 0.10168419 0.13196136 0.0781543 -0.27720505 -0.00877805 0.05749469 0.1383806 0.074338794 -0.24362007 0.08790233 -0.2555758 -0.08777406 -0.37420982 -0.029101076
TCCC -0.16163163 0.13101307 -0.25080594 -0.030637527 0.009357586 0.18220676 -0.26256478 0.14649536 0.23222663 0.1416238 0.0071000773 -0.087899804 0.05402995 0.2807276 -0.17681116 0.10527534 -0.18856828 -0.0055328785 0.059928026 0.5054218 -0.10561431 0.17763336 0.08105102 -0.1287751 0.44564575 -0.44879222 -0.03598729 -0.1881625 -0.27772042 -0.11432872 -0.20369755 -0.16874023 -0.09934428 0.11632739 -0.019791774 0.04706434 -0.10215499 -0.2659902 -0.14217265 0.48676318 -0.08117693 -0.030440217 -0.11509898 0.23111248 -0.17184868 0.27887106 0.12264313 -0.0050251232 -0.15515749 -0.12504406 0.12952247 -0.17755161 -0.11003131 -0.15945187 -0.17010228 -0.0021766797 0.10645776 0.0065939566 0.3684293 -0.2260855 -0.11273956 -0.06918036 -0.024744717 -0.19546181 -0.05335042 0.34227914 0.21326019 0.015902158 -0.096856974 0.30535445 0.116048135 0.22400053 0.3366338 -0.15987644 0.07694726 0.051918138 -0.028342247 0.09746709 -0.22214167 -0.08942742 -0.074115634 -0.31373742 0.3711324 0.10722567 -0.12675367 -0.08608827 0.18891332 -0.17904659 -0.06839572 0.10209206 0.041474946 -0.2985887 -0.09710535 -0.07099168 0.087320805 0.06156355 0.03841229 0.16340289 0.11346096 -0.14587939
GGGA 0.20417556 -0.11364832 -0.18070292 -0.09756318 0.3374245 0.19170356 0.100966 0.0031880462 0.24488655 0.0477406 0.017984355 -0.31431514 -0.050162595 0.03186291 0.38764304 0.05170313 -0.33263204 0.20291463 -0.18494235 0.28831393 0.1501644 0.1477892 -0.21927002 0.015267679 0.093669206 -0.22129108 0.03713669 0.29983404 -0.08744978 -0.09290296 -0.10725824 -0.03579263 0.43603 -0.0425756 0.10947807 0.00975072 -0.39784005 -0.065571204 -0.27507362 -0.20389198 -0.2101818 -0.04917155 0.12688497 0.10369806 -0.16673589 -0.11135082 0.22616987 0.11109393 -0.09701543 -0.09111977 0.050984036 -0.18496123 0.03456596 0.15807778 -0.10648194 0.031348817 -0.24716575 -0.014872029 -0.055455044 -0.25971168 0.41489214 -0.3238619 0.36740378 0.042362805 -0.012713415 -0.0050168755 -0.27329272 -0.18934724 0.2001182 0.2655989 -0.18777035 0.35564932 0.31294733 -0.10760486 0.036103096 0.056218874 -0.24549052 0.06712798 -0.18638478 0.3130335 -0.22060725 -0.1508864 0.003962879 0.28854728 -0.24064302 0.04904286 -0.05309435 -0.071308784 -0.0043174415 -0.08508859 -0.055487767 0.06907184 0.116189286 -0.012146556 -0.049271815 -0.055168618 -0.08341428 -0.2366269 -0.08391772 -0.19867538
TGTG 0.07994668 0.033235315 0.20899451 -0.052312776 0.21085496 0.004713584 -0.16368589 0.5843766 0.23143968 -0.039008513 -0.04131135 -0.1590897 -0.24991809 0.15974097 0.12024761 -0.015415697 -0.22117703 -0.07582207 -0.1362112 0.3796654 -0.11167973 -0.20219685 0.18893687 0.012046074 0.28029865 -0.13028906 0.06365571 0.15795253 -0.016186548 0.29440153 0.1253488 -0.009488249 0.103170365 -0.11241279 0.020524003 -0.050031014 -0.02297908 0.19057716 0.2231646 0.000522866 -0.18786734 -0.010140368 -0.0702597 0.16809583 -0.12569273 -0.0842537 0.19663304 -0.015449837 0.059216216 -0.24695764 -0.08053664 0.019152539 -0.118416384 0.12196067 -0.30842435 0.119511314 0.40725902 0.3663277 -0.025703453 0.20695458 0.015307349 0.19584028 0.07261974 -0.17859817 0.22786537 0.07785519 0.10781182 -0.0029365222 -0.2026809 0.32458156 -0.35498813 0.0027129776 0.09495047 -0.0156232575 -0.0145519115 -0.043310378 -0.17262718 -0.3863487 -0.16261856 -0.12869027 -0.18166459 -0.31029284 0.2652809 0.25692844 0.33387402 0.16224195 0.016763372 -0.25724384 -0.20043252 -0.28337514 -0.06290803 0.16519462 0.35089898 0.3534202 -0.060175292 -0.10985024 -0.08382121 -0.023671376 -0.27800635 -0.099371195
