1344 100
AAA -0.4015952 0.26555723 0.1907832 0.24352263 0.025149541 -0.18677184 -0.1815962 0.6788793 -0.40982407 0.15649122 -0.097565904 -0.3583006 -0.013890678 0.3006499 0.024039438 -0.61578393 -0.039230995 -0.22108293 -0.12910591 -0.5872203 -0.2526658 -0.1602099 0.027572174 -0.17753758 0.19121645 -0.3573755 -0.98392457 -0.42211765 -0.3515433 -0.14960635 0.03150974 0.051216315 -0.131902 -0.37269717 0.16236319 -0.28026274 0.38355786 -0.15896401 -0.022252697 -0.5609867 -0.3516493 0.48203447 -0.15033548 -0.19745073 -0.008809155 0.101957545 -0.5923674 0.034770932 0.41924572 0.24081472 -0.13480571 0.14589053 -0.12704436 0.33578232 0.109981045 -0.32539573 0.5120713 -0.07167692 -0.8154971 0.45950335 0.4053847 0.26309234 -0.18562658 0.035471454 -0.055333134 0.060384296 0.21977508 0.32518354 -0.061266616 0.12377328 0.15504807 0.20248418 0.31137356 -0.54847467 0.18547006 0.14711656 0.11010373 -0.122235276 0.32567158 -0.14258859 -0.2706545 -0.19144107 0.028973898 0.09646789 -0.06127439 0.08122207 0.23807134 0.5305211 0.54645365 0.54614484 0.350804 0.11287106 -0.1343941 0.36747834 0.24327624 0.592641 -0.2900459 0.13661611 0.007547193 -0.43190074
TTT -0.3508433 -0.26916635 0.29123557 0.0953901 0.29401606 -0.64355546 0.1427638 0.38250947 -0.5001187 0.30635688 -0.45543015 -0.697057 -0.16041054 -0.35681802 -0.096385114 0.17781502 0.35457692 -0.04233835 -0.14114763 -0.34748462 0.19442204 0.3156306 0.1261838 -0.37356922 0.10417746 -0.16063078 -0.12627816 -0.18827063 -0.3507599 -0.13121304 0.3662949 0.2633515 0.17136306 -0.23571667 -0.42777497 0.43429205 0.21492946 -0.07442597 0.11471118 -0.53575426 0.4755516 -0.45897922 -0.16526091 0.050783474 0.21341503 0.19020425 -0.17311493 -0.31089178 -0.18360622 0.3129852 0.3081107 -0.53831387 0.11927786 0.27738246 -0.2383226 -0.15226887 0.36654434 0.32831523 -0.5761331 -0.038361512 0.0010273436 0.24018203 -0.41516614 -0.50797 0.18472387 0.39452824 0.46933556 -0.2177762 -0.060068674 0.07880907 -0.7384367 0.007997839 0.30479217 0.17935617 0.23399873 -0.4909079 0.034932297 -0.03846788 -0.22842118 -0.19419053 -0.46269953 0.014147226 -0.35108346 -0.15042955 -0.3998777 -0.12138273 0.23458423 0.42315277 0.14957394 -0.057160035 -0.37152356 0.4826924 0.27034226 0.23308304 0.41734523 0.103616275 -0.06822452 -0.105857864 -0.050650526 -0.14151715
CAG 0.41357678 0.11739016 -0.13542645 0.061330095 -0.17526625 -0.15842815 -0.19405276 -0.0033312456 -0.4450591 0.16688256 -0.55718094 -0.11865638 0.6660656 0.13584197 0.45670995 -0.33076143 0.25615385 -0.2802572 -0.41789073 -0.41732314 0.04317395 -0.23651727 0.16156355 -0.29442564 0.042035792 -0.48590022 0.47146714 -0.4049403 0.20682187 -0.032224365 0.53814346 0.027356165 0.13288191 0.33295444 0.2311832 -0.006246986 -0.33138734 -0.038348213 -0.48971367 -0.42561382 0.28403926 0.00427389 0.07559547 -0.09166039 -0.578098 0.09258289 -0.37558955 -0.050310083 0.01961654 -0.3468466 0.019796386 -0.12872414 -0.41212046 -0.48799178 -1.001287 0.050104532 -0.06057689 -0.19523902 -0.32930815 0.04409272 0.50351167 0.23969123 0.19201794 -0.008989197 -0.64001304 0.3733256 0.75111645 0.44686806 -0.49090362 0.035523664 0.041187663 0.19374841 0.057786223 0.5485374 0.38620764 0.54923683 0.35337487 0.005003727 -0.48627472 0.16899121 0.06571233 -0.11613601 -0.683932 0.64593405 -0.21697484 -0.116960675 -0.016459836 -0.108820975 0.897253 0.16020827 0.69575423 0.39236522 0.16408366 -0.23678069 0.3001723 -0.14305334 0.002435429 0.18717754 0.1182531 -0.25176385
ATT -0.8388644 0.109222606 0.44399115 -0.026646782 0.07029916 -0.5292699 0.36575532 0.3088325 -0.38394174 0.49584165 0.014755859 -0.3504878 -0.45623115 -0.8933298 0.55349284 -0.38091397 0.3664957 -0.50039697 -0.076987766 -0.5881911 0.38055524 0.14200757 0.5335537 0.24926764 -0.15724324 0.12527172 0.08703649 -0.23039328 -0.29886746 -0.22639924 0.29372194 0.12297296 -0.1362475 -0.2942064 -0.31442562 0.43034223 0.4982295 -0.3014477 -0.3618821 -0.16064812 0.4538129 -0.27037564 0.16065909 0.30730906 0.25016153 0.41953433 -0.19516388 -0.08249591 -0.097099125 0.55411917 0.22269341 -0.29673412 -0.07411542 -0.21248186 -0.19599377 -0.20818928 0.25973323 0.64799285 -0.5414946 -0.01136976 0.04437876 0.633511 -0.1346675 -0.2098784 0.15680748 -0.15127744 0.31842017 0.49142906 -0.30638748 -0.07498155 -0.26600653 -0.122709006 0.36555704 -0.020987934 0.029996753 -0.37684 -0.2682188 -0.02395776 -0.25325403 -0.25549296 -0.51519847 0.014297955 -0.50956076 0.4047827 -0.60761094 0.07518929 0.28250226 0.54128087 0.0492731 -0.31624144 -0.058758657 -0.025414584 0.07945672 0.10830058 0.20498739 -0.0022085204 -0.2670397 -0.03753559 0.23595703 -0.60861135
AAT -0.41641355 0.3791852 -0.14511454 0.6150918 0.08283825 0.082199655 0.16621862 0.21067609 -0.4184161 0.5489777 -0.5617661 -0.07379545 -0.4474726 0.103262775 -0.47060058 -0.33792633 0.14939803 -0.34978652 0.5247516 -0.6171425 0.19207506 -0.03348574 0.40374142 0.3842486 0.12504637 0.09725925 -0.55136347 -0.28658742 -0.40122914 0.09043604 -0.18789715 0.26270467 -0.20850405 -0.6877263 -0.054942247 0.31243026 -0.17914109 -0.054338273 0.25793064 -0.20512179 0.23417552 -0.4776921 -0.3549843 0.2590526 0.7754185 0.1607639 -0.30540836 -0.0397115 0.20902322 0.13772257 0.07997425 0.27140385 0.39269364 0.16132058 -0.031893924 -0.092415705 -0.16546485 0.16942865 -0.57810885 -0.3576051 0.22116898 -0.76408017 -0.6096563 -0.4707458 -0.3477402 -0.12518522 0.049296465 0.17620803 -0.49620146 0.50741434 -0.14500774 0.2565257 0.24614935 0.20637833 0.6178007 -0.116733946 -0.19299488 0.16291322 -0.12600519 -0.55853885 -0.6363182 -0.36104983 0.030905822 -0.45531937 -0.36788973 -0.7801684 0.319822 0.7582435 0.3302481 0.12261269 0.331363 -0.17181306 -0.12512271 -0.26580974 0.56036294 0.33937427 0.008592808 -0.13852216 -0.33034983 -0.23504816
TCT -0.3711726 0.25167596 -0.17405021 -0.22456166 -0.18402806 -0.30972502 0.4446027 0.2256368 -0.256526 -0.22052325 -0.4067041 -0.54293305 -0.014171668 -0.20496662 0.022292545 -0.51449716 -0.06810303 -0.31091917 0.14566323 -0.1824315 0.023739396 0.10516577 0.036065605 0.040539835 -0.37078524 -0.04666473 0.018411959 -0.67571414 0.07571511 -0.009000891 0.5050039 -0.23927124 -0.044873364 0.0013769593 -0.26935485 0.22305588 0.42442688 0.2768161 0.28066412 -0.711424 0.5016232 -0.606977 0.24046803 -0.025151737 0.26077026 0.19388448 0.025261682 0.44316375 -0.4956257 0.15873319 -0.2090806 -0.51184314 0.31653696 0.528633 -0.051619392 0.4428289 0.5409272 -0.16083252 -0.630649 -0.38336664 -0.037607234 0.024247887 -0.19613543 -0.15568401 0.32963943 0.039892793 0.12939811 0.21110702 0.06276555 0.2198988 -0.1769157 0.17697488 0.24194734 0.2793663 -0.41008094 -0.041669853 -0.4147334 -0.10064991 -0.75596076 -0.026655907 0.32627296 -0.083192065 -0.2997483 -0.13243131 0.1440345 -0.36466053 -0.17188771 0.56890714 0.045376655 -0.41727418 0.16438839 0.3035401 -0.0036658088 0.0276905 0.8540223 0.13605592 -0.062231515 -0.5348602 0.057835683 0.08946573
AGA 0.0053193183 -0.06748896 -0.014007721 0.14746131 -0.32489195 -0.1391569 -0.110708505 0.26141313 -0.15479426 -0.064228706 0.12719578 -0.45319828 -0.158101 0.8145486 -0.031602263 -0.28872776 0.0706306 -0.16626963 -0.06774769 -0.88690114 0.35638118 0.08437503 0.16711167 -0.18430167 -0.34856033 0.2378146 -0.638537 -0.2802895 -0.39562547 0.2478734 0.255706 0.3886966 -0.105469726 -0.17861862 -0.35515717 0.07415658 -0.14946227 -0.28945786 -0.4458791 -0.90675706 -0.41246572 0.39126685 0.44901338 -0.030223336 -0.09447618 -0.04074406 -0.3047297 0.030638544 0.27721676 -0.1576475 0.28611037 -0.26239222 -0.37312207 0.19455126 -0.3042805 -0.561923 0.14962389 -0.17596419 -0.5801915 -0.37805077 -0.15096566 0.041079137 -0.004395928 -0.08647945 0.061300978 0.1900123 -0.016542263 0.40749714 -0.54954636 -0.18797217 -0.0012922778 0.27620205 -0.029040903 -0.108163826 0.89580494 0.086117014 -0.44427857 0.4553603 0.00066768966 -0.17382501 0.1352317 -0.035002902 -0.4675504 0.20165953 0.049130153 0.07504423 0.20740727 0.075139016 0.2395362 0.14110574 0.54308325 0.20131418 -0.60486305 0.05050577 0.06233818 0.29508922 0.11529321 0.45029047 0.17767984 0.4044299
CTG 0.4843181 -0.39538953 0.47369093 0.35262612 -0.34943143 -0.27585137 -0.038669813 0.20629317 -0.2675888 -0.6025667 -0.6142551 -0.33928317 0.47045898 0.33335263 -0.3427936 0.31534898 0.34717542 -0.31539413 -0.4884679 0.09995042 0.4503011 0.722817 0.070595406 -0.24693343 0.046451475 0.32201776 -0.30451995 0.12940687 -0.10259928 0.15627488 -0.4460336 0.11471572 -0.31557292 -0.5894327 -0.21027902 0.34246057 -0.08481941 -0.46190226 -0.7857725 -0.054062013 0.44062158 -0.3968338 -0.2109944 0.07627849 0.44068995 -0.27222925 -0.36965784 0.2662223 0.0112849185 0.5663019 -0.31430364 -0.12776905 0.09782703 -0.14286065 -0.49580428 0.48982462 -0.018290002 -0.33972275 0.0852356 0.14186628 -0.042439394 -0.49044627 0.32938427 0.29888076 0.032729987 0.18008992 0.1435206 0.31190258 -0.2366231 0.018680163 -0.16646844 0.21856555 0.2825737 0.11358444 0.14364062 0.35317922 -0.19218333 -0.28421196 -0.8476321 0.38212875 -0.20510933 0.2360915 -0.46219766 0.26327592 0.012316246 -0.0010908953 -0.0042615267 0.8306345 0.4722233 -0.0703209 0.23034051 -0.3063153 0.13736841 0.7982132 0.22280657 0.18351416 0.086866245 -0.38408822 0.040496286 -0.540456
TGT -0.20633978 0.12665747 0.0467394 0.65485877 0.41821614 -0.13912322 0.44830203 0.30166376 -0.41259736 0.49774596 -0.32685083 -0.54927504 0.42749748 0.016072985 0.1794087 -0.30850202 -0.015042287 0.07711847 -0.86723447 -0.63726056 0.2947445 0.44262967 0.124896556 -0.5338364 -0.026414497 -0.10665608 -0.068469286 -0.3287113 -0.09245954 -0.07218608 0.08052932 -0.0597584 -0.42302835 -0.13367626 -0.19082448 0.5936947 0.012383733 0.051019855 0.16054466 -0.06183945 0.09473283 -0.288904 -0.023424704 -0.42236754 0.49495086 0.0050262287 -0.1942844 -0.2732597 -0.16342233 -0.0075668385 0.44601527 -0.50160307 0.1049232 -0.114833094 0.030263755 0.21125725 0.27864814 -0.067104116 0.13914217 -0.18817344 -0.14168279 -0.22173162 -0.04349657 0.12973864 -0.4070772 0.21380225 -0.13705087 0.57556534 -0.30450338 0.22598213 -0.656579 -0.44783667 0.46952388 0.51748306 -0.15149193 -0.44638774 -0.10552214 0.016152104 -0.17782377 -0.11818644 -0.3623022 -0.550821 -0.09470804 -0.14078103 0.42651278 -0.22412187 -0.13521819 -0.025881477 0.22603236 -0.21779121 -0.11098637 0.49474144 0.25506502 0.43623495 0.91934794 0.69466454 0.3047027 0.08417167 0.12633057 -0.3710892
CTT -0.1762726 -0.53509814 0.37010953 0.48579648 -0.077904254 -0.4574325 0.31360704 0.20552449 -0.2786615 0.45035636 -0.18670198 -0.17883435 -0.53741187 -0.6905338 0.38034168 0.42301998 0.33978027 -0.52322733 0.24814099 -0.18920054 0.53468347 0.4428375 0.3327414 -0.3586309 0.098828085 -0.22489725 -0.40489706 -0.1860792 -0.49167013 -0.232952 0.7578746 -0.3092481 -0.3064473 0.384499 -0.50168806 0.2524505 0.28558972 0.06034631 0.011897402 -0.035838034 0.14037612 -0.5510519 -0.52797425 -0.13900465 0.16311379 0.050507776 -0.3800381 -0.015998943 -0.42062074 0.5250124 0.62590796 -0.19745521 0.16444437 -0.03622469 -0.054988306 -0.2585391 0.13854767 -0.030094787 -0.51051164 -0.5728159 -0.059131812 0.0030490248 0.056274872 -0.39227286 0.065873235 0.1869955 0.19321938 0.10419495 -0.52098346 -0.13997865 -0.3161822 0.31821358 0.12949996 -0.52874875 0.32262054 -0.30328074 -0.13731222 0.01140817 0.31655806 0.20404297 -0.5282598 0.13289376 -0.2589194 0.5045635 -0.23056698 -0.43132886 -0.041625813 0.38835263 0.42192084 -0.32800102 -0.10141778 0.17814088 0.4380534 0.51680094 0.8256764 -0.092916645 -0.43197462 -0.11396507 0.44471538 -0.34609884
GAA -0.4038975 -0.045032687 0.23588684 -0.39598027 -0.31169873 -0.26866105 -0.1854847 0.78812486 -0.49233088 0.19362456 0.44567674 -0.33769637 0.18539877 0.3979332 0.16600892 0.037195653 0.005059924 -0.74133366 0.22990906 -1.4227011 -0.5195478 -0.007278771 0.23650852 -0.24697393 -0.18394008 0.05664936 -0.8702991 -0.43619895 0.31798318 0.21051317 0.014118854 0.4052446 0.2520838 -0.1191367 0.3819712 0.06460309 0.2090337 -0.22749394 -0.08148436 -0.49821994 -0.56484044 0.16574334 -0.35400674 -0.05348614 0.14303145 -0.12572071 -0.48407945 -0.47052675 0.019110043 0.12668361 0.16343787 -0.009771021 -0.36308068 0.69916797 0.062670484 -0.045251414 -0.17509052 -0.14204462 -0.5272827 0.4804207 0.17892882 -0.22449291 -0.2238588 0.4131703 -0.31172952 0.16266339 0.12234246 0.18910754 -0.0732872 0.26312783 0.041562535 0.20504212 0.19319941 0.17988253 -0.08537426 0.15434055 0.2851692 -0.61404335 0.32235056 0.17083119 0.12301381 -0.20877065 0.15246667 0.43947393 -0.28439072 -0.27443394 -0.017605256 0.6449664 0.010610795 0.34239477 0.4137738 -0.09944465 -0.42864162 0.44938567 0.1891543 0.23713721 0.14031926 -0.13387635 -0.03697162 -0.065928996
AAG 0.20022444 0.57252437 0.05067521 0.19806297 -0.4158925 -0.1878982 -0.15495054 0.27106658 -0.37262323 -0.15466617 -0.863657 0.052618157 0.010179423 -0.16464092 0.14555995 -0.5466316 -0.05325023 -0.9046845 -0.10440159 -0.3079719 -0.24655128 -0.23377952 -0.049232915 -0.5192869 -0.5111112 -0.7378932 0.19862239 0.37033555 -0.23411098 0.035705913 -0.0334174 -0.32906452 -0.11111948 -0.49740842 0.28743827 -0.007160186 -0.34061816 -0.43445203 -0.33343986 -0.41746297 -0.010126508 -0.032924067 0.14765337 0.14797474 -0.3115359 0.2500521 0.12848099 -0.08489979 0.14892468 -0.08995929 0.019472469 -0.620591 0.1988524 0.29530698 -0.80317587 -0.2215765 -0.073110215 0.30304322 -0.1660031 0.058977343 0.67166597 0.33553648 0.16558383 0.038181026 -0.5504914 0.55311185 0.21851496 0.5274887 -0.6521776 0.41875452 0.12423167 0.47242773 -0.28627476 0.3027585 0.2586267 0.62881076 -0.068569854 0.365951 -0.027893834 0.18718874 -0.2945572 0.330959 -0.25882876 0.24531826 0.46770075 0.17175476 0.10988376 -0.087485105 0.5256586 0.17640243 0.63742787 0.037574552 -0.48510632 0.48442164 0.48738438 0.069651656 0.2845881 0.513021 -0.09777809 -0.80689824
AGG -0.32613218 0.072349206 0.55068517 -0.42495185 0.045050394 -0.0034770977 -0.049572743 0.46607026 0.33775407 -0.31155977 -0.14659497 -0.6617766 0.78028154 0.027207594 -0.17719588 -0.22621599 0.18349558 -0.035932023 0.02061381 -0.2868081 0.17737871 -0.16820502 -0.44137093 0.22263855 -0.46792775 0.419741 -0.13417645 0.10669406 -0.07988854 0.51214194 -0.07126685 -0.1525271 -0.22226825 -0.27128664 -0.24106418 0.0299185 -0.45761663 -0.16314095 -0.3256103 -0.57092804 0.11906878 0.09131967 -0.21529666 0.17853041 -0.22476646 0.0058113113 0.13292252 -0.07304088 -0.14138924 -0.07704909 0.20768023 -0.14727235 -0.33675942 -0.062852815 0.20383677 -0.2603924 -0.23082921 0.29158062 -0.16722742 0.37554136 -0.15294239 -0.22469899 0.39296028 -0.083671734 -0.41480282 0.30801973 0.7522365 -0.014705581 -0.80269927 0.21105263 0.23095167 0.27702737 0.20835781 -0.41269538 0.64657885 0.85342866 0.028793897 -0.19035871 -0.5180362 -0.109180406 -0.2857009 0.3201666 -0.08705669 0.63842815 -0.35408607 0.25757807 0.26721025 0.16697201 -0.039903563 0.106569916 0.56521803 0.12691627 0.24291277 -0.092969 0.9289017 0.42668435 0.30133662 -0.012761311 0.6272105 -0.76654375
ACA -0.64644575 0.0032521854 -0.09326525 -0.06023761 0.16715845 -0.19284838 -0.7028902 0.555041 -0.38108104 0.1343951 -0.30453667 -0.2085009 -0.4487376 0.11601028 0.5202349 -0.24501696 0.07452796 0.05932015 -0.24566568 -0.13201253 0.07929279 -0.20625763 -0.006361938 -0.0054132114 0.16120493 0.40511042 -0.7791679 -0.17647162 0.016060242 -0.4423834 0.233986 0.47931167 0.4230454 -0.4960733 0.32999608 -0.13435991 -0.18148817 0.07326663 -0.036559254 -0.30579463 -0.43800128 -0.067224905 -0.24306537 -0.11350244 -0.22254276 -0.20418702 0.003768696 0.08702074 0.81727636 -0.007482065 0.15062007 -0.15747778 0.3022151 -0.026593477 -0.1880228 0.31803265 0.19671331 0.35753903 -0.0067677614 0.1398967 0.6287869 0.46186274 0.21063176 -0.068329275 -0.238187 -0.06453263 0.06279819 0.5227911 -0.005079649 0.5065765 -0.40807006 -0.09101506 0.0019893234 -0.5041466 0.84974843 0.39279464 0.15344824 -0.13337265 0.016770506 -0.33862785 -0.012579153 -0.25915462 -0.27774125 0.4687833 0.08779518 -0.07184892 -0.012538853 0.42151195 0.124412164 -0.30311784 0.8133544 0.018538661 0.049342196 0.30564147 0.17216004 0.36462024 0.1540215 -0.21578936 -0.06900393 0.2960009
CCT 0.071525104 0.7108889 0.15721625 -0.043970432 -0.3002325 -0.3323922 0.54622924 0.4802153 0.04546021 -0.44506848 -0.24247847 -0.8068028 -0.7130848 0.06932904 -0.40151808 0.21418315 -0.121228755 -0.618602 0.46645287 0.25739455 0.11421674 0.41734377 0.07857435 -0.0768041 -0.35304597 -0.08328535 0.14922704 -0.86850005 0.00062537694 0.07447366 0.23744728 -0.13176858 -0.33586872 0.06442406 -0.17713407 0.09635536 0.47163182 0.33885175 0.04593903 -0.38544533 0.41519096 -0.1294235 -0.19876255 0.22228225 0.27405578 0.21532787 -0.531367 -0.15900166 -0.12691832 0.36916807 0.42902023 -0.19146532 0.070604235 -0.062393367 -0.1456904 0.30194983 0.6761173 -0.14350702 0.049439233 -0.45316532 -0.24298403 -0.23243004 -0.7119631 0.008850121 0.16349414 -0.09347148 0.32216167 0.20669596 0.26405984 0.51088023 -0.20996091 -0.22433454 0.74396634 0.14518413 -0.09854487 -0.15350898 0.13402256 0.052104164 -0.55023843 0.26577306 -0.06156168 -0.15730746 -0.28827167 0.41560853 -0.19913763 0.15815699 0.40580377 0.5225009 0.12685017 -0.7580934 0.08739979 0.6929411 0.43359295 -0.18217076 0.66231745 -0.3193556 -0.01769987 0.040076714 -0.022975767 -0.11990556
TTC -0.0037426758 0.5720746 0.25262636 -0.3714435 0.025420368 -0.43997145 0.23136947 0.21041965 -0.109138176 0.760745 -0.4482495 -0.32523164 -0.55872667 0.08566923 -0.31340453 -0.3754687 -0.4237527 -0.27366397 -0.25216323 -0.4655287 0.31355166 0.28101945 -0.38295096 -0.068196245 0.10739664 -0.18974453 -0.011511605 -0.23812741 -0.13572024 -0.4845444 0.1825256 0.0020766181 0.49482593 0.39381844 -0.098516256 0.7661576 0.47158244 -0.35204023 -0.042209335 -0.10445638 0.037050337 -0.65853274 -0.66768384 0.37953407 0.055056814 -0.4919682 -0.28087243 -0.15568747 0.00895501 0.07406544 -0.5054553 -0.19073929 0.4782073 0.10875248 -0.085475095 0.24121113 0.19877703 0.15040432 0.08534022 0.23579697 0.41536072 -0.23668268 -0.29100192 -0.054981545 0.46271437 0.24644777 0.3360293 0.30673975 -0.27287155 0.15565154 -0.9522429 0.14945488 0.2407095 -0.4064491 0.13910705 0.31182292 -0.72435105 -0.24311487 -0.22245203 0.09520102 0.3828917 -0.38360363 -0.83505046 0.5574201 0.06894414 0.6730018 0.13737145 0.16612679 0.3093902 0.20675781 -0.0798481 0.46280304 -0.05816873 -0.4276356 -0.011858352 0.08253244 0.019483916 -0.14905572 0.29778302 0.10515422
CCA -0.10688352 0.091199756 -0.14041565 0.10013356 0.3537972 0.054271847 -0.32243046 0.9394198 -0.21115735 -0.051407572 -0.4675052 -0.43536183 -0.5886558 0.9177004 0.11451818 -0.18997185 -0.22968775 0.18956435 -0.20247847 -0.1671527 -0.37383923 -0.21374191 0.38430256 0.17377305 0.41731998 0.8157504 -0.057413515 -0.20201918 -0.0870547 -0.153747 0.17461078 0.104919344 0.32455656 -0.009932064 0.35389343 -0.048218265 0.061219458 -0.3793143 -0.05280428 -0.29647413 -0.7209333 -0.29621932 -0.5401784 0.029325625 0.45187992 0.1583356 -0.3712074 -0.18125454 0.5906602 0.38961297 0.2554354 -0.49969718 -0.012384609 0.12278099 -0.3286787 0.05099783 -0.51372164 -0.12976432 -0.20749821 0.31491303 0.4235858 0.4208937 0.36196092 0.068679124 -0.52887255 -0.008447607 -0.24330465 0.4504843 -0.23741965 0.18221895 0.1067016 0.16408272 -0.041621212 -0.81811416 0.055958234 0.10046507 -0.17564897 0.35179803 0.015307492 0.012654868 0.34761527 -0.5949791 -0.40117016 0.85344476 -0.41673967 -0.09907767 0.15635836 -0.16089019 0.049006026 0.30704945 0.59186816 0.37109116 0.20249861 0.6452083 0.30009595 0.03372007 -0.011290875 -0.111654304 -0.27304062 -0.10542569
TGG 0.14551298 0.38606253 0.5234914 0.06523887 0.25111693 -0.3407332 0.26039484 0.3671275 0.14918919 -0.08453672 0.2705646 -0.46328065 0.8321938 -0.08159522 -0.14783217 -0.47514233 0.22068366 -0.5135707 -0.09621028 -0.7615463 0.1591374 -0.081283025 -0.35050565 -0.14964637 -0.010522365 0.15563801 -0.1249242 0.066865236 0.32132432 0.20888497 -0.33438772 0.25388852 -0.41882476 -0.31652638 -0.018134236 0.36226907 -0.7809779 -0.34091398 0.44112548 -0.4253242 0.35885802 -0.566971 0.27624077 -0.0832246 0.021646993 0.15129328 -0.08623292 -0.24333125 -0.019325156 -0.16524155 0.44317228 0.046270546 0.0051559038 0.22125188 0.108298466 0.3616396 -0.46691665 0.16826248 -0.22177304 0.46392694 -0.423434 -0.09665377 0.16189429 -0.082491264 -0.14355648 0.06916444 0.56021136 0.060144957 0.19898139 -0.25238627 0.017087542 0.14380889 0.11660649 -0.42528623 0.8328315 0.4766236 0.11334612 0.20421906 -0.49302557 0.39730814 -0.2849939 0.31117925 -0.06557649 0.7117064 0.2838789 0.32674325 0.31412074 0.23669632 0.77266425 -0.22389556 0.32576597 0.3847614 0.5688889 -0.053739853 0.47724822 0.021081228 0.47912657 -0.18092145 0.5490959 -0.69827133
TCA -0.047708932 -0.21714106 -0.5178106 -0.07207841 0.1500458 -0.037470274 0.06739405 0.6570486 -0.51045454 -0.123243116 -0.47181448 -0.4801143 -0.44034544 0.4182751 -0.16154593 -0.014207849 -0.036798056 0.21684459 0.16263802 -0.4032026 -0.11796258 -0.3352927 -0.0626614 -0.135067 0.26180047 0.15940553 -0.65086687 -0.050444823 0.3261577 -0.046748016 0.70238984 0.63994086 -0.05136371 -0.14495401 0.035392888 -0.006513339 0.40305534 0.13644722 0.04458879 -0.33148077 -0.2582897 -0.26249412 0.1731359 0.3234462 -0.04011348 0.029691476 -0.61539847 0.068514675 0.65985477 0.057057504 -0.43368548 -0.2941531 0.04937624 0.24707288 -0.04419832 0.042089507 -0.19796331 0.18975785 0.19189976 0.3665438 0.8888792 0.6847101 0.51232654 0.4009586 -0.50724304 0.51545215 -0.083590485 0.44705233 -0.3718392 -0.15776442 -0.047160476 0.08626996 0.411731 -0.5860705 0.5460223 -0.14675443 -0.2939746 0.20033658 -0.04991134 -0.07877705 -0.15643553 -0.24819471 -0.03445803 0.5071843 -0.19376667 -0.2265407 0.49982673 0.22139397 -0.009052768 -0.31044763 0.35019857 0.088544205 0.58989376 0.48258585 0.3110045 0.2933929 0.3932601 -0.31436187 -0.30248523 0.021572558
TGA 0.4113308 0.22794257 0.28871545 0.25484762 0.30281815 -0.10149717 0.32823873 -0.047238026 -0.21918708 -0.192108 0.05107739 -0.20585625 0.19803482 0.6917231 0.0028561768 -0.25880334 0.3440525 -0.7105759 -0.056651473 -0.97022104 0.17940134 0.22363707 -0.20958243 0.13419265 0.18622419 -0.12442616 -0.15258196 -0.60442513 -0.11045521 -0.0015237279 -0.22387226 0.32428014 0.30551836 0.05160363 -0.08798703 -0.019807203 0.079270065 -0.30091953 -0.2752441 -0.8222921 -0.049056735 0.04949847 0.47191468 0.5904655 -0.055996977 0.120435335 -0.349745 -0.3874826 0.49339598 0.083285935 0.08175215 -0.30022034 -0.79695344 0.2728313 -0.38646072 0.33623093 0.052241266 -0.008029023 -0.50437623 -0.10362204 0.13825986 0.041709486 0.04122896 0.08733206 -0.5343041 0.2592089 0.017455183 0.22441342 -0.42433694 -0.14627568 -0.5411714 0.526017 0.3029363 -0.71418774 0.354188 -0.3440526 0.22844532 0.15774694 -0.020362625 0.060961235 -0.28537533 0.02846646 -0.20037547 0.04175212 0.4957595 -0.08226548 0.14950095 0.21480335 -0.10369314 -0.20771146 0.5897701 0.33723882 -0.6326817 0.76969653 0.0012973325 -0.1428008 -0.47713727 0.7318408 0.18423267 0.4907936
TTA -0.15307254 0.15227921 0.024560882 -0.03782753 0.5077691 0.50741374 -0.30890733 0.7271065 -0.13393621 0.25496325 -0.09585947 -0.4978417 -0.007802386 0.3675517 0.34231496 -0.33140767 0.29000854 -0.27140835 -0.5876116 -0.75603896 0.06690497 -0.022492828 -0.2242798 0.19638504 0.110270984 -0.44542572 -0.44255683 -0.818614 -0.5398972 0.6575851 0.5737465 -0.15919946 0.1878649 -0.21139358 -0.5393373 0.45814255 0.23222665 0.363553 -0.32494262 -0.0044056536 -0.5237661 -0.4559294 0.067190126 0.11802192 0.35087526 -0.34136358 -0.5153547 -0.46487072 -0.19566977 0.45684463 -0.014548959 -0.034802962 0.32927498 0.31396696 -0.3120002 -0.1834916 0.350845 0.33695653 -0.7207017 -0.28854305 0.63491267 0.48393732 -0.34200376 -0.5865606 -0.7528881 -0.025581546 0.2329184 -0.19614749 -0.12907448 -0.08343478 0.25321615 0.26674846 0.112405755 -0.1833399 0.33754236 -0.09222087 0.38573593 -0.14837006 0.017415788 0.12848838 -0.18150757 0.20222743 0.12338657 -0.045231238 0.0054909675 0.62949616 0.0122594815 -0.1040748 0.15307629 0.27921787 0.27029133 -0.051239025 -0.019720297 0.20644207 0.36863086 0.1424022 -0.20314226 -0.5656794 -0.37989226 0.1675499
TAA -0.2265779 0.33860633 0.14909749 0.064550795 -0.07815672 -0.047347542 -0.17699468 0.47288248 -0.6209107 -0.037649617 -0.022183288 -0.53985405 0.10654783 -0.08727383 -0.17758958 -0.42870212 -0.04346372 -0.4167493 -0.21186565 -0.77579004 -0.78654844 0.3383624 0.083030425 -0.23604731 0.46829703 0.15403202 -0.75927633 -0.434894 -0.27201498 0.2277699 0.43921694 0.035744283 0.31052536 -0.08774185 0.15640824 -0.28177464 0.13069595 -0.32351005 0.27753854 -0.7656347 -0.2505651 -0.021877898 0.1630661 -0.36154303 -0.06812775 -0.062751256 0.112210825 -0.33439454 -0.44596142 0.60078615 0.24448371 -0.3183693 -0.312318 0.65755063 0.18484475 -0.3579858 0.33835948 -0.08803745 -0.28395158 0.25984997 0.5158926 -0.030508794 0.15608524 0.23919581 -0.23859082 -0.3327428 0.8789162 0.353195 -0.06366669 0.52818066 -0.12803718 0.10371927 0.72603697 -0.16149725 -0.082386374 -0.25409546 -0.10116106 0.017348273 0.41497657 0.24504334 -0.26110932 -0.06052687 0.042840607 0.34903526 -0.4256395 0.09404924 0.033052947 0.6060779 0.50754386 0.18397474 0.6803066 -0.27240273 -0.4551611 0.26513234 -0.26574627 0.68494433 -0.055338886 0.32762477 -0.60597694 0.18968695
TTG -0.19386294 0.0071175 -0.02625096 0.45816112 -0.28268227 -0.2942377 -0.22528312 0.23560092 -0.46352687 -0.8107499 -0.8459205 -0.30819657 0.7530139 0.14244355 0.1719133 -0.07180689 -0.10696837 -0.36291778 0.16923834 -0.3308929 0.19694924 0.7216055 -0.15894751 0.021333696 0.61222494 -0.180805 -0.18018514 0.09380991 0.057400703 0.068605565 -0.34300473 0.47928688 -0.6028067 -0.57139814 -0.3132435 0.64828503 0.24396273 -0.68200827 -0.8579681 -0.22515793 0.013465882 -0.8218199 0.009309298 0.019681893 -0.024647811 0.2206714 -0.2119489 -0.21571463 -0.277111 0.45858678 0.38280895 0.17518237 -0.10258411 -0.012768973 0.16084574 0.35876438 0.120402254 0.096838005 -0.27525797 -0.0658074 -0.41425702 -0.11240442 0.053139977 0.22429311 0.46721065 0.09368305 0.24922344 0.06111077 -0.44521827 0.40958193 -0.37036097 0.5985001 -0.1036676 0.324929 0.5602116 -0.13547911 -0.56919205 -0.37726575 -0.47126326 0.43168896 -0.45826215 0.05946116 -0.105744414 0.12062504 -0.30284056 0.5151878 -0.2623576 0.18965882 0.28645784 0.128604 -0.0032928432 0.03533947 0.21151188 0.13708602 0.697904 0.07463573 0.28512365 -0.39077604 -0.15781893 -0.15226935
GAG 0.12893528 -0.021158801 0.2983377 0.09492222 -0.25619343 -0.080204114 0.237549 0.46695304 -0.25225073 -0.28611815 -0.3906535 -0.10446271 0.06732017 0.31071037 0.093282975 -0.50892633 -0.030301657 -0.51027346 0.022792103 -0.38245684 0.058447648 -0.18763947 0.0518576 -0.7759357 -0.36934707 0.013844503 -0.16297129 -0.2704692 -0.15566726 0.017150596 0.30130732 -0.16272041 -0.41166338 -0.3878479 0.39252925 0.15421705 0.14485233 -0.50480664 -0.5082875 -0.018392432 0.40529352 0.21268806 0.37979072 -0.14066452 -0.3021151 -0.29128453 -0.18576442 -0.123061314 0.23166111 -0.3355851 0.269132 -0.36516652 0.20397304 0.17263606 -0.68587255 0.41330191 0.02328678 0.02930581 -0.31290078 -0.08158297 0.2551305 0.19005749 0.42173254 0.31698567 -0.31587753 0.65322775 0.25221622 0.026424007 -0.21138367 0.49810928 0.18353377 0.3757962 -0.22556752 0.048267283 0.87370753 0.3076423 0.6255279 -0.0017140815 -0.10454445 0.4519703 -0.32284594 0.062158823 -0.6041215 0.37219802 -0.1731126 -0.16835886 0.05996063 0.019495169 0.18503885 0.4215148 0.40102744 0.14880465 -0.48611033 0.0063424036 0.29923686 0.34185624 0.3852798 0.22428012 0.31602427 -0.28901494
CAA -0.20655097 0.001096067 0.29799348 -0.09442184 -0.6561059 -0.31644607 0.13982272 0.5433328 -0.4570747 0.19534552 -0.37870246 -0.09218851 0.0042432314 0.31082916 -0.33089286 -0.013771267 -0.12129451 -0.4724123 -0.5718051 -0.80619055 -0.74791616 0.44450715 0.013589873 0.3298734 -0.1919875 -0.46883932 -0.5025334 -0.45684633 -0.01595934 0.021282764 0.3215588 0.5322129 -0.04673848 0.05872303 0.21689458 -0.3631326 0.22098951 -0.676447 0.33421826 -0.2478134 -0.68234926 -0.032513544 0.2260108 -0.32273623 0.49127677 -0.06600104 -0.08869605 -0.0900326 0.423458 0.38110828 0.06258221 0.57907337 -0.3685928 0.44784555 -0.076911025 -0.24702577 -0.033052355 0.18598577 -0.6602022 0.31504437 0.9213645 0.2053158 -0.32993716 0.033164088 -0.17042236 0.05827861 0.50037766 0.17098048 -0.24532704 0.4945228 0.3277833 0.096697375 0.48870963 0.0027617349 -0.034969695 0.09335633 -0.029273083 0.097607 0.5352204 -0.16044134 0.07565884 -0.08260011 -0.1062936 0.75856966 -0.082863934 -0.105687276 0.19269827 0.5891417 0.32366002 0.33766022 0.31860042 0.007881115 -0.09400732 0.026117798 0.395376 0.052348513 0.4283754 0.071811564 0.10978018 0.12870866
CTC 0.10488903 0.5164662 0.2525382 -0.3393258 0.037517328 -0.703935 0.14547981 0.39188674 -0.028468885 0.231222 -0.51787215 -0.0032907417 -0.16486219 0.05850193 -0.12938613 0.036178447 0.15123996 0.19273949 0.17187342 -0.53546524 0.17446882 0.24823512 -0.29002187 -0.052351184 -0.05909641 0.013867451 -0.2790173 -0.2349048 -0.30689642 -0.48980007 0.5077437 -0.1406527 0.141646 0.0382362 -0.002468391 0.5409193 0.31991717 0.11103754 0.5302955 -0.5786687 -0.090335146 -0.43543774 -0.023024248 -0.19882278 0.19767757 -0.31231943 0.027856374 0.1066342 0.07036701 -0.023881786 -0.2593434 -0.6475095 0.48251003 -0.41188002 -0.064735904 0.11193127 -0.03609637 -0.33506656 -0.3473902 -0.27014294 0.25637877 -0.31987107 -0.13294604 0.2003806 0.18164395 0.17003582 0.13514516 0.19761518 -0.66287535 0.18951875 -0.54354423 -0.15507117 0.20086968 -0.42639697 -0.06101496 0.38480964 -0.36759156 0.121901646 -0.40283123 0.2647429 1.0098358 0.21864054 -0.52322006 0.63966805 0.1647693 0.010111342 0.16352604 0.6699579 0.35234702 0.10829095 -0.23072648 0.2285027 0.42640254 0.051627405 0.275316 0.12746653 -0.5400315 0.1915504 0.056840874 -0.027368305
ATA -0.4994102 0.48347646 0.047796816 0.38392496 0.34234166 0.0104439445 -0.033494763 0.79484046 -0.771221 0.24503438 -0.056142278 -0.31306234 -0.13567525 0.11380831 -0.26761687 -0.23260415 0.41825882 -0.12384181 -0.38934448 -0.62531364 0.07029257 -0.2732413 0.17016608 -0.29361993 -0.30114236 -0.457237 -0.75427204 -0.3074175 -0.16388601 0.11312946 -0.10636221 0.20486055 0.3835355 0.20524466 -0.6453447 0.2867058 -0.123332895 0.08510221 -0.30673963 -0.38703915 -0.04027556 0.35856768 -0.045560032 -0.017408594 0.25987932 -0.10531351 0.07098646 -0.2024925 0.49466023 0.294313 -0.01189907 0.16179733 0.2266928 0.32326272 -0.317792 -0.21549606 0.7995436 -0.017514944 -0.39795655 -0.22701086 -0.077852346 0.74756926 -0.3515479 -0.17907888 -0.85184485 0.020605503 0.007185076 -0.2239672 -0.21877739 0.28511524 0.045475405 0.031939026 -0.108629175 -0.35955092 -0.000521794 -0.4930591 0.18432401 0.25069553 -0.119412325 -0.33757168 0.06467755 0.039470866 -0.3765013 0.4775231 -0.091053106 0.30664974 0.07969061 0.25763106 0.2672729 0.11877764 0.48420593 -0.3395583 -0.22668341 -0.28569067 0.25538266 0.07411744 0.038563292 -0.16779943 -0.19039263 0.08370301
TAT -0.53717035 0.20870955 -0.08025472 0.3583813 0.0012817838 -0.04193233 0.45645997 0.48012707 -0.39964902 0.38029146 0.054221552 -0.28684244 0.060027044 -0.16633923 -0.5206331 -0.35662627 0.24536008 -0.46690375 0.14230907 -0.18560302 -0.033192523 0.00040278607 0.41096044 0.02575341 0.21873344 -0.047403995 -0.73416847 0.06568045 -0.58448887 -0.3037971 0.037365373 0.07444442 -0.18050791 -0.24348857 -0.40032294 0.17238955 0.1794362 0.21224311 0.23580997 -0.50831246 0.085547484 -0.28805724 -0.12985031 -0.19166288 0.011884624 -0.3586344 -0.11388762 -0.54678 0.13258511 0.3495769 -0.020687478 -0.5493784 0.20433739 -0.14678478 0.0063083423 0.20803952 0.6813665 0.7124411 -0.49455997 0.26786822 -0.20379592 -0.5149225 -0.32617572 -0.3519316 -0.19281 0.22889999 -0.09085754 -0.07560578 -0.08796228 0.1101493 -0.1602419 0.17384613 0.3891495 -0.39171576 0.05270282 -0.29529577 -0.33043027 -0.17974243 -0.12191601 -0.115101226 -0.85870504 -0.5794466 -0.2333329 0.11916787 0.09464233 -0.51372224 0.028893122 0.3394996 0.40598688 -0.22088857 0.2769049 -0.40368962 0.08186653 -0.3842757 0.5354084 0.038130466 0.2308214 -0.3231715 -0.40530476 -0.14946307
CAT -0.21214205 0.1448166 -0.4698804 0.38727352 -0.29614982 -0.034631208 0.46610117 -0.018631537 -0.04876758 0.7583468 -0.23349813 -0.15131685 0.21606475 -0.14440809 -0.6128996 0.15199056 0.6245613 -0.5858289 0.13522668 -0.29386935 0.9581616 0.2705841 0.6661447 0.5325644 0.5558111 -0.004317915 -0.5154421 0.013499344 -0.27261516 -0.07625876 0.34351096 0.37010634 -0.043237813 -0.4525088 -0.25438908 0.36593735 0.10372507 -0.008308659 -0.03658494 -0.042048525 -0.07506834 0.09282493 -0.29060256 -0.27804253 0.3554336 -0.15156649 0.09763118 -0.54772043 0.26253542 0.12049547 -0.0030321314 -0.26913851 0.06118443 -0.27551478 -0.17682412 -0.013731497 0.2173515 0.12525341 -0.686467 0.08477308 0.24642998 -0.46335688 -0.5434739 -0.53891575 -0.19723845 -0.18708818 0.23465325 -0.17656995 -0.14593768 0.8021713 0.18800794 -0.15395774 0.7724505 0.05458512 0.18088794 -0.52839154 0.084650144 0.03387394 -0.42637026 -0.2261448 -0.18677829 -0.27239344 -0.2589096 0.47786152 -0.16551793 -0.4328316 0.20768975 0.018254204 0.4088736 -0.22694631 0.22348438 0.061598003 -0.07775563 -0.33176535 0.5016399 0.2623033 -0.41638058 -0.66037774 -0.13325807 0.19910976
ATG 0.06588864 -0.17453781 -0.2557385 0.25204724 0.014859091 -0.029027423 -0.7016024 0.15340187 -0.58374864 -0.4504583 -0.43736473 -0.39960134 0.6956905 0.49563643 0.057921816 -0.41568962 0.63206744 -0.7462225 -0.5157509 -0.021912394 0.06075527 0.43283674 -0.3927707 -0.12148585 -0.23424134 0.32796824 -0.19841191 0.48172367 -0.3011402 -0.20630121 -0.368517 0.50524414 -0.627931 0.21481015 -0.080088824 0.2492317 -0.17177582 -0.48039904 -0.26074126 -0.12183684 0.0396929 0.07095484 0.056355253 0.2631514 0.22011621 0.25351214 -0.44282252 0.5421778 -0.017508853 0.33610407 0.20141827 0.14627402 -0.16837698 -0.0062866784 -0.2568331 0.012287164 0.5195215 0.459582 0.09392971 0.030046161 -0.31634644 -0.39360896 -0.12868172 0.2733909 -0.4314731 -0.20444575 -0.27253693 0.1704993 -0.48911119 0.4416706 -0.0059568873 0.22996324 0.1684888 0.31899768 0.24350286 -0.31595477 -0.116663784 -0.027109087 -0.47012317 0.022682302 -0.2715722 0.31444445 -0.630938 0.3621532 -0.21781524 0.35352516 -0.22211479 0.6842974 0.32065508 -0.11697702 -0.08044986 0.19348732 0.106711105 0.19498304 0.65272856 0.43652016 0.29424682 -0.55200696 -0.39937177 -0.35676208
GGA 0.23516288 -0.07717863 0.4463916 0.1482303 0.13683851 -0.36409542 0.120462984 -0.039631885 0.17127901 0.055347238 0.2022373 -0.5459749 0.18096551 0.8731897 0.014445652 -0.34842983 0.13752359 -0.72456384 0.27143237 -0.6432609 0.5731819 -0.09147081 -0.07575252 0.02166913 -0.07825278 -0.014581535 -0.1045557 -0.3456761 -0.06533372 0.08657857 0.046064563 0.20066448 0.6336899 -0.6798471 0.023102082 -0.23008199 0.115446754 -0.18894945 -0.5238761 -0.5082919 -0.8570829 0.026141064 0.66514707 0.11525353 -0.40391818 0.08098596 0.11995442 0.0430721 0.43870535 0.30567262 0.15390512 -0.14811142 -0.5363142 0.5189521 -0.39999095 0.14146985 0.41538656 -0.35174224 -0.6414933 0.11369084 -0.36806744 0.30116713 0.18493147 0.07004404 -0.39882293 -0.0036529864 0.07142993 0.09338692 -0.22702734 -0.32502136 -0.24390125 0.0230049 0.19181517 -0.47264346 0.9275243 0.4706155 -0.41005135 0.21806607 0.1366898 -0.060874633 -0.29090405 -0.10394068 -0.03318293 0.37744913 -0.23270695 -0.041246507 0.16636859 0.57511824 0.86252266 -0.0584657 0.17203009 0.30167657 -0.52186006 0.015633794 0.17460077 -0.20347327 0.12919435 0.51919186 -0.42221618 -0.0146771325
GGG 0.038420815 0.098964944 0.46996218 -0.17798395 -0.24947353 -0.20014936 -0.036813512 0.06484 0.42080685 -0.16734393 -0.04903482 -0.54369444 0.6721822 0.029072475 -0.14662467 -0.07122746 0.39818934 -0.16873701 0.5028135 -0.4933759 0.20650387 -0.06508716 -0.42042777 -0.47525722 0.24931753 0.32819957 -0.36162737 -0.13441858 -0.24047391 0.6000579 0.032415196 0.12985446 0.11425187 -0.23645626 -0.46271637 0.20735793 -0.23146673 -0.38503668 -0.19174963 -0.8127072 0.27766562 -0.38891774 0.7032233 -0.13786061 0.42811963 0.21974356 -0.22087967 0.04458986 0.0038018099 -0.28035983 0.42259404 0.13344684 -0.035370138 -0.25431275 -0.25416026 0.06982244 -0.33476913 0.20732658 0.21754824 0.42085397 -0.081734 0.09417106 0.24910921 -0.1298053 -0.20500103 0.072397545 0.24709556 0.048192233 -0.0070567993 0.31346855 -0.16959572 0.06720347 -0.058329947 -0.050798923 0.7277508 0.75322473 0.32150856 -0.046018783 -0.124081045 0.29032195 0.12030404 0.25298682 -0.44902036 0.5313169 0.121884085 0.17367536 -0.16822714 0.2982987 0.5628089 0.0323732 0.38819757 0.32073653 -0.3094508 0.07813303 0.9692424 0.029865678 0.38895443 -0.03758298 0.20883252 -0.82090646
TCC 0.48040926 -0.08037842 -0.7427129 -0.5773184 0.4519504 -0.03354183 0.4942017 0.67432916 -0.049945813 -0.13143541 -0.065503106 -0.016569737 -0.918623 0.27600247 0.14863755 0.06081744 0.052744035 -0.3870818 0.16195558 -0.36503616 0.12836741 0.33458316 0.47381467 0.02234069 0.43670368 -0.11596606 0.35918728 -0.18697107 -0.18152109 -0.28305852 0.40402576 -0.19626246 0.19399339 -0.0054865987 0.010010983 0.54848677 -0.17162868 0.34246418 0.06315839 -0.56188357 0.047907986 -0.37155387 0.08130856 -0.18545638 0.20836522 0.0147435665 -0.17550509 0.5577849 0.2622496 0.5135526 -0.21468039 -0.35623267 0.10020136 0.32766688 0.158518 0.22384262 0.13475914 0.26495188 -0.031366818 0.29901534 -0.30251008 -0.3199022 0.16808437 -0.23296489 -0.39576605 0.43849266 0.6676614 0.6039841 -0.39079 0.18874574 -0.19383045 0.042932644 0.5798313 -0.33360723 -0.21138597 0.16517004 -0.40541786 -0.10682266 0.034041546 -0.2572135 0.33273298 0.12505552 -0.21334071 0.26171377 0.27255353 0.5676003 0.42951527 0.38293442 0.2996217 0.960495 -0.07099125 0.33914575 0.22797108 -0.16000032 0.43511516 0.34049207 0.15179494 -0.6358731 0.5600621 0.29696777
CCC 0.06490735 0.26657423 -0.2948118 -0.37641898 0.2599465 -1.1025468 0.59722316 0.65295255 -0.25321412 -0.4606759 -0.20638312 -0.34743404 -0.7757877 0.2878486 0.034052577 -0.22694568 -0.24673218 -0.37125337 0.039613005 0.27310577 0.04843759 0.06370164 0.4171419 0.38948172 0.2969386 -0.3732542 -0.066870764 -0.44418317 -0.3188588 -0.2599314 0.5775645 0.16055351 0.012097567 -0.08689626 -0.19543353 0.14396597 -0.25501695 0.33193538 0.5299209 -0.4282807 -0.35813254 -0.35603672 -0.41809037 0.2507491 0.41927543 0.27463138 -0.10325415 0.059686914 0.17474388 0.34691924 0.3523341 0.017714672 -0.1027301 -0.57790565 -0.04617863 0.2703758 0.18157814 -0.30237913 -0.26719454 -0.02277222 -0.29839543 -0.29630306 0.122590624 -0.011609514 -0.24954894 0.47570115 0.07068608 0.25863525 -0.3259101 0.300595 -0.2060759 -0.1895562 -0.073126376 -0.28049073 0.24116482 0.61526066 -0.17774962 -0.27160603 -0.29478934 0.19204259 0.51366687 -0.3045433 -0.51546973 0.33721292 0.32295004 0.34515098 0.43859103 0.13498631 0.22444667 0.5098078 0.06637534 0.17197323 -0.13958721 -0.060950972 -0.103990614 0.62087274 0.2038817 -0.43096742 0.66803056 -0.019787358
GTG -0.054100417 -0.24012187 0.15882364 0.15498729 -0.47272128 -0.28321943 -0.2585689 0.2601169 0.19391786 -0.3102112 -0.43095168 -0.50330126 0.64796555 0.13273105 0.2726266 -0.13408616 -0.19388294 -0.23058048 -0.16542038 -0.19005279 0.2476974 0.2187393 0.010378488 -0.30439287 -0.3455199 -0.08805027 0.15124461 -0.017536107 0.1816193 0.12577675 -0.4162227 0.11916002 0.14276937 -0.11058719 -0.1509215 0.3730576 -0.08870115 -0.7885224 -0.3192827 -0.3680708 0.3104688 -0.25932446 0.23139511 -0.69610596 0.47072443 0.47529456 -0.16919094 -0.11412843 0.09640762 0.32109398 -0.0026947027 -0.1502481 0.015696656 -0.13259801 -0.29938507 0.28118545 0.208489 -0.1001845 0.12245345 -0.48662814 -0.54564035 -0.17474899 -0.001675375 0.11296406 -0.052598882 0.24791765 -0.15186547 0.09373808 -0.75479805 0.6519182 -0.023633417 0.23185793 0.20123923 0.21873505 0.8638705 -0.08171109 -0.025403688 -0.5968313 -0.697139 0.39787754 -0.5518131 -0.13225389 -0.21352595 0.31584215 0.31384584 -0.10002885 -0.2876986 0.23525192 0.4216099 0.084895596 0.021159217 -0.09705362 0.29634568 0.33450907 0.43703198 0.65819055 -0.21494564 -0.12186005 -0.21319108 -0.3859813
CAC 0.15960902 0.110270806 -0.2119515 -0.26879564 -0.08357611 -0.5319987 0.05658148 0.38666356 -0.21979493 0.046645768 -0.031297546 0.6327439 -0.22660822 0.6120702 0.050859608 -0.19231606 -0.5951906 0.31776008 0.31766093 -0.071807414 0.49272245 0.087365344 -0.03167647 0.09313818 -0.21812078 -0.10527963 -0.3710704 0.105905 -0.12972146 -0.17107643 0.77204216 0.45900625 -0.2208025 -0.13160892 0.39661685 -0.21358818 -0.13044332 0.051191024 -0.054433312 -0.5293389 -0.71004665 -0.1941333 -0.35244521 -0.03172142 0.10535614 -0.10074451 0.04901668 -0.15963346 0.56488794 0.332854 -0.016284985 0.14658567 -0.08965108 -0.42673683 0.20994969 0.27533948 0.46082634 0.042669196 -0.31222725 0.093123324 0.21168686 0.40349588 -0.15285599 -0.8179001 -0.33502167 0.123159386 0.46882248 0.15185677 -0.018095998 0.08344544 -0.72012985 -0.056332234 0.5273847 -0.31920442 -0.35945532 0.13582677 -0.12566274 -0.15274495 -0.608935 0.3805572 0.054673955 0.32308197 -0.61616224 0.5945051 0.14067172 0.012963483 -0.36342326 0.27409327 0.3946458 -0.27010873 0.43340513 0.191106 0.22341292 0.190649 0.27498218 0.31557176 0.3122278 -0.35536954 0.25883022 0.080360115
AGT 0.06714201 0.19112046 0.044525582 0.5043438 -0.35255438 -0.20806886 0.1717005 0.52119654 -0.6302315 0.4692309 -0.20637213 -1.0473336 0.13651755 -0.35610315 0.10792464 0.28561655 -0.2538721 0.17388773 -0.5116138 -0.2275705 0.5601792 0.04304577 0.14142263 -0.11464122 0.007794532 0.2854976 0.31568655 -0.21809393 -0.6026683 -0.3497667 0.01118617 0.258583 0.14576283 -0.25374803 -0.7533412 0.8329714 0.4402339 0.013993904 -0.9535197 -0.19164419 -0.21003532 0.08228423 -0.20126234 0.04544757 0.27063045 -0.15417196 -0.009331847 -0.07337536 0.14235364 0.0609599 0.3282781 -0.3146813 -0.059912317 -0.22303645 0.3148596 -0.16436225 0.010468906 0.18597874 -0.18351598 -0.57793385 0.16310582 -0.086719245 -0.34211937 0.044643857 -0.18578184 0.08175042 0.23725818 0.50488424 -0.114685714 0.08883599 -0.16492559 -0.07549527 0.13573366 0.60668117 -0.22829369 0.31267494 -0.055040292 -0.19951147 0.3382514 0.26179415 -0.6034582 -0.34867513 0.045695674 -0.19590211 0.25380078 -0.49948427 -0.09535532 0.6639133 -0.12780085 0.15070647 0.24598669 0.41957024 0.496619 0.2781033 0.70670843 0.807489 0.7892904 0.3567761 0.21028888 -0.53918326
GCA 0.16107208 -0.47046906 0.047319416 -0.25076288 0.4495622 -0.17783204 0.16507724 0.3687206 -0.2726898 0.22588499 -0.26997194 -0.39145714 -0.28912327 0.31589124 0.36805406 0.12845115 -0.5029346 0.15609019 0.49617174 -0.58550304 -0.50252104 -0.0055670603 0.13427922 0.022857139 0.21575515 0.22076724 -0.7297332 -0.26343232 -0.02641072 -0.34203684 0.18753512 0.6251142 0.18601355 -0.3523482 -0.1456093 0.08633691 -0.488457 -0.67449456 -0.1918458 -0.432085 -0.673677 0.11551551 0.305952 0.22205314 0.3258987 -0.10618128 -0.14095654 -0.1484222 0.46127376 0.088381566 -0.33186334 -0.29189387 0.22572912 0.12003164 -0.39832753 0.21308118 -0.10337897 0.0045807706 -0.26952863 0.17002216 0.48049214 0.6141634 0.5108004 0.4094495 -0.44290066 -0.23343366 -0.17394285 0.13161673 0.05800265 0.7113842 0.170888 0.27387604 0.007566271 -0.5434593 0.347189 0.11188065 -0.01013081 -0.10688275 -0.37230775 -0.30757868 -0.09006749 -0.39547414 -0.55466974 0.2959096 0.13992329 -0.040727396 -0.040169973 0.076628745 -0.15312262 -0.50630087 0.6745492 -0.018714482 0.3122477 0.22491665 -0.00046252 0.44890782 0.06561688 -0.26909536 -0.5628968 -0.5108786
TGC -0.6194371 0.09867269 0.23340797 0.21840456 -0.012879072 -0.039848708 0.32247967 0.26242185 0.25516048 0.22898059 0.11382574 0.08934717 -0.33077586 0.33555323 -0.6893046 -0.45107824 -0.38395944 -0.100883916 0.67534304 0.11822738 0.34388992 0.21114434 -0.59014976 -0.12151866 0.19754165 -0.16295812 0.52063113 -0.40849483 -0.31980142 -0.45516095 0.33570984 0.40144438 -0.08077003 0.3725897 0.06454824 0.564925 -0.6258123 0.005209428 0.27751824 -0.55620736 0.028349191 -0.5833131 0.15063746 0.20554203 -0.17448847 -0.27535516 0.12687178 -0.17123105 0.42484045 0.4689965 0.52701324 0.0076579195 0.23807625 -0.26901513 -0.4762061 0.06569117 -0.03845201 -0.16699448 -0.4667098 0.26783174 0.08358725 -0.02957411 0.53941154 0.4258691 -0.6906877 -0.08806534 0.37718347 0.7046754 0.0674704 0.55407256 -0.34023118 0.06579157 0.20166014 0.26235002 -0.030331396 0.046586774 0.05578309 -0.21022533 -0.1509643 0.23507729 -0.13182116 -0.39983514 -0.6291133 0.072435685 0.29964837 0.34274584 0.1924414 0.12373123 0.25557303 0.4681692 -0.3745336 -0.052026123 0.18972847 0.89077306 0.27962443 0.54221994 -0.3330179 -1.0225214 0.4027345 0.21373862
ACT -0.2414092 0.6095101 -0.062129945 0.1986448 -0.1792679 -0.27453232 -0.26740155 -0.568633 -0.45913076 -0.05047428 0.061261497 -1.0376728 -0.49550277 -0.024927355 0.05908227 -0.23554626 0.16672891 -0.51051515 0.013774251 0.10753461 0.22067168 0.3970979 0.09574653 -0.18612395 -0.5830757 0.124888085 -0.39208362 -0.60145116 0.2072762 -0.3923345 0.49408302 -0.58312243 0.0019499267 0.18315503 -0.000818488 0.01038465 0.21172951 -0.006952253 -0.31976292 -0.7448669 0.24706736 -0.3680775 -0.13685237 0.48490387 0.20398796 0.0055097365 0.014233831 -0.32345515 0.33230004 0.4621345 0.08011315 0.37936768 0.4230187 0.47676688 0.19479518 0.15463044 0.018958108 -0.38596413 -0.39703524 -0.2692665 0.2876467 0.14383602 -0.41031888 -0.22939374 0.10256208 0.14879936 0.034296423 0.26763168 0.14918084 0.4909623 -0.17352597 -0.08002568 0.6279444 0.2805217 -0.12035348 0.13764438 -0.48261127 0.26193354 -0.85877466 -0.26569954 -0.102201946 0.3258352 -0.22438814 0.106151946 0.26959 0.05924339 -0.002584276 0.44644216 -0.14423905 -0.38746762 -0.22345436 0.327131 0.13630936 -0.089856625 0.9976495 0.044843014 -0.21954061 -0.1754075 0.08646556 -0.12913388
GCT -0.23860621 -0.060968183 0.18162893 -0.2228058 0.09026593 -0.34216318 0.047219638 -0.41437745 0.23733631 -0.1311785 -0.3542224 -0.7297339 -0.273184 -0.17817238 -0.1662074 -0.35575718 -0.29012236 -0.5995358 0.3243014 -0.12818246 0.26213962 0.19148971 -0.2534156 -0.30719224 -0.26306975 -0.16022179 0.38256863 -0.4348104 -0.5396646 0.008101836 0.5147965 -0.072689466 -0.48144892 0.071127236 -0.5010547 -0.078742735 0.11494428 0.06997943 -0.25089318 -0.5592839 0.23436865 -0.071772784 -0.4786334 -0.043030802 -0.043263193 -0.23759134 -0.1380554 -0.15128544 -0.14873919 0.23671067 0.44356957 -0.25882676 0.28930956 0.42360473 0.15603879 0.58965725 -0.077837735 -0.38935843 -0.18081245 -0.4887855 0.11046831 0.0020455122 -0.83323795 0.10649121 -0.066691756 0.38530248 -0.085261345 -0.05284179 0.40632784 0.33149266 -0.2185606 0.47209394 0.67586267 0.06162212 -0.2840215 -0.21903464 -0.24453159 0.15522449 -0.34942856 0.029486608 0.22527064 -0.006152549 -0.7581458 0.6701683 0.43427578 -0.06935748 0.3989553 0.61075467 -0.30024394 -0.5761055 0.14653923 0.3990893 0.15096231 -0.29098198 0.56803906 0.46646065 0.070844255 -0.051679242 -0.10892883 -0.31465775
AGC -0.560243 0.45557582 0.4665778 -0.20630705 0.38514063 -0.19240862 0.29837427 0.71732116 0.07030492 0.14671308 0.36771882 -0.1397511 0.13245639 0.4593477 -0.60184544 0.13319705 -0.32223257 -0.37415937 0.4666006 0.075621724 -0.042146016 -0.00010261628 0.122528866 -0.48548457 0.06492219 0.07683444 0.6269632 -0.4959787 -0.3982508 -0.67508787 0.38722634 -0.037266213 -0.44332945 0.096083336 -0.46006653 0.47541523 -0.37363368 0.08201787 0.15020072 -0.7843932 -0.08871529 -0.6254288 -0.35492513 -0.07781851 -0.8391307 -0.06791943 -0.15888043 0.026134143 0.7713373 0.1496315 -0.09448764 0.029627986 0.15364063 -0.4114276 -0.05975287 -0.4597126 0.43668804 -0.6304299 0.024969844 0.05645372 0.44253647 0.16014175 0.32400903 0.2304875 -0.14428785 -0.44118762 0.1219817 0.27823952 -0.34754622 0.52195096 0.30672798 0.22245388 0.11848953 0.53283036 0.29871082 0.34143215 -0.08991098 0.06978907 -0.12237981 0.043195147 0.09059032 0.46436885 -0.47885436 0.17584354 -0.004975248 0.31737727 -0.035881635 0.62797624 -0.33690548 0.21420401 0.20079142 0.30848682 -0.3196908 0.39149442 0.2311513 0.38719523 -0.1923827 -1.0200698 0.63830423 -0.08263678
GTT -0.15912804 -0.002300443 0.5319553 -0.29276368 -0.059603438 -0.3642347 0.3792163 0.18626924 0.10641671 0.83574843 -0.19239348 -0.22464624 -0.53249604 -0.68872017 0.08362945 -0.08340804 0.1308109 -0.39741194 -0.34212658 -0.2349565 0.5557871 -0.223478 0.24274851 0.043519452 0.2622505 -0.027664766 0.3256134 -0.35256666 -0.21234542 -0.28602362 0.42294848 -0.17272066 0.20366065 0.22024041 -0.41747478 0.26865056 -0.06614359 -0.726293 -0.16547638 -0.45798448 0.29186654 -0.30044386 -0.112666436 -0.5017664 0.36381665 -0.13401252 -0.42257577 0.10520732 -0.31363326 0.56510884 0.3945267 -0.14774676 0.16528071 0.41610676 -0.3147756 -0.07574566 0.2292946 0.3919588 -0.6282959 -0.16412577 0.13223346 0.09409093 -0.12939513 -0.32575977 0.09375987 0.5162151 0.12290956 0.20490989 -0.63761234 0.028976541 -0.46924993 0.07868162 0.49368823 -0.25636348 0.4263287 -0.20251906 0.15827408 -0.20275465 0.013073649 -0.22000316 -0.4553821 0.43279386 -0.15519163 0.121154994 -0.48253465 -0.51662004 0.122559 0.3307042 -0.22025901 -0.35359207 -0.39006606 0.096527435 0.17762107 0.6427495 0.710771 0.403675 -0.04066695 0.20825095 -0.44359818 -0.5562402
AAC 0.12528248 0.09378293 -0.81619835 -0.33816138 0.37364197 -0.74556535 0.01462071 0.79100424 -0.14067906 -0.012711478 -0.10212395 0.222779 -0.42262107 0.2979018 0.15896818 0.18897505 -0.43342772 0.3172252 0.6468256 -0.7085758 -0.18632416 -0.37888798 -0.29796642 -0.014559351 -0.57368094 -0.23660561 -0.3399974 -0.5361401 -0.337527 0.18519062 0.19892584 -0.03520336 0.32561946 -0.043302983 0.25928205 -0.50619817 -0.14740616 -0.27064264 -0.37839785 -0.32657546 -0.28097492 -0.14739105 -0.89705414 0.46270803 0.03940482 0.0063982173 0.0125117 0.18856291 0.11991535 0.13821399 -0.009880523 -0.29504585 0.2864877 -0.17790233 0.43323568 -0.22957896 0.26646143 -0.49610034 -0.3065681 0.32974246 -0.14570077 -0.021498997 -0.092661805 -0.08781182 -0.38979036 -0.096713 0.19460638 0.37226507 0.07085357 0.054530185 -0.4637873 -0.63789463 0.55616444 0.13137782 -0.16826926 -0.35975483 -0.42988974 -0.1209657 -0.10708327 0.09305301 -0.13450591 0.7739495 -0.58140004 0.21236292 0.18654719 -0.043806497 -0.08548822 0.31360874 0.98054326 0.063068956 0.68481874 0.5285312 -0.3143249 0.52013606 0.20404415 0.4825188 -0.17204179 -0.70736164 0.1774094 -0.22692344
GGC -0.48359656 -0.025251977 0.3326361 0.16605079 -0.20979726 0.20564337 0.35548759 0.37437266 0.5981184 -0.27779424 0.6142104 0.51523036 -0.08452168 -0.017727181 -0.29145312 -0.3926658 -0.19458954 -0.7834821 0.6082972 0.16284001 -0.1909231 0.56755835 -0.5895201 -0.10952481 -0.036204394 -0.39832523 0.2335054 -0.65334666 -0.48963687 -0.54282045 0.22575955 0.03209319 -0.19469287 0.16366187 -0.4093005 0.47935578 -0.5221404 0.02996082 0.1701981 -0.6848146 -0.05262043 -0.87619174 -0.57253796 -0.07538368 0.17556845 -0.005664829 -0.124112 -0.4098983 0.6924746 -0.09301593 -0.39380577 -0.14755423 -0.040991496 -0.23581886 -0.21989925 -0.35420406 0.37313274 -0.8562802 0.28022766 0.40511352 0.08955986 0.21357727 0.96922886 -0.09707191 -0.5941485 0.12549475 0.102482 0.35592636 0.29968712 0.42362788 -0.18997407 -0.14667252 -0.11182311 0.37022254 0.38331 0.4880477 -0.11748098 -0.54503846 -0.023749111 -0.1458569 0.3695624 0.035892166 -0.6966389 0.5682678 -0.38059187 0.11588643 0.31603822 0.29214656 0.07122166 0.07130631 -0.09209013 0.56792843 -0.1996219 0.44240034 0.6018454 0.68104494 0.05659001 -0.53713167 0.1963439 -0.26847884
GCC 0.38060185 0.17652288 -0.027406665 -0.5412351 0.85457075 -0.590373 0.4110824 0.43520367 -0.0075745983 -0.23894194 0.06104566 -0.2534435 -0.5029 0.40803245 0.102041855 -0.16030712 -0.20473288 -0.40186584 0.77980953 0.11409475 0.112042174 0.93313235 0.16610035 0.0938287 0.0068922113 -0.24506517 0.2107859 -0.20693782 -0.36302885 -0.45692748 0.16175717 0.27999103 0.30058873 0.07075971 0.11396131 0.6807822 -0.12724997 0.25230843 0.060821414 -0.12970228 -0.72587913 -0.26878372 -0.010779473 -0.21011204 0.2986458 0.44189593 -0.08418085 0.60189533 -0.06763517 0.09361431 0.20488405 -0.41822538 0.30199575 -0.09832536 -0.015486684 0.28591996 0.16478221 -0.31441504 -0.047556967 -0.17001826 -0.020262621 -0.09770968 -0.08815778 0.10916214 -0.43421108 0.6129264 0.20449552 0.14188294 -0.19770777 0.6961569 0.12421077 -0.23715582 0.45333317 -0.29985687 0.23495936 -0.039164376 -0.045151696 -0.3975913 -0.1172168 -0.30845872 0.30176395 0.1738244 -0.7601143 0.6038061 0.47314766 0.4933851 0.3101723 0.38088882 0.0022730452 1.0774112 0.48426145 -0.15523918 -0.08439848 -0.1915186 0.10097986 -0.0970819 0.50274384 -0.18694927 0.2394852 -0.16704768
AAAA -0.5899729 0.4574731 0.108365685 0.03836007 0.13138291 -0.24818377 -0.3290071 0.7472162 -0.5577458 0.32176673 -0.14986876 -0.527721 0.043908704 0.31707114 0.100666516 -0.615818 -0.004690494 -0.4661148 0.059157614 -0.9014241 -0.27891985 -0.008880836 -0.13368127 -0.2060748 -0.02125303 -0.3565045 -1.0706064 -0.66260386 -0.4058898 -0.15706708 0.1640456 0.07467547 -0.28006032 -0.4401622 0.28254887 -0.20712279 0.26066333 -0.16343127 -0.04762346 -0.68861055 -0.4445786 0.58063537 -0.24908853 -0.07154369 0.06785375 0.36504364 -0.5627122 0.10144114 0.33360794 0.31217277 -0.07424829 0.17123969 -0.13397482 0.4634633 0.18678056 -0.48270255 0.4993314 0.055258743 -0.81752425 0.48334494 0.5285501 0.15252513 -0.37148172 0.2234263 -0.10994551 -0.0055515566 0.24649869 0.47154287 -0.24503021 0.30478817 0.11375152 0.16156845 0.42948142 -0.34782284 0.10504907 0.18929999 0.03695737 -0.19610992 0.40350097 -0.2583285 -0.3974671 -0.13256349 -0.12821463 0.12609024 -0.0804492 0.19064319 0.24276805 0.68496555 0.55390805 0.48965818 0.4802792 0.14225134 -0.34220093 0.5758228 0.4038096 0.7213688 -0.14882542 0.3344822 0.060019698 -0.41606542
TTTT -0.41735277 -0.41128415 0.16542622 -0.10981366 0.40092197 -0.56191725 0.20208485 0.44023034 -0.5193816 0.380251 -0.7418964 -0.6603525 -0.26987368 -0.5703127 -0.06719559 -0.07792555 0.412849 -0.21293563 -0.021879552 -0.5206609 0.22562474 0.33293962 0.30270857 -0.31425712 0.45795423 -0.20600167 -0.2773427 -0.36858395 -0.5181959 -0.22095972 0.48814902 0.17392582 0.22526486 -0.21163921 -0.48872706 0.37418163 0.12011751 -0.13909172 0.07669796 -0.5623339 0.42771146 -0.7170788 0.053628903 0.16894647 0.29194653 0.121036544 -0.3832237 -0.5065353 -0.4237653 0.32431957 0.41211855 -0.5402505 -0.00463968 0.34271437 -0.10886151 -0.059035785 0.42953876 0.5992493 -0.6413285 0.040222023 0.008266573 0.22043163 -0.15478271 -0.58282775 0.15634726 0.41279197 0.7376899 -0.101964206 -0.21408065 0.085501194 -0.899416 0.10077247 0.40781206 0.045262616 0.39345264 -0.5970123 -0.038992956 -0.15678541 -0.3553069 -0.22350813 -0.5216763 -0.07982899 -0.4258434 0.0789047 -0.3683461 0.034544062 0.13169193 0.351052 0.15034957 -0.19243465 -0.24808243 0.5514227 0.17921588 0.37079525 0.47486722 0.12291771 -0.12405626 -0.12806182 0.01874081 -0.09952682
ATC -0.03368013 0.7793528 -0.117501915 0.28086224 0.03530449 -0.58063096 -0.14821593 0.23620719 -0.2830301 0.5424159 -0.2738847 -0.40403566 -0.46920133 0.17544036 -0.24499932 -0.1473545 -0.43651655 -0.679905 -0.11019218 -0.81183547 -0.027039299 -0.27844208 -0.2721921 -0.06519681 -0.33206478 0.03305836 -0.6265719 -0.015631814 -0.43190452 -0.44665217 0.43694347 -0.008713475 0.2846588 0.39305338 -0.309384 0.6472605 0.42630827 0.64033556 0.053085167 -0.122417785 -0.082765095 -0.27423686 -0.0008065503 0.17138852 -0.21018311 -0.30139682 0.2382899 0.7936154 0.2274286 0.45762056 -0.14124677 -0.2899552 0.396133 -0.3748175 0.47846147 0.39781517 0.061314125 0.20631796 0.08155318 -0.2259249 -0.25127932 -0.16116892 -0.36911654 0.40095094 -0.04378973 -0.38851073 0.17518789 0.36102262 -0.20023502 0.31207314 -0.43353164 -0.09872413 0.5035977 -0.17366166 0.12848237 0.3342997 -0.2858653 -0.15115151 -0.73972744 0.17197269 0.55168986 -0.38094428 -0.54308546 0.7006913 -0.34843484 0.27179092 0.16360183 -0.094470404 0.2779274 0.48595133 -0.03198599 0.40812585 -0.18713863 -0.042561505 -0.07012773 0.18189155 -0.65292895 -0.01240294 0.012322025 -0.24322
GAT -0.016584774 0.24184918 0.31544426 0.5974425 -0.10697342 -0.3310717 -0.09170198 0.25576502 0.16640125 0.504917 -0.5263233 -0.12763396 0.089479655 0.0054569454 -0.46643448 -0.55492234 0.1822244 -0.6377671 0.12071201 -0.39754745 0.47813025 0.018307617 0.8083667 -0.024897931 0.06288446 0.51328826 -0.56325996 0.2478054 0.015484299 -0.06663131 0.31906912 -0.14134485 -0.31052437 0.116711736 -0.63028604 0.5370903 -0.20375104 0.023377245 -0.31221104 -0.16069974 0.06925696 -0.43506184 0.17063257 0.05312859 0.51373345 0.08571812 -0.057849668 -0.23712878 0.5602286 -0.0014158025 0.036625795 -0.8489535 -0.028529294 0.196331 -0.45422515 0.120276585 0.09511071 -0.08333335 -0.5527315 0.028032644 0.37294516 -0.46555287 -0.5549445 -0.47158033 0.10632771 0.12861802 0.14367396 -0.4196459 -0.030805698 0.31458285 -0.29011086 -0.026089514 0.0052704406 -0.26993677 0.16858616 -0.08324219 0.05393421 -0.14844227 0.06060752 -0.2674563 -0.6494428 -0.20812227 0.116331995 -0.035486568 0.006617351 -0.7893791 0.41896582 0.6550291 -0.487498 0.40656957 0.27971694 -0.22704542 -0.2762629 -0.7621731 0.44305304 0.37897247 -0.32562193 -0.59269756 -0.27079716 -0.42690417
TAG 0.38974383 0.029407771 -0.09784139 0.16516939 -0.18008602 -0.09699264 0.0014975424 0.3826028 -0.7910374 -0.14902745 -0.062230773 -0.37944448 0.17469545 0.15529087 -0.10018438 -0.7220176 0.07470654 -0.89198554 -0.27447763 -0.05767621 0.023185773 -0.11305475 0.06298014 -0.054703258 0.23103231 -0.5274723 -0.056224763 -0.34646672 -0.28816095 0.17374164 0.35284218 0.18851277 0.021685984 -0.36619788 0.18428187 0.00872401 -0.0017275215 0.022844616 -0.28428134 -0.841982 0.4849946 0.053924073 0.42358306 0.3362742 -0.7148298 -0.41503406 0.1194067 -0.17314501 -0.15161842 -0.10066296 -0.00045329565 -0.09997231 0.53696764 0.015511443 -0.4913877 0.5865284 0.0070817606 0.30408382 0.09023594 0.06779669 0.44515443 -0.124489486 0.6593088 -0.039954282 -0.9383296 -0.10174408 0.1776491 0.30270746 -0.45901105 -0.18284395 -0.21435793 0.36213484 -0.40362802 0.38348645 0.60063225 0.15965067 0.040797878 -0.04665397 -0.19755967 0.42855048 -0.3150602 0.29775998 -0.7754552 0.123743415 -0.6726325 -0.02424408 -0.09804784 -0.16535996 0.13419892 0.17967388 0.6010576 0.09419676 -0.1182942 -0.13704588 0.1776491 -0.43648884 0.22053264 0.31339407 0.08138877 -0.8329734
CTA -0.05983505 0.5083954 0.28276753 -0.3284778 0.18891649 0.14229473 0.09974182 0.5652883 -0.16901663 0.25242472 -0.33495215 0.042102825 -0.21009602 0.09268931 -0.016842352 -0.112153076 0.21908157 0.09866261 -0.2107327 -0.66276777 0.5580059 0.1828594 0.34906077 -0.22795911 0.06573593 -0.64963233 -0.6676537 -0.69156194 -0.4221316 0.47154537 -0.14443249 -0.11549686 0.46174797 -0.1475693 0.023169167 -0.042952456 -0.017182047 0.8266104 -0.0037733132 -0.1565669 -0.16833049 -0.4127427 0.055791285 0.11660381 0.6755111 -0.9099059 -0.12167758 -0.4922301 -0.19254136 0.432046 -0.17115723 0.15992963 -0.5260311 0.28650025 -0.80206144 -0.08045297 0.35392484 -0.047229964 -0.21723896 -0.67262834 0.40432528 0.5286342 -0.40409562 0.17600726 -0.91781276 -0.07344936 0.14232041 0.21699533 -0.109725155 -0.20352347 0.47336286 0.37164596 -0.22482812 -0.37957326 -0.23593293 -0.25068069 -0.11894769 0.37966034 0.1853527 0.3130197 0.19391859 -0.07471487 0.1206035 0.5019383 0.31073478 0.06467336 -0.25062692 0.5120131 0.2615589 0.4011758 0.27687222 -0.44616586 0.074209414 -0.30866277 0.67255837 0.6566153 -0.15563819 -0.33386123 -0.13789709 -0.14003278
GGT 0.13987544 0.13681722 0.40847102 0.4229531 0.20267898 -0.021967128 0.4112463 0.30066565 -0.31288987 0.36760306 -0.37487686 -0.8898302 0.5529371 -0.6883275 0.032370757 -0.57680625 0.1994597 -0.042948112 -0.26253262 -0.34759864 0.599003 0.88353467 0.021728754 -0.15034835 -0.027412035 -0.008033527 -0.14852455 0.3055199 -0.22533876 0.060434 0.23865926 -0.1847441 0.25922504 -0.44930187 -0.31018466 0.27988592 0.22237492 0.3758807 -0.26431853 0.2105779 -0.17748088 0.004909148 -0.0942583 0.36269495 0.40807652 0.12345202 -0.33419618 -0.34556732 -0.2526717 0.20966764 0.36057398 -0.3644213 -0.31348827 -0.18250863 0.2912094 0.06358135 -0.015691668 -0.26481786 0.110377885 0.20679584 -0.2768684 0.07543898 -0.17462611 0.060900677 -0.49038258 0.36596155 -0.15470728 0.38547593 -0.3141448 0.37093157 -0.5464872 -0.5010291 0.31065622 0.22699931 -0.09767788 0.08408232 0.29497692 -0.27861896 -0.01640569 0.16372296 -0.07689166 -0.22604546 -0.3840038 -0.0884158 -0.2932933 -0.38813725 -0.43037066 0.2293259 -0.39704478 -0.083299115 0.15731682 0.532615 0.2993324 0.068253726 1.2583866 0.8211289 0.8071886 0.40426642 -0.057979744 -0.7806406
ACC 0.18747385 0.23563479 -0.5429895 -0.15953925 0.49110177 -0.77668613 0.39262134 0.48488218 -0.11557342 -0.4632808 0.1743251 -0.33026728 -0.5662856 0.35695755 0.16870515 -0.14433357 -0.025287809 -0.2602049 0.21929903 0.24734226 -0.033577193 0.6097008 0.38001925 0.090036035 0.061661176 -0.0121155465 -0.45106426 -0.7089023 -0.19344047 -0.4467164 0.47931644 -0.16833258 0.23551442 0.20744431 0.059142698 0.7365111 -0.31619453 0.4073407 0.03725679 -0.30230486 -0.25962275 -0.18935645 -0.16673136 0.034605164 0.11294679 0.3927675 -0.20240635 0.40196323 0.32401487 -0.26862803 0.054773033 0.24350603 0.65373766 -0.15968978 -0.31340975 0.11388062 0.4023998 0.16533624 0.35606354 0.5082655 -0.2519922 -0.26984316 -0.45468777 -0.30056188 -0.32434297 0.29652646 0.52038133 0.427931 -0.2596932 0.69357914 -0.16343287 -0.60878 0.49762496 0.1363107 0.52577555 0.32824516 -0.3057689 -0.50474894 -0.1410441 -0.6464428 0.3950914 0.5755188 -0.1503591 0.28991494 0.1691972 0.5610264 0.17706737 0.3570459 0.26935634 0.38857597 0.4018578 -0.17216307 0.10041312 0.22230376 -0.034033738 0.4392759 -0.09574428 0.09512341 0.9054956 0.3130416
GTA 0.022484142 0.51780164 0.43773437 0.011752386 0.3547824 0.38410354 0.018618373 0.75058746 0.22935596 0.53426135 -0.086547226 -0.2327011 -0.19327241 -0.26869386 -0.27778098 -0.0013659009 0.046910953 -0.23074505 -0.6866911 -0.51789004 0.18983515 0.11609701 0.05818442 -0.103615046 0.19081025 -0.7174792 -0.51352084 -0.7611718 0.10636535 0.46434838 -0.18980779 0.17369886 0.2702357 -0.047043484 -0.07155178 0.15300909 0.043309085 -0.038999006 -0.3677881 -0.35229674 -0.2625953 -0.13966607 0.10275273 -0.013150495 0.056859117 -0.1405737 -0.13168074 -0.24202465 0.6457321 -0.042588335 0.48498106 -0.114073575 -0.00957548 0.64956045 -0.5534147 0.29715955 0.34387583 -0.17885487 -0.043814942 -0.3578493 0.21897605 0.9867668 -0.54594296 -0.20063166 -0.67876667 0.17470771 -0.462164 0.0070834956 -0.13630787 -0.04371643 0.57103044 0.17302227 0.1632463 -0.4249114 0.06901324 -0.5325682 0.28873405 -0.4099137 -0.386576 0.21810527 -0.0428774 0.2776304 0.2890727 -0.282843 -0.16780847 0.10035754 -0.13637964 0.36746156 0.76661605 0.24608837 0.5711817 -0.5539101 -0.22668013 -0.061068 0.7072339 0.59622335 0.056450024 -0.6101696 -0.43993056 0.18205535
TAC 0.07048696 0.19451246 -0.5285261 -0.31488973 0.31371975 -0.41721693 0.31795156 0.5049083 0.064389385 -0.1189731 0.10707404 0.009845487 -0.4929021 -0.15264648 0.28367037 -0.65887237 -0.6713709 0.6664214 0.0065568946 0.070993006 0.15678537 -0.10945135 -0.022581981 -0.039592348 -0.005416103 0.44525802 -0.7054502 -0.66182804 -0.7041457 0.28062108 0.1642612 0.5814752 -0.23294045 0.5210075 0.12580967 -0.49489242 -0.4212806 -0.06985064 -0.30776367 -0.5093116 -0.29465604 -0.29575902 -0.10066328 0.109843254 -0.09804025 -0.44998422 0.037246883 -0.37024987 0.13121358 0.1829322 0.054926448 -0.19903068 0.44321 -0.42566428 0.17709245 0.21667351 0.6487105 0.2867789 -0.09712978 0.39802808 -0.040982906 -0.032362465 0.22085582 -0.3574004 -0.8072697 0.15117025 0.059819955 0.1370078 -0.19817844 -0.25280958 -0.92830867 -0.36596358 0.8849472 -0.20307668 -0.13663459 -0.23216829 -0.69569147 -0.14761269 -0.46581045 0.019804452 -0.15064785 0.4749665 -0.27307007 0.22943197 -0.100763164 0.2931508 -0.1406816 0.086468905 0.5235327 0.35893315 0.6133709 0.16824631 -0.014610363 0.15518387 0.32364947 0.06452598 -0.14294676 -0.61247015 0.10020649 -0.05871256
GAC 0.23742393 0.009970513 -0.4572538 -0.44373506 0.27172357 -0.8354575 0.4036818 0.6117149 0.45672682 -0.4373098 -0.3869792 0.30119362 -0.48168972 0.27894673 0.26526105 -0.27313593 -0.8234008 0.08244967 0.31371865 -0.51813924 0.12847142 -0.30901745 -0.0423693 0.05029194 -0.729357 0.5718872 -0.36880967 -0.15166333 -0.4138208 -0.14874224 0.32938752 0.3301528 -0.15292135 0.34833887 0.3023072 0.0138731785 0.013399932 0.10408161 -0.5229937 -0.3410866 -0.76205945 -0.29472575 -0.15662627 0.07358092 0.5226821 -0.079859294 -0.2729077 -0.29677686 0.46263212 -0.024962427 -0.013923525 -0.20700794 0.2776931 0.08030628 0.17673519 0.17543957 0.73974854 0.020032898 -0.11541673 0.26010147 -0.019190852 0.29835588 0.22387041 0.33065727 -0.4583398 0.16061525 0.20143582 -0.56444746 -0.08683061 -0.12965651 -0.65263516 -0.1686396 0.08317474 0.16094555 -0.05758494 0.08516167 0.099942416 0.06903733 -0.24014655 0.1721364 -0.33958218 0.7219894 0.060982645 0.6236217 -0.08722594 0.080302015 -0.92082655 0.52871805 -0.036820434 0.072925486 0.57096714 0.5947634 -0.15009977 0.00027649873 0.31288344 0.28605327 -0.02858687 -0.4988765 0.20585884 0.3258468
GTC -0.16130729 1.0144753 0.15343253 0.025163755 -0.14919233 -0.30219996 0.43808374 -0.0644406 -0.111221425 0.31410483 0.18270406 -0.34954357 -0.21997923 -0.20591696 -0.32726827 -0.19261138 -0.6909703 -0.15501519 -0.09960312 0.05548165 0.00985376 0.08275028 -0.47831157 0.42730382 -0.052467644 -0.057578262 -0.2048193 -0.09016952 0.2113107 -0.7162727 0.04940342 0.103963085 0.33420926 0.28406864 0.21203314 0.57098746 0.29295048 -0.32325912 0.22503857 -0.42183444 -0.27467993 -0.48406044 -0.090727404 0.12011917 -0.07561956 -0.34952405 -0.22936612 0.47822037 0.34120443 0.34541258 -0.08111895 -0.9706114 0.66495156 -0.19615005 0.19648708 0.3227878 -0.02274806 -0.047066007 0.17100896 -0.17144997 0.051675767 -0.058085527 -0.5650414 0.25306815 -0.21132858 0.6128711 -0.26900405 0.23469347 -0.46898332 -0.061584186 -0.68971837 0.43322068 0.68867964 -0.5259067 0.517549 0.14567177 0.22184244 -0.08777406 -0.21877907 0.6168281 0.7432886 -0.10778723 -0.49922225 0.37656593 -0.16626334 0.08432301 -0.4074017 0.06767683 0.20729282 0.49842182 -0.18033533 0.5608057 -0.08944185 -0.4497383 0.42711145 0.6090682 -0.4733705 -0.049249794 0.10622987 0.1698446
AAAT -0.55661666 0.17591085 0.006130073 0.3827876 0.104690254 0.0634211 0.28210965 0.4906752 -0.3152432 0.12753265 -0.36139837 -0.288175 0.17793031 0.20595342 -0.093911394 -0.86318165 0.10228905 -0.21630347 -0.0137746725 -0.7974151 -0.44999024 -0.18929447 0.2775981 -0.023051143 0.06186815 -0.38665602 -1.017115 -0.47477138 -0.5013077 -0.09083152 -0.07370644 0.32341707 -0.54068786 -0.5182663 -0.045175973 -0.13619038 0.528225 0.10134696 0.15613952 -0.4215309 -0.27608678 0.56855506 -0.20827268 -0.23544204 0.14142802 0.025358576 -0.638514 0.13215312 0.43507043 0.20388916 -0.14756908 -0.120280124 -0.098250225 0.039755173 -0.19392386 0.17044252 0.6179889 0.34146807 -1.0654529 0.7641736 0.38200217 -0.42104518 -0.4781934 -0.043526404 0.04047922 -0.43644163 -0.09399999 0.36939973 0.10388149 0.007115706 -0.062492557 0.1566152 0.5405753 -0.042339183 0.12432422 -0.23803025 -0.04435557 -0.2554001 0.11749468 -0.58604175 -0.6390357 -0.5867018 -0.22890267 0.00038026323 -0.037837666 0.008440644 0.52494794 0.7477116 0.57691777 0.51397216 0.078885704 0.26948756 -0.28070033 -0.11634207 1.0158342 0.4574395 -0.49415246 -0.22617364 0.088536456 -0.59707206
ATTT -0.8768017 -0.06921706 0.20313239 -0.101099975 0.267093 -0.45898595 0.34312823 0.23085761 -0.4733243 0.6999382 -0.38000384 -0.2508512 -0.46694455 -1.1153538 0.5079218 -0.5997975 0.38252074 -0.70000947 -0.08687738 -0.7220708 0.3916756 0.18343781 0.66733176 0.15668367 -0.14329605 0.011700656 -0.11141335 -0.30789882 -0.6257866 -0.45627525 0.31148306 -0.1167301 -0.016575 -0.32649446 -0.4574439 0.36711273 0.20534486 -0.3722573 -0.40880033 -0.040858023 0.6161121 -0.39487952 0.32664964 0.36318007 0.32785422 0.49690735 -0.5125984 -0.20796448 -0.16616635 0.39927462 0.28065166 -0.29350236 -0.10820596 -0.1350099 -0.061402284 -0.11489076 0.27064526 0.9672141 -0.7755828 0.15251094 -0.16728932 0.46004847 -0.081424184 -0.32795534 0.16902755 -0.13206922 0.7391105 0.49107093 -0.2913987 -0.10866574 -0.42797565 -0.18650626 0.46375465 0.10841806 0.104310006 -0.53032875 -0.27722996 -0.05719803 -0.40159363 -0.42132914 -0.5338273 -0.07575566 -0.60745424 0.7120066 -0.5699913 0.12965204 0.18255194 0.4830448 0.17872417 -0.48301148 -0.062782615 0.21157283 0.010106019 0.19127795 0.40349126 0.046453085 -0.21028322 -0.07740108 0.39369783 -0.75886256
AGAA -0.12061817 -0.10707208 0.33260804 0.26356342 -0.18491517 0.012563143 -0.12904096 0.855832 -0.617962 0.06574114 0.21419819 -0.8639785 0.19968258 0.63994557 -0.03802037 -0.22943975 -0.2871383 -0.04996087 0.015127518 -1.1782978 0.111850694 0.07375908 0.07769995 -0.19864447 -0.3674115 0.098684594 -0.6252612 -0.54722583 -0.41748857 0.31689912 0.19998685 0.3519838 -0.078371115 -0.136144 -0.14958923 0.012594085 0.027315866 -0.13400769 -0.41577142 -1.1435252 -0.45442066 0.32357836 0.063556746 0.15607023 -0.19176461 -0.26414633 -0.504429 0.16897148 0.029989967 -0.25621906 0.6810123 0.2343765 -0.5237138 0.10911484 0.15856804 -0.6074315 -0.046686612 -0.2410733 -0.7880828 -0.32124668 -0.043203942 0.024150176 -0.27450562 -0.00601753 0.2303891 -0.049400605 0.15019025 0.8263678 -0.38466895 0.029155904 -0.08326375 0.16627352 0.031947207 0.2223678 1.0098999 0.104908004 -0.29830867 0.41375723 0.3482699 -0.3255602 0.21701284 -0.035395082 -0.4793012 0.14434172 -0.016398877 0.12181449 0.49300605 0.6116632 0.3717643 0.36245397 0.44792774 0.12554543 -0.90240574 0.20402977 0.12816435 0.48341462 0.002381042 0.22717623 0.52612126 0.32348204
TTCT -0.13025117 0.53786 0.047502678 -0.7217872 -0.054696634 -0.400737 0.40958342 -0.04368756 -0.104796715 0.3838647 -0.39032948 -0.9695782 -0.5153854 -0.17236856 -0.22803809 -0.65143114 -0.20146997 -0.6217652 -0.06837551 -0.72917736 0.6113403 0.49076614 -0.3891726 -0.279971 0.083159864 -0.14873427 -0.22969842 -0.53274024 0.011087868 -0.040155582 0.19753256 -0.14191926 0.2662049 0.18574546 -0.15338126 0.46789038 0.67733824 0.034005623 -0.024148656 -0.31424257 0.31262752 -0.66945124 -0.51657045 0.46997866 0.019137492 -0.44896966 0.025289023 -0.0015967423 -0.1593607 0.1606062 -0.34694725 -0.35624 0.7042494 0.570166 -0.2743947 0.46572515 0.43953788 0.11713074 -0.12255797 0.16941437 0.44346073 0.034264915 -0.09176297 0.027042378 0.3757896 0.2940772 0.33806142 0.5212959 0.025990317 0.08021806 -0.96696484 0.5773823 0.5549939 -0.27668405 -0.119118586 0.032686137 -0.7898465 -0.056076497 -0.3003918 0.11306036 -0.09034538 -0.4802775 -0.72329986 0.36789396 0.31076974 0.45916656 0.10379331 0.37900108 0.39815181 0.016482214 -0.10304059 0.51145744 0.24419272 -0.17694855 0.063189 -0.0049622976 0.014235558 -0.24448015 0.06698883 -0.07852707
TTTC -0.39568233 0.2006891 0.43840632 -0.69193125 0.059962288 -1.001325 0.20612584 0.37788957 -0.47346902 0.29263976 -0.70593435 -0.3306041 -0.2879065 0.002425561 -0.45838812 0.07664669 0.28891954 0.14612351 -0.27135214 -0.69334245 0.25921264 0.41995063 0.008863081 -0.1583428 0.226613 -0.32739592 0.06147664 0.3454707 -0.10940052 -0.2837825 0.52301437 0.46267867 0.5518002 0.10334749 -0.38764295 0.46680677 0.48393044 0.1252197 0.37186757 -0.837629 0.39868402 -0.5956858 -0.26508543 0.34747306 0.22399008 -0.24493209 -0.3647597 -0.27452958 0.10312014 0.32885307 -0.07435676 -0.40392917 0.22113605 -0.0015545482 -0.28806153 -0.25919524 0.19100125 0.5316207 -0.3357321 0.087508075 0.2437899 0.3322118 -0.376729 -0.67557263 0.10944377 0.15075994 0.60319835 -0.06943885 -0.67195016 -0.27804297 -1.0834975 0.17399335 0.519136 0.12391277 0.16809393 -0.10282087 -0.12658466 -0.017463565 -0.71968794 0.18971837 0.08926691 -0.08927023 -0.6864385 0.1880788 -0.26084682 0.08748311 0.42809916 0.29991135 0.10593721 0.079484634 -0.8671993 0.61800104 0.24051414 0.23030153 0.41423327 0.3668857 -0.28193575 -0.10531951 -0.09420832 0.1120237
TAAA -0.2918281 0.561382 -0.037404954 -0.07983626 -0.18898962 -0.16633287 -0.49014112 0.8185806 -0.6228131 0.14651524 -0.07895882 -0.6920727 0.0020483332 -0.03891336 -0.2533164 -0.47129136 0.04616948 -0.6476323 -0.30566576 -0.8231683 -0.8051478 0.39317837 -0.22113058 -0.34459957 0.3591254 -0.23418728 -0.9427764 -0.727989 -0.36458856 0.38756806 0.3757592 -0.023795567 0.20956366 -0.25189123 -0.030642746 -0.18253918 -0.14953685 -0.42963934 0.40709826 -0.90685004 -0.20149727 -0.14999904 0.25459173 -0.35490164 -0.050556287 0.08334012 -0.092160664 -0.39880466 -0.47090107 0.74077636 0.12871692 -0.28454113 0.021007692 0.7396506 0.28500986 -0.47343713 0.31502274 0.16477998 -0.20870204 0.42127794 0.64642763 -0.13400951 -0.04570237 0.3173298 -0.21891095 -0.14722879 0.95681363 0.35491782 -0.261578 0.4805432 -0.14557657 -0.08488492 0.6655946 -0.31984767 -0.18896617 -0.06934164 -0.30093977 -0.20973392 0.50343287 0.2126612 -0.41247845 -0.13022393 0.04520475 0.44247153 -0.16176715 0.2496838 0.07625667 0.57453525 0.6260547 0.37823248 0.70800513 -0.33725542 -0.50236577 0.581089 -0.20043145 0.61237675 0.09425477 0.3307762 -0.51567477 0.11164107
TTTA -0.27321112 -0.12995407 0.347349 0.33438742 0.63300794 -0.62633497 -0.18926191 0.8462513 -0.68078136 0.12810212 -0.441646 -0.9088738 -0.27486712 -0.23079805 0.2491968 0.19355531 0.376632 0.11588717 -0.52663344 -0.30376515 0.21553701 -0.05221875 -0.15100665 -0.4297963 0.1134772 -0.40661827 -0.6395944 -0.52961797 -0.7743373 0.35215452 0.41322324 0.4723259 0.32789192 -0.054599516 -0.95713204 0.61492896 -0.031979915 0.31955323 0.015266222 -0.7096076 0.27320647 -0.4899873 -0.10638868 -0.19878927 0.24106652 -0.2648808 0.24155906 -0.3797311 -0.6720205 0.65113354 0.32346815 -0.4545535 0.27337474 0.32428172 -0.4202041 -0.40632704 0.38061407 0.50158703 -0.3797904 -0.13039069 0.3173702 0.5193803 -0.6147503 -0.6815636 -0.33194074 0.35869396 0.26950398 -0.2506691 -0.056880854 0.28226578 -0.5296453 0.16358827 0.05537506 -0.34393388 0.7631438 -0.38774186 0.15782733 -0.049161334 0.052227486 -0.55554646 -0.1473504 0.3000428 -0.25807214 -0.31949303 -0.60241485 0.47170943 0.050823748 0.39630988 0.2755263 0.044090126 -0.13812774 0.05244035 -0.00930491 0.104185775 0.26027852 0.2553481 -0.08912358 -0.07778926 -0.19667953 -0.08395665
AAAG -0.23026006 0.053171076 0.1114091 0.18906198 -0.4140134 -0.3970363 -0.32342792 0.43462932 -0.25633928 -0.38304487 -0.74601465 -0.49331117 -0.005442556 0.24310823 0.020966165 -0.7381968 -0.09450923 -0.59640753 -0.19768564 -0.16902371 -0.4445731 -0.30484173 -0.07938647 -0.27236107 0.17640589 -0.44157284 -0.31883803 -0.14683178 -0.57903653 -0.061050475 -0.18104064 -0.022032376 -0.07277967 -0.36671445 0.123116255 -0.38210055 0.67616624 -0.7065952 -0.066964835 -0.65489113 0.049795005 0.5883082 0.103567325 -0.5501398 -0.40328392 -0.0032715676 -0.457942 0.2624152 0.20128241 0.069527924 -0.47063017 -0.25991872 -0.053561643 0.16841914 -0.3088707 -0.19088398 0.4909257 -0.2763443 -0.5745212 0.2015922 0.90246755 0.37140206 -0.2275351 -0.08061721 -0.24150093 0.5370873 0.46511427 0.19393419 -0.1895687 0.29759166 0.44739532 0.66805184 0.2630775 -0.06299703 0.7411909 0.37771755 0.26310554 -0.19751275 0.19418418 0.084853895 -0.4936315 0.4079337 -0.14511156 0.032973498 0.10096151 -0.1451082 0.291989 0.4044162 0.34615514 0.92759025 0.66317296 0.45774734 0.010066067 0.2762856 0.16338378 0.83619213 -0.24854825 0.44747782 -0.15152033 -1.038581
GAAA -0.3669677 0.14930202 0.11826252 -0.41347247 -0.19635749 -0.38773245 -0.30634028 0.7943629 -0.38345274 0.29169917 0.39522216 -0.44259074 0.10184553 0.23097731 0.21807967 0.048856877 0.02783325 -0.84548724 0.24544658 -1.5331897 -0.46474063 0.1725229 0.1890218 -0.50548583 -0.40718415 0.011364356 -1.1264181 -0.875439 0.21499649 0.24464898 0.18338504 0.36983383 0.1394915 -0.20764135 0.44927287 0.10864407 -0.034736425 -0.36556247 -0.21377267 -0.5262412 -0.6091345 0.37965086 -0.22092734 -0.055844866 0.3688655 0.2518772 -0.5214357 -0.22062957 0.108355835 0.17109825 0.10645284 -0.0021026412 -0.23893322 0.82867384 0.10583933 -0.15243736 -0.01002859 -0.09675515 -0.63822263 0.38873175 0.24764033 -0.21027553 -0.2145185 0.6400521 -0.3471738 0.05646277 0.20897529 0.23914708 -0.14055702 0.34357083 0.02009204 0.020545695 0.14457896 0.14533931 -0.093796186 0.20800577 0.29545322 -0.7390215 0.45889586 0.06361203 -0.09821215 -0.116334856 0.078727715 0.37833557 -0.4719378 -0.39695087 -0.07552745 0.9067276 0.20026948 0.45403662 0.48046768 -0.1219028 -0.5177523 0.43631598 0.34267986 0.4951741 0.26502812 0.098100744 0.017768698 -0.07073169
TTTG -0.3281152 -0.75414056 0.15248302 0.15353356 0.43846 -0.67640907 0.094015576 0.08285563 -0.53514934 -0.19734639 -0.36092734 -0.48027703 0.17553662 -0.3500524 -0.0022232889 0.25912258 0.25388265 -0.21154626 0.03599689 -0.42758697 -0.15304789 0.63247573 -0.12799567 -0.5924666 0.064213336 -0.10858554 -0.13985147 0.018950805 -0.16397887 -0.06344927 0.0042672064 0.3644548 0.25242692 -0.43718722 0.1845162 0.6221246 0.20150918 -0.55769575 -0.24699762 -0.32660365 0.45857084 -0.5669513 -0.3563254 0.12213859 0.4233966 0.24476726 -0.3719522 -0.34348804 0.004534823 0.2843393 0.55912954 -0.5046851 0.23359613 0.3152974 -0.6627078 0.46125078 0.1731132 0.31730103 -0.5415268 -0.241897 -0.29775777 0.27176538 -0.42303127 -0.16538101 -0.07740648 0.34168378 0.38274774 -0.5331116 0.05738492 0.5119703 -0.8414465 0.46687418 0.14819689 0.3486188 0.74299043 -0.84342945 0.28861043 -0.31533435 -0.50087506 0.22771552 -0.8375924 0.20812275 -0.6154257 0.09476886 -0.4086725 0.18492402 -0.053100497 0.39950147 0.4320831 0.29885885 -0.49171808 0.37384197 0.31363326 0.2926033 0.33331093 0.14216484 -0.24458991 -0.568847 0.0151812695 -0.025188254
CTTT -0.18252723 -0.61802197 0.55190414 0.402161 0.08420443 -0.443941 0.40663677 0.35527137 -0.42503923 0.32070246 -0.58772475 -0.29282668 -0.49084806 -0.77444947 0.4098328 0.2967797 0.35140967 -0.43253517 0.22664751 -0.2013868 0.49628428 0.45870128 0.46028814 -0.20364994 0.2844017 -0.24839851 -0.56423944 -0.47712153 -0.64027196 -0.2682894 0.8169716 -0.44338024 -0.2638799 0.03597681 -0.5365837 0.19755064 0.10173229 0.0650629 -0.007493196 -0.051779855 0.14333528 -0.7739869 -0.15070996 -0.16768497 0.2461877 0.017412497 -0.31649566 -0.27029386 -0.6516527 0.6805762 0.7007363 -0.37590334 0.0067359535 -0.086914875 -0.07755946 -0.13466564 -0.04200871 -0.023266148 -0.719742 -0.40192538 0.087984204 0.09723032 0.21838014 -0.47955576 0.09739066 0.3047705 0.6132416 0.22171587 -0.5046045 -0.09613021 -0.3498257 0.32268116 0.33701396 -0.4504242 0.4909621 -0.2416014 -0.111061804 0.05367584 0.22983836 0.17056818 -0.5453473 0.024066491 -0.17467345 0.59508073 -0.22647625 -0.20865749 -0.0993173 0.3001237 0.29825732 -0.40401414 0.008266522 0.23370194 0.5511912 0.7437041 0.7172518 -0.35864273 -0.531762 -0.030410284 0.5017052 -0.4759384
CAAA -0.4962773 0.1332548 0.117942676 -0.18354498 -0.70984465 -0.36946768 -0.10496782 0.63162005 -0.580031 0.29987517 -0.5012211 -0.177662 -0.04012022 0.22501503 -0.248627 0.043363787 0.06005622 -0.49354407 -0.31812912 -0.75598085 -0.6183227 0.56487316 -0.096883915 0.30047593 -0.10027882 -0.4202838 -0.7091902 -0.58927476 -0.062375396 0.16883384 0.33567014 0.54635483 -0.23490237 -0.07127979 0.28237367 -0.33451694 0.07567717 -0.64201826 0.43324795 -0.45218584 -0.7130066 0.13344862 0.16705091 -0.2940475 0.54543436 0.2575921 -0.19577385 -0.021812027 0.29010892 0.613682 -0.088665426 0.6400248 -0.3461385 0.2911411 -0.07798021 -0.47710583 -0.00881266 0.13889873 -0.6311875 0.29147255 0.9337038 0.26048175 -0.36807317 0.17233439 -0.23001364 -0.024036672 0.71239585 0.26031777 -0.51970625 0.48253858 0.4242305 0.13317782 0.49451545 0.08400215 -0.24200146 0.26308367 -0.17791362 0.01270495 0.43446237 -0.15666164 -0.044779945 -0.034302793 -0.06802193 0.953 -0.062755994 -0.045563105 0.17217113 0.6703936 0.37210453 0.30578703 0.5416162 -0.07858935 -0.04527291 0.31552038 0.43604824 0.2799952 0.469752 0.16554673 0.17926027 0.14714795
AATA -0.49624324 0.47162443 0.028758088 0.70291024 0.02410452 0.10386439 -0.031958085 0.6299168 -0.7353511 0.8213692 -0.3159326 -0.13765106 -0.45097464 0.0017697952 -0.021644728 -0.4016775 0.27452627 -0.37397355 0.2769242 -0.52610177 -0.21156995 0.03198941 0.4104973 0.18702315 -0.19112304 -0.1409878 -0.94266987 -0.45998785 -0.6050844 0.087900035 -0.35294697 0.14773555 0.28978834 -0.55696267 -0.31161514 0.32998413 -0.15452692 -0.093586676 -0.23938233 -0.35981485 0.24683294 -0.3989159 -0.2981563 0.55175114 0.1788198 -0.2486675 -0.2781595 -0.077057704 0.45909423 0.08316093 0.21338567 0.40939793 0.23838514 -0.024014384 -0.15410575 -0.34821248 0.18652168 0.25215238 -0.38849732 -0.5951246 0.11223589 -0.16078806 -0.76081115 -0.65228885 -0.6895751 -0.43262318 0.23667865 0.16361205 -0.71397454 0.33372235 0.49380052 0.21513881 0.2237971 -0.13831891 0.5821891 -0.13289723 -0.11976696 -0.11690631 -0.21493052 -0.64333576 -0.2636223 -0.094689764 0.058255713 0.09206389 -0.22837707 -0.26877853 0.123526245 0.9103429 0.14849181 0.33566928 0.5074331 -0.45673218 -0.58993775 -0.15243961 0.7699663 0.44899538 -0.22811761 -0.3301434 -0.08560949 -0.5304983
AAGA 0.018517993 0.690202 0.02155044 0.37264967 -0.2207968 -0.38850006 -0.13353646 0.1157476 -0.31939733 -0.19985388 -0.6183193 -0.17200108 -0.26825905 0.12373941 0.11939898 -0.5052175 0.15673894 -0.98374766 -0.23700315 -0.88819045 -0.20569523 0.019699192 0.41815633 -0.30470017 -0.86655253 -0.18536018 -0.0009989447 0.27931386 -0.47969323 0.026080513 0.074337564 -0.35548428 0.20627582 -0.10536207 -0.109489016 0.18800919 -0.31688243 -0.44870257 -0.45410365 -0.6998635 -0.3535288 0.08132317 0.2743551 0.4174193 -0.4108166 0.32332885 0.09044009 -0.03747925 0.48684263 -0.18769574 0.17332019 -0.5327872 -0.31136328 0.46252996 -0.5876181 -0.6097118 0.37077352 0.51187766 -0.62752354 0.16485587 0.5449088 0.18358938 0.03842156 0.25224668 -0.472946 0.22032017 0.22679092 0.7772896 -0.5874719 0.15280093 -0.10922188 0.3302286 -0.1798111 0.21111812 0.6990525 0.48707998 -0.3905948 0.5439009 -0.100470506 -0.25665826 -0.44636217 0.6464562 -0.11844837 0.14421572 0.35394663 0.16559997 0.33052608 0.34161672 0.3096208 0.30042455 0.73679054 0.080944695 -0.42536286 0.33430994 0.29194665 0.122763984 -0.058935348 0.61111826 0.5694944 -0.44328153
AATT -0.7932954 0.41219077 -0.07973804 0.24207412 0.32498285 -0.21900867 0.39334553 0.43039012 -0.3687279 0.5816513 -0.26094404 -0.13046362 -0.61690134 -0.48753616 -0.2689588 -0.25899655 0.36971816 -0.4411448 0.6201217 -0.97767675 0.5099107 -0.09754869 0.22432183 0.11944596 0.25583732 -0.0013795326 -0.346272 -0.22889037 -0.31540495 -0.096611775 -0.119156264 0.21057764 -0.36444458 -0.53207254 0.20615722 0.25931507 0.22683692 -0.29059532 0.20047268 -0.35977262 0.2037527 -0.45894548 -0.5621651 0.49423587 0.80015326 0.36907077 -0.035557795 -0.037833378 -0.16683416 0.20935373 0.06771851 0.26129037 0.25258142 0.44868672 -0.0930017 -0.35100138 0.08061424 0.43644363 -0.7722905 -0.12052416 0.40891126 -0.34050623 -0.40224978 -0.6867676 -0.037113767 0.053733923 0.1826204 0.40813476 -0.59988457 0.44259095 -0.5415821 0.3271444 -0.06797705 0.3181922 0.5384952 -0.06460338 -0.62464917 0.1387484 0.02198282 -0.54917717 -1.0287678 -0.08193704 -0.3126637 -0.57367676 -0.47777605 -0.4738498 0.53309965 0.5602231 0.60176194 0.22315729 0.39455187 -0.10763214 -0.22142449 -0.21719553 0.634591 0.28239042 0.0873125 -0.31255683 -0.045261648 -0.37458253
CAGG 0.19464798 0.07677508 0.19384551 -0.12477773 -0.21010558 -0.5290839 -0.15149722 -0.048454892 -0.2883674 0.08950317 -0.28173193 -0.22084884 0.85612506 -0.10032625 0.1842674 -0.347823 0.34587616 -0.005570586 -0.010049004 -0.31844383 -0.09674238 -0.1973333 0.07740308 0.072758585 0.09847365 -0.31611848 0.13814962 -0.09773989 0.27609548 0.15470172 0.7433291 -0.09386867 0.290072 -0.062538736 0.15818417 -0.17975572 -0.11248806 0.08561152 -0.52839094 -0.3410033 0.33362526 0.30584502 0.0041580577 -0.2738153 -0.049701534 0.11242019 -0.072774135 -0.057540614 0.033555437 -0.062018044 0.050383292 0.08396846 -0.6724384 -0.3674199 -1.1412795 0.12895127 -0.61500996 -0.66667634 -0.48270848 0.27172315 0.25137362 0.3038519 -0.0072121313 -0.44615442 -0.60307765 0.33185557 0.8439853 0.064565755 -0.7124657 0.30439338 0.10217334 0.38949442 0.5847249 0.45810696 0.5200891 0.9076046 0.5973936 -0.10259972 -0.5227999 0.23830228 0.05951474 0.015892645 -0.8497254 1.0341214 -0.70563835 -0.32722658 -0.16283229 -0.05790048 0.83237594 0.23842785 0.5627693 0.53917074 -0.011061755 -0.5564847 0.95154107 -0.025957152 0.4108049 -0.08637467 0.16938522 -0.2442737
CTGG 0.42477334 -0.5053417 0.79054356 0.2973636 -0.08816907 -0.50703144 -0.1714423 0.30909997 0.01089298 -0.45315802 -0.22814459 -0.20893694 0.54421276 0.16656284 -0.43397707 0.32936478 0.48317793 -0.53462684 -0.19759832 -0.072408184 0.2948224 0.842369 0.02925827 -0.51881987 0.10681847 0.37719724 -0.57249856 0.20104873 -0.07250632 0.5551075 -0.66051286 0.10383661 -0.11962867 -0.4565608 -0.031785544 0.50903577 0.21467245 -0.3314678 -0.26457012 -0.097261846 0.27158862 -0.418794 -0.078509726 -0.034853134 0.62455446 -0.48373452 -0.2909995 0.274472 -0.21203455 0.32401916 -0.3968011 -0.11169663 -0.10201323 -0.073770635 -0.3647491 0.70156616 0.017599514 -0.49636304 0.09456279 0.18777314 -0.070962586 -0.2078784 0.26677063 0.017168744 -0.16538249 -0.1530184 0.08044289 0.060377557 -0.17626011 -0.32437417 -0.058869556 0.28686878 0.41696012 -0.29889882 0.47374257 0.7158313 0.21213454 -0.4012816 -0.9762439 0.4943893 0.095532075 0.4663638 -0.3233001 0.8772158 -0.44490454 -0.37507075 -0.0838214 1.1453134 0.95238763 0.074269935 0.02285494 -0.31506264 0.0128604295 0.4261726 0.8472198 -0.10864833 0.45728466 -0.42719746 0.20784193 -0.7351199
TATT -0.78411806 0.20490345 -0.17096905 0.13548085 0.22226228 -0.44222754 0.70776314 0.64890987 -0.55618435 0.55895627 0.1719913 -0.32185775 -0.18283509 -0.5406845 -0.29867688 -0.44500905 0.41006115 -0.45158967 0.20883325 -0.6106032 0.14574517 0.07627535 0.37749505 -0.33009148 0.5767788 -0.0032080635 -0.54512596 0.026043838 -0.45674503 -0.45458826 0.25221637 0.11996346 -0.4033884 -0.06800062 -0.15218745 0.15882538 0.39135435 -0.27785608 0.19621304 -0.8380388 0.18946557 -0.36705568 -0.29392552 0.13122012 -0.021159112 -0.24342598 0.06725778 -0.6399052 -0.09881165 0.29265335 0.19161166 -0.45599574 0.17852926 0.2273548 -0.19186178 0.012875221 0.8574268 0.8776708 -0.50887656 0.4201108 0.027237952 -0.30540672 -0.09343378 -0.52815604 -0.20142063 0.39458263 0.22708715 0.0051292274 -0.33530825 -0.018398264 -0.6031725 0.25085968 0.10471654 -0.1282539 -0.18882193 -0.458579 -0.83769983 -0.28386682 -0.016464867 -0.09544501 -1.2765907 -0.480335 -0.54839784 0.11887282 0.01080282 -0.2661401 0.23074043 0.11938549 0.51111436 -0.110006995 0.3735426 -0.3236028 0.09969507 -0.29863733 0.58048075 0.051050946 0.34315532 -0.4147479 -0.181917 -0.27820525
CCTG 0.6256689 0.62905437 0.16068108 -0.31549224 -0.29114276 -0.45678914 0.017242216 0.6747859 0.1825564 -0.59365886 -0.5645425 -0.72958696 -0.656559 0.6973872 -0.049295165 0.20877954 0.047907148 -0.872644 0.16730598 0.10160148 0.29276004 0.37595665 0.1831385 -0.19203886 -0.12631656 0.054633148 0.04364643 -0.5435419 0.26920125 -0.123464435 -0.08754838 -0.3739945 -0.5890299 0.1537344 0.06474623 -0.03927533 0.19638067 -0.2107882 -0.044201497 -0.1611143 0.56443787 0.09651121 -0.1097969 0.065028176 0.45386356 0.35723394 -0.8032985 -0.19581862 0.006721249 0.71850055 0.4130016 -0.033103265 0.0055224067 0.11331383 -0.49919644 0.74106497 0.5607349 -0.36694458 0.23615228 -0.023257643 -0.41402933 -0.5375101 -0.43562618 0.124217235 0.07671541 -0.06354356 -0.004313364 0.39812064 0.10272923 0.67703736 0.037473496 -0.27180234 0.43523192 -0.11694392 -0.1449915 0.09877353 0.2912156 -0.23581648 -0.9054493 0.7409066 -0.2318481 -0.033965707 -0.5483719 0.60352266 -0.073902726 -6.420259e-05 0.38017166 0.7668121 0.3220057 -0.7832537 0.1534565 0.4368241 0.23305894 0.33955067 0.8010378 0.06578808 -0.041712772 -0.17015487 -0.1934269 -0.26793104
TCTT -0.4995299 -0.03837109 -0.3977869 0.26544937 0.12107124 -0.3816543 0.88588184 0.36749503 -0.41370836 -0.28342798 -0.1516889 -0.50811726 -0.28734455 -0.351611 0.32360074 -0.32337025 -0.090773635 -0.5028782 0.21692528 -0.46881643 -0.2332178 -0.059517812 -0.016621055 -0.078798465 -0.022221126 0.073186755 -0.043940686 -0.87475747 -0.06844235 0.25537282 1.1079158 -0.10202266 -0.10643153 -0.09677267 -0.3863652 0.46922985 0.557309 0.44930756 0.26657975 -0.9315961 0.4065535 -1.0283127 0.12835898 -0.13466987 0.1587806 0.102849066 -0.013595589 0.32887608 -0.5379883 0.36311 0.17716539 -0.7719202 0.18669091 0.50032055 -0.0076972013 0.311244 0.19573411 -0.018828075 -0.800333 -0.1553317 0.3233884 0.06248294 0.10528813 -0.25576955 0.2409183 0.23385984 0.1730262 0.14745222 -0.020187933 0.15598778 -0.49366745 0.31236354 0.32505006 -0.12542464 0.059419364 -0.32355848 -0.52009934 0.018835826 -0.302338 -0.20225117 0.1546401 0.053143438 -0.21916126 -0.41414282 -0.2799904 -0.3712735 -0.17853345 0.50630456 0.08648652 -0.4755795 -0.07570267 0.5153646 0.4464572 0.2866815 1.0098469 0.016047364 0.030298378 -0.58805275 -0.0017995199 0.028755652
AGGA -0.40897754 0.37326315 0.44163704 -0.25454593 0.2859374 -0.49300885 -0.21311477 0.46500978 0.04184985 -0.39895815 0.31060138 -0.72599536 0.3356502 0.51037306 -0.21574055 -0.09775035 0.53577626 -0.063910045 -0.07614171 -0.8981548 0.10067071 -0.5199574 -0.31510156 0.07497959 -0.4581708 0.82455903 -0.38586834 -0.017007155 -0.25163382 0.21265702 -0.19456053 -0.17436086 0.19317602 -0.5254465 -0.28178793 0.42176098 -0.15415518 0.21933612 -0.54415923 -1.0207808 -0.035011057 0.47614735 0.080572784 0.37908894 -0.3244901 -0.036502566 0.42761508 0.15219404 0.3464967 -0.33541957 0.14839077 -0.2381092 -0.4950231 -0.030894626 -0.0774401 -0.15510125 -0.14200057 -0.01979608 -0.23648022 0.105029106 -0.26320377 -0.18209381 0.20719069 -0.15372719 -0.35086197 -0.047838423 0.9012058 -0.046120252 -0.8380605 -0.07200275 -0.12112813 0.4505588 0.42190453 -0.25950554 0.8096452 0.8697089 0.025680793 0.2003126 -0.15637222 -0.37777907 -0.3642699 0.45074403 -0.117334865 0.63681847 -0.24779233 0.31115374 0.25756985 0.12149698 -0.08819414 0.3170167 0.71260524 0.37493283 -0.32634348 -0.22007726 1.0343959 0.15855986 0.08731274 0.27270868 0.84324294 -0.14940049
CAGA 0.45879832 0.22358721 -0.19296362 0.3575299 -0.15870997 -0.11870914 -0.0033569853 0.022470204 -0.519521 0.15484545 -0.713161 -0.46895772 0.5314006 0.5914986 0.45124754 -0.2680823 0.13603775 -0.28436753 -0.20511007 -0.877735 0.33509633 0.16918729 0.7259897 -0.11892066 -0.535975 -0.03178046 0.18250103 -0.33426324 0.06902615 0.13696605 0.6930157 -0.08290543 0.18114302 0.4357586 -0.09666872 0.10502408 -0.44456282 -0.32628292 -0.5537115 -0.4645152 -0.15800925 0.18940683 0.27533305 0.32469812 -0.5916702 0.16394283 -0.47453812 0.05298422 0.34268138 -0.35891584 0.33633208 0.021655342 -0.88681674 -0.2997865 -0.6656706 -0.39672628 0.22070922 0.12240079 -1.008055 0.11710696 0.48358107 0.26984218 0.01192746 0.29802698 -0.47439525 0.08479877 0.3543314 0.81981033 -0.40467367 -0.078420185 0.1101841 0.13835073 -0.079433374 0.06618715 0.7595399 0.4350397 -0.08201812 0.2943358 -0.6080599 -0.22808634 0.08043889 -0.06206422 -0.6643454 0.55337554 -0.16004735 -0.31423768 0.21506499 0.09519548 0.5381349 0.07336643 0.5878358 0.3663147 0.2691355 -0.16385596 0.05799878 -0.16877803 -0.1763182 0.22412245 0.7130352 -0.15498553
CCAG 0.42299482 -0.07297875 -0.101198904 -0.13335203 -0.21560493 -0.025751952 -0.25759968 1.1281829 -0.1902513 -0.45351225 -0.6233534 -0.72632605 -0.4522425 0.6494988 0.25510123 -0.23663723 -0.23742566 -0.0788287 -0.05807292 -0.027431529 -0.17992446 -0.63013524 0.97097963 0.019488761 0.3012029 0.45859963 0.3354817 -0.54609144 0.17809993 0.032828875 0.6143315 -0.16931254 0.46519893 -0.03986622 0.31092247 0.03689882 0.00020383835 -0.5805803 -0.5970951 -0.43117106 -0.35231027 0.13123602 -0.50174534 -0.012216354 0.18658903 0.13357134 -0.34873798 -0.4204562 0.29375845 0.031213371 0.45520815 -0.7503327 -0.023831641 -0.13037314 -0.5811986 0.22114176 -0.44676188 -0.080698326 -0.10203017 0.12417966 0.42245874 0.14503767 0.28539398 -0.13259578 -0.57059515 0.36623162 0.024482567 0.2961353 -0.4703921 0.48560718 -0.015498997 0.27187055 -0.19999419 -0.6603547 0.28242522 0.3931838 0.027356429 -0.09667093 -0.011501614 0.12818068 0.46195084 -0.62374085 -0.82050836 0.75056803 -0.7751592 -0.40659267 0.26296678 -0.3466073 0.0068752714 0.24894668 0.4980625 0.25108618 0.48489726 0.15951875 0.4762701 0.07688599 -0.14693598 -0.24390228 -0.11451932 -0.34818864
CACA -0.32378498 -0.21821788 -0.33436963 -0.3104309 -0.17697936 -0.26244837 -0.16209817 0.5209832 -0.20112742 0.21546787 -0.28094384 0.22037041 -0.28470135 0.42065173 0.17144348 -0.25731042 -0.3968949 0.22676167 0.1431957 -0.2648179 0.4632503 -0.1938678 0.13596214 0.25084186 -0.10031215 0.27575094 -0.38672543 0.14596073 -0.013781154 -0.2477447 0.582794 0.7904395 -0.04729572 -0.084025875 0.32962507 -0.33092818 -0.18297186 -0.19798015 -0.25459015 -0.4250453 -0.85338145 0.057087407 -0.26237583 0.09988049 0.18001895 0.1352784 -0.018334812 0.073867925 0.9906707 0.46687308 -0.11667956 -0.0163501 -0.28842038 -0.48720947 0.014341754 0.20897377 0.16552624 0.3392037 -0.2981945 0.051229097 0.46706682 0.8764658 -0.0005272806 -0.65048695 -0.39921305 -0.07993242 0.15280373 0.42191675 -0.2681273 0.519345 -0.30477983 0.04539967 0.5030966 -0.31832704 0.14702275 0.03982955 -0.035352014 0.05183876 -0.7262211 0.061307028 0.1569953 0.21851824 -0.729672 0.7946827 -0.001355746 -0.034161247 -0.11151479 0.22483045 0.15401673 -0.1486057 0.71166456 0.29127896 0.24755877 0.2114112 0.44157484 0.54231423 0.3041764 -0.48023894 0.059523236 0.066354774
TGAA -0.0655629 0.18372744 0.4803455 0.40942398 0.22430585 -0.13326094 0.37512082 0.66701216 -0.5377372 -0.11189656 0.21943712 -0.48110038 0.5270192 0.5133192 -0.17657782 -0.3161369 0.085591935 -0.6688826 0.16172154 -1.2807239 0.06095946 -0.06952995 -0.5503404 0.24239548 0.04968169 -0.12694597 -0.30962318 -0.7159481 0.112990096 0.085702986 -0.40192637 0.24709065 0.2090032 -0.10646407 0.14708735 -0.16197671 0.17488919 -0.21550488 0.08641976 -1.072378 -0.07666905 -0.0879834 0.31957197 0.4604152 0.011765196 0.008210583 -0.4580791 -0.15851869 0.3606299 0.15473714 0.42035702 0.035099134 -0.6428176 0.22439058 0.10501124 0.13269877 -0.26881596 -0.18352628 -0.6779588 0.09056361 -0.07648781 0.039216742 -0.17696479 0.16822462 -0.33541074 0.33776042 0.20226908 0.5383596 -0.44892955 0.24587156 -0.59026164 0.43449202 0.40455803 -0.5141927 0.46795386 -0.28892952 0.14918864 0.051408127 0.3610306 -0.19001296 -0.2621262 -0.063827805 0.03740667 -0.022529844 0.65953356 -0.080262944 0.21418256 0.60994756 0.23729675 0.19911556 0.33216068 0.24623297 -0.87959075 1.239209 -0.084960096 0.18823893 -0.6068981 0.30739114 0.35208166 0.5755794
AGAG 0.20106372 -0.13956289 -0.043325268 -0.31537998 -0.32759753 -0.09990627 0.09867196 0.31011564 0.07297991 0.0657134 -0.36713654 -0.2672844 -0.20298642 0.4507895 -0.12805034 -0.3028298 -0.32039964 -0.5178505 -0.05029614 -0.5620944 0.26672882 0.11146466 0.32526693 -0.477738 -0.3621627 -0.098018624 -0.025344016 -0.11386036 -0.6393771 -0.019870251 0.31725305 0.40393057 -0.124406956 -0.21177112 -0.17783286 0.08540075 -0.32722232 -0.6715921 -0.7357933 -0.9318595 -0.15028527 0.40272707 0.29517242 -0.18280397 -0.40204683 -0.14897081 -0.41023692 0.049785547 0.3069423 -0.22524588 0.09971185 -0.75141674 -0.22287649 0.41239113 -0.4720217 -0.24841183 0.2282927 -0.04323901 -0.52183765 -0.5281753 0.117809094 0.07547794 0.17374842 -0.1333305 -0.31013885 0.46531206 0.05504376 0.32218745 -0.6658306 -0.11065796 0.27045614 0.5330862 -0.031629473 0.28501013 1.0209548 0.25999892 0.13740307 0.23404072 -0.25939754 0.2612239 0.08650223 0.42712054 -0.8271701 0.28801268 -0.3081314 -0.2631324 0.23588048 8.621295e-05 -0.057543907 0.11971989 0.89394015 0.32237828 -0.72014844 -0.19547862 0.26977214 0.6858555 0.3976036 0.5807121 0.088682204 -0.1986996
TGTG 0.027415583 -0.06951194 0.34435388 0.594742 0.3394645 -0.541522 -0.07420678 0.2530056 -0.21365578 0.26597077 -0.45516914 -0.4388719 0.5191736 0.23790295 0.4030092 -0.33743617 0.0074399957 -0.46289647 -0.412911 -0.7255303 0.20650487 0.4555182 -0.01319296 -0.29699418 -0.049689308 -0.16687483 -0.031459477 -0.21229464 -0.034539253 -0.21620007 -0.2889847 0.18024503 -0.38605228 -0.13486262 -0.24902537 0.55843216 -0.07627557 -0.5692243 -0.21617101 -0.07118843 -0.031643033 -0.48666793 0.023936203 -0.53821564 0.6077441 -0.02892905 -0.17484874 -0.16959341 -0.07188903 0.09245256 0.3912041 -0.23320314 0.33088964 0.36426204 -0.22504272 0.7124382 0.16688055 -0.254672 0.13314451 -0.13770308 -0.48015496 -0.21357533 -0.13689123 0.77400166 -0.34744245 0.53136337 -0.19364446 0.25823978 -0.3725638 0.40864053 -0.7262856 -0.02654956 0.41675082 0.32627147 -0.08082376 -0.27550972 -0.021868331 -0.41422522 -0.41087294 0.11768638 -0.5885307 -0.5450674 -0.097925074 0.15850033 0.5432011 0.04528595 -0.50788087 0.31171674 0.42150092 -0.11176574 0.05841628 -0.04516061 0.2220119 0.5840451 0.59843 0.74956334 0.13117236 -0.12933952 0.011086048 -0.31481844
TTCA -0.085378475 0.2692804 0.109954365 0.0032452757 0.12338161 -0.23794079 -0.26498356 0.35165638 -0.5366795 0.7305997 -0.753528 -0.13495608 -0.37131423 0.17350866 -0.12793238 -0.24549158 -0.30819514 0.09075291 -0.17705491 -0.77665055 -0.063163385 -0.024694342 -0.6083087 -0.09269605 0.18595591 -0.1355441 -0.392109 -0.045721527 0.21341152 -0.5938409 0.5350601 0.49122557 0.5796726 0.16432741 -0.35578716 1.1546272 0.3608695 -0.3480374 -0.169594 -0.24819978 -0.051864278 -0.66166717 -0.48586577 0.1535588 -0.14431909 -0.2725634 -0.77033526 -0.10011001 0.26445475 -0.20583116 -0.7135789 -0.16128485 0.664627 0.1614918 0.29823807 -0.055099253 -0.079816826 0.4773734 0.26595575 0.18501654 0.85289115 0.30007553 -0.20034622 -0.099691 0.32723987 0.16569257 0.36475602 0.23288587 -0.41468325 0.38023522 -0.8758821 0.087777 0.21157055 -0.75150174 0.88643706 0.14365031 -0.5675462 -0.21815033 0.059017155 -0.13124268 0.35602555 -0.3269191 -0.86187536 0.60724545 -0.010871802 0.68509144 0.31997386 0.07246517 0.14154719 -0.31423098 0.33063245 0.55792415 0.08224038 -0.1913203 0.56732553 0.23986803 0.04372557 -0.2030332 -0.0035101399 0.23075497
TCTG 0.23782675 0.01982389 -0.10806462 -0.63196766 -0.0840607 -0.34490964 0.3594857 0.5541831 -0.03775156 -0.3248516 -0.7945522 -0.65830934 0.1958229 0.22724442 0.077154174 -0.4793605 -0.1178711 -0.59666765 0.15912572 -0.48235098 0.26603106 0.19921474 0.051796384 -0.2596166 -0.27597502 -0.032110985 -0.18515706 -0.3677665 0.35934442 0.0011789905 0.26924336 -0.29840514 -0.26096478 -0.16235566 -0.1917847 0.12081485 0.36572927 0.05390666 0.15089116 -0.1709289 0.58229464 -0.63782936 0.44088346 -0.116901614 0.40586114 0.2079684 -0.28850505 0.59393966 -0.34244284 0.26209465 -0.3981712 -0.45226192 0.13426994 0.7518565 -0.32717305 1.0222856 0.52946556 -0.29605332 -0.3663743 -0.14219612 -0.1579968 -0.20539877 0.28335533 0.23596342 0.4001634 0.0890143 -0.02183703 0.40402922 -0.030330982 0.3818316 -0.025827384 0.21313745 0.16181244 0.07833248 -0.22828023 -0.06289503 -0.38899416 -0.4875114 -1.0991504 0.27471808 0.007838416 -0.2070111 -0.32884282 0.07985079 0.3658868 -0.3823781 -0.13540018 0.8897323 0.15432872 -0.45374572 0.16290171 0.0059430636 0.116565466 0.47460383 0.7016978 0.23494704 0.1854567 -0.78914714 -0.13786264 -0.087625735
